<?xml version="1.0"?>
<MethodSetup Method="BDT::BDTG">
  <GeneralInfo>
    <Info name="TMVA Release" value="4.2.1 [262657]"/>
    <Info name="ROOT Release" value="6.05/03 [394499]"/>
    <Info name="Creator" value="skonstan"/>
    <Info name="Date" value="Wed Oct 24 10:42:44 2018"/>
    <Info name="Host" value="Linux vocms0301.cern.ch 2.6.32-573.7.1.el6.x86_64 #1 SMP Wed Sep 23 10:12:03 CEST 2015 x86_64 x86_64 x86_64 GNU/Linux"/>
    <Info name="Dir" value="/uscms_data/d3/skonstan/CMSSW_8_0_30/src/HiggsAnalysis/NtupleAnalysis/src/TopRecoTree/work/TMVA_BDT/test"/>
    <Info name="Training events" value="40000"/>
    <Info name="TrainingTime" value="7.84037280e+01"/>
    <Info name="AnalysisType" value="Classification"/>
  </GeneralInfo>
  <Options>
    <Option name="V" modified="Yes">False</Option>
    <Option name="VerbosityLevel" modified="No">Default</Option>
    <Option name="VarTransform" modified="No">None</Option>
    <Option name="H" modified="Yes">True</Option>
    <Option name="CreateMVAPdfs" modified="No">False</Option>
    <Option name="IgnoreNegWeightsInTraining" modified="No">False</Option>
    <Option name="NTrees" modified="Yes">1000</Option>
    <Option name="MaxDepth" modified="Yes">3</Option>
    <Option name="MinNodeSize" modified="Yes">2.5%</Option>
    <Option name="nCuts" modified="No">20</Option>
    <Option name="BoostType" modified="Yes">Grad</Option>
    <Option name="AdaBoostR2Loss" modified="No">quadratic</Option>
    <Option name="UseBaggedBoost" modified="Yes">True</Option>
    <Option name="Shrinkage" modified="Yes">1.000000e-01</Option>
    <Option name="AdaBoostBeta" modified="No">5.000000e-01</Option>
    <Option name="UseRandomisedTrees" modified="No">False</Option>
    <Option name="UseNvars" modified="No">4</Option>
    <Option name="UsePoissonNvars" modified="No">True</Option>
    <Option name="BaggedSampleFraction" modified="Yes">5.000000e-01</Option>
    <Option name="UseYesNoLeaf" modified="No">True</Option>
    <Option name="NegWeightTreatment" modified="Yes">ignorenegweightsintraining</Option>
    <Option name="Css" modified="No">1.000000e+00</Option>
    <Option name="Cts_sb" modified="No">1.000000e+00</Option>
    <Option name="Ctb_ss" modified="No">1.000000e+00</Option>
    <Option name="Cbb" modified="No">1.000000e+00</Option>
    <Option name="NodePurityLimit" modified="No">5.000000e-01</Option>
    <Option name="SeparationType" modified="No">giniindex</Option>
    <Option name="DoBoostMonitor" modified="No">False</Option>
    <Option name="UseFisherCuts" modified="No">False</Option>
    <Option name="MinLinCorrForFisher" modified="No">8.000000e-01</Option>
    <Option name="UseExclusiveVars" modified="No">False</Option>
    <Option name="DoPreselection" modified="No">False</Option>
    <Option name="SigToBkgFraction" modified="No">1.000000e+00</Option>
    <Option name="PruneMethod" modified="No">nopruning</Option>
    <Option name="PruneStrength" modified="No">0.000000e+00</Option>
    <Option name="PruningValFraction" modified="No">5.000000e-01</Option>
    <Option name="nEventsMin" modified="No">0</Option>
    <Option name="UseBaggedGrad" modified="No">False</Option>
    <Option name="GradBaggingFraction" modified="No">5.000000e-01</Option>
    <Option name="UseNTrainEvents" modified="No">0</Option>
    <Option name="NNodesMax" modified="No">0</Option>
  </Options>
  <Variables NVar="19">
    <Variable VarIndex="0" Expression="TrijetPtDR" Label="TrijetPtDR" Title="p_{T} #Delta R_{T}" Unit="" Internal="TrijetPtDR" Type="F" Min="2.28884292e+00" Max="2.05055493e+03"/>
    <Variable VarIndex="1" Expression="TrijetDijetPtDR" Label="TrijetDijetPtDR" Title="p_{T} #Delta R_{W}" Unit="" Internal="TrijetDijetPtDR" Type="F" Min="2.71476603e+00" Max="2.39652490e+03"/>
    <Variable VarIndex="2" Expression="TrijetBjetMass" Label="TrijetBjetMass" Title="m_{b-tagged jet}" Unit="" Internal="TrijetBjetMass" Type="F" Min="2.86401415e+00" Max="1.16203194e+02"/>
    <Variable VarIndex="3" Expression="TrijetLdgJetBDisc" Label="TrijetLdgJetBDisc" Title="Leading jet CSV" Unit="" Internal="TrijetLdgJetBDisc" Type="F" Min="-1.00000000e+00" Max="9.99438465e-01"/>
    <Variable VarIndex="4" Expression="TrijetSubldgJetBDisc" Label="TrijetSubldgJetBDisc" Title="Subleading jet CSV" Unit="" Internal="TrijetSubldgJetBDisc" Type="F" Min="-1.00000000e+00" Max="9.99597132e-01"/>
    <Variable VarIndex="5" Expression="TrijetBJetLdgJetMass" Label="TrijetBJetLdgJetMass" Title="m_{b, leading jet}" Unit="" Internal="TrijetBJetLdgJetMass" Type="F" Min="2.51767960e+01" Max="2.04301208e+03"/>
    <Variable VarIndex="6" Expression="TrijetBJetSubldgJetMass" Label="TrijetBJetSubldgJetMass" Title="m_{b, subleading jet}" Unit="" Internal="TrijetBJetSubldgJetMass" Type="F" Min="2.04992371e+01" Max="1.27247595e+03"/>
    <Variable VarIndex="7" Expression="TrijetMass" Label="TrijetMass" Title="m_{t}" Unit="GeV" Internal="TrijetMass" Type="F" Min="5.62575531e+01" Max="2.27202612e+03"/>
    <Variable VarIndex="8" Expression="TrijetDijetMass" Label="TrijetDijetMass" Title="m_{W}" Unit="" Internal="TrijetDijetMass" Type="F" Min="1.78041725e+01" Max="1.83191699e+03"/>
    <Variable VarIndex="9" Expression="TrijetBJetBDisc" Label="TrijetBJetBDisc" Title="b-tagged jet CSV" Unit="" Internal="TrijetBJetBDisc" Type="F" Min="-1.00000000e+01" Max="9.99635577e-01"/>
    <Variable VarIndex="10" Expression="TrijetSoftDrop_n2" Label="TrijetSoftDrop_n2" Title="SoftDrop_n2" Unit="" Internal="TrijetSoftDrop_n2" Type="F" Min="3.08857695e-03" Max="2.77434134e+00"/>
    <Variable VarIndex="11" Expression="TrijetLdgJetCvsL" Label="TrijetLdgJetCvsL" Title="Leading jet CvsL" Unit="" Internal="TrijetLdgJetCvsL" Type="F" Min="-6.45758390e-01" Max="9.96436894e-01"/>
    <Variable VarIndex="12" Expression="TrijetSubldgJetCvsL" Label="TrijetSubldgJetCvsL" Title="Subleading jet CvsL" Unit="" Internal="TrijetSubldgJetCvsL" Type="F" Min="-8.10358703e-01" Max="9.96833444e-01"/>
    <Variable VarIndex="13" Expression="TrijetLdgJetPtD" Label="TrijetLdgJetPtD" Title="Leading jet p_{T}D" Unit="" Internal="TrijetLdgJetPtD" Type="F" Min="0.00000000e+00" Max="1.00000000e+00"/>
    <Variable VarIndex="14" Expression="TrijetSubldgJetPtD" Label="TrijetSubldgJetPtD" Title="Subleading jet p_{T}D" Unit="" Internal="TrijetSubldgJetPtD" Type="F" Min="2.04772264e-01" Max="1.00000000e+00"/>
    <Variable VarIndex="15" Expression="TrijetLdgJetAxis2" Label="TrijetLdgJetAxis2" Title="Leading jet axis2" Unit="" Internal="TrijetLdgJetAxis2" Type="F" Min="0.00000000e+00" Max="1.71402052e-01"/>
    <Variable VarIndex="16" Expression="TrijetSubldgJetAxis2" Label="TrijetSubldgJetAxis2" Title="Subleading jet axis2" Unit="" Internal="TrijetSubldgJetAxis2" Type="F" Min="0.00000000e+00" Max="1.73325300e-01"/>
    <Variable VarIndex="17" Expression="TrijetLdgJetMult" Label="TrijetLdgJetMult" Title="Leading jet mult" Unit="" Internal="TrijetLdgJetMult" Type="I" Min="0.00000000e+00" Max="6.30000000e+01"/>
    <Variable VarIndex="18" Expression="TrijetSubldgJetMult" Label="TrijetSubldgJetMult" Title="Subleading jet mult" Unit="" Internal="TrijetSubldgJetMult" Type="I" Min="1.00000000e+00" Max="4.20000000e+01"/>
  </Variables>
  <Spectators NSpec="0"/>
  <Classes NClass="2">
    <Class Name="Signal" Index="0"/>
    <Class Name="Background" Index="1"/>
  </Classes>
  <Transformations NTransformations="0"/>
  <MVAPdfs/>
  <Weights NTrees="1000" AnalysisType="1">
    <BinaryTree type="DecisionTree" boostWeight="1.0000000000000000e+00" itree="0">
      <Node pos="s" depth="0" NCoef="0" IVar="7" Cut="2.3505932617187500e+02" cType="1" res="1.2166992528364062e-03" rms="4.9999850988388062e-01" purity="5.0121670961380005e-01" nType="0">
        <Node pos="l" depth="1" NCoef="0" IVar="8" Cut="1.0502690124511719e+02" cType="1" res="2.4853336811065674e-01" rms="4.3385615944862366e-01" purity="7.4853336811065674e-01" nType="0">
          <Node pos="l" depth="2" NCoef="0" IVar="8" Cut="5.9328357696533203e+01" cType="1" res="3.2388916611671448e-01" rms="3.8091444969177246e-01" purity="8.2388919591903687e-01" nType="0">
            <Node pos="l" depth="3" NCoef="0" IVar="-1" Cut="0.0000000000000000e+00" cType="1" res="-4.7417361289262772e-02" rms="4.3050244450569153e-01" purity="2.4570164084434509e-01" nType="-99"/>
            <Node pos="r" depth="3" NCoef="0" IVar="-1" Cut="0.0000000000000000e+00" cType="1" res="6.6262379288673401e-02" rms="3.5070842504501343e-01" purity="8.5637569427490234e-01" nType="-99"/>
          </Node>
          <Node pos="r" depth="2" NCoef="0" IVar="8" Cut="1.2330468750000000e+02" cType="1" res="-4.1679176688194275e-01" rms="2.7619671821594238e-01" purity="8.3208240568637848e-02" nType="0">
            <Node pos="l" depth="3" NCoef="0" IVar="-1" Cut="0.0000000000000000e+00" cType="1" res="-6.1460323631763458e-02" rms="3.7610369920730591e-01" purity="1.7053678631782532e-01" nType="-99"/>
            <Node pos="r" depth="3" NCoef="0" IVar="-1" Cut="0.0000000000000000e+00" cType="1" res="-8.9137628674507141e-02" rms="1.4158864319324493e-01" purity="2.0466210320591927e-02" nType="-99"/>
          </Node>
        </Node>
        <Node pos="r" depth="1" NCoef="0" IVar="11" Cut="9.1763299703598022e-01" cType="1" res="-4.9944865703582764e-01" rms="2.3474127054214478e-02" purity="5.5133865680545568e-04" nType="0">
          <Node pos="l" depth="2" NCoef="0" IVar="12" Cut="9.1108500957489014e-01" cType="1" res="-4.9973902106285095e-01" rms="1.6152542084455490e-02" purity="2.6097270892933011e-04" nType="0">
            <Node pos="l" depth="3" NCoef="0" IVar="-1" Cut="0.0000000000000000e+00" cType="1" res="-9.2034451663494110e-02" rms="2.2013897541910410e-03" purity="4.8461406549904495e-06" nType="-99"/>
            <Node pos="r" depth="3" NCoef="0" IVar="-1" Cut="0.0000000000000000e+00" cType="1" res="-9.3205094337463379e-02" rms="5.4433960467576981e-02" purity="2.9718880541622639e-03" nType="-99"/>
          </Node>
          <Node pos="r" depth="2" NCoef="0" IVar="-1" Cut="0.0000000000000000e+00" cType="1" res="-9.1300509870052338e-02" rms="5.9327445924282074e-02" purity="3.5322229377925396e-03" nType="-99"/>
        </Node>
      </Node>
    </BinaryTree>
    <BinaryTree type="DecisionTree" boostWeight="1.0000000000000000e+00" itree="1">
      <Node pos="s" depth="0" NCoef="0" IVar="7" Cut="2.7512249755859375e+02" cType="1" res="-4.3948735110461712e-03" rms="4.6909233927726746e-01" purity="4.9544841051101685e-01" nType="0">
        <Node pos="l" depth="1" NCoef="0" IVar="7" Cut="2.0503103637695312e+02" cType="1" res="1.5963691473007202e-01" rms="4.4679859280586243e-01" purity="6.7618024349212646e-01" nType="0">
          <Node pos="l" depth="2" NCoef="0" IVar="8" Cut="1.0443436431884766e+02" cType="1" res="2.8388872742652893e-01" rms="3.8159850239753723e-01" purity="8.1025266647338867e-01" nType="0">
            <Node pos="l" depth="3" NCoef="0" IVar="-1" Cut="0.0000000000000000e+00" cType="1" res="5.9752859175205231e-02" rms="3.5196617245674133e-01" purity="8.4993195533752441e-01" nType="-99"/>
            <Node pos="r" depth="3" NCoef="0" IVar="-1" Cut="0.0000000000000000e+00" cType="1" res="-5.8872327208518982e-02" rms="3.5634961724281311e-01" purity="1.5226164460182190e-01" nType="-99"/>
          </Node>
          <Node pos="r" depth="2" NCoef="0" IVar="7" Cut="2.1505834960937500e+02" cType="1" res="-4.0652376413345337e-01" rms="2.3420388996601105e-01" purity="6.5271303057670593e-02" nType="0">
            <Node pos="l" depth="3" NCoef="0" IVar="-1" Cut="0.0000000000000000e+00" cType="1" res="-4.4732525944709778e-02" rms="4.1877433657646179e-01" purity="2.5794285535812378e-01" nType="-99"/>
            <Node pos="r" depth="3" NCoef="0" IVar="-1" Cut="0.0000000000000000e+00" cType="1" res="-8.3289198577404022e-02" rms="1.3139620423316956e-01" purity="1.8736300989985466e-02" nType="-99"/>
          </Node>
        </Node>
        <Node pos="r" depth="1" NCoef="0" IVar="4" Cut="9.0422850847244263e-01" cType="1" res="-4.5368698239326477e-01" rms="2.0340912044048309e-02" purity="4.1389785474166274e-04" nType="0">
          <Node pos="l" depth="2" NCoef="0" IVar="11" Cut="8.3906465768814087e-01" cType="1" res="-4.5412498712539673e-01" rms="1.4476798241958022e-04" purity="0.0000000000000000e+00" nType="0">
            <Node pos="l" depth="3" NCoef="0" IVar="-1" Cut="0.0000000000000000e+00" cType="1" res="-8.3818607032299042e-02" rms="1.0237629612674937e-04" purity="0.0000000000000000e+00" nType="-99"/>
            <Node pos="r" depth="3" NCoef="0" IVar="-1" Cut="0.0000000000000000e+00" cType="1" res="-8.5050791501998901e-02" rms="1.9931927090510726e-04" purity="0.0000000000000000e+00" nType="-99"/>
          </Node>
          <Node pos="r" depth="2" NCoef="0" IVar="-1" Cut="0.0000000000000000e+00" cType="1" res="-8.4192194044589996e-02" rms="6.3202783465385437e-02" purity="4.0123504586517811e-03" nType="-99"/>
        </Node>
      </Node>
    </BinaryTree>
    <BinaryTree type="DecisionTree" boostWeight="1.0000000000000000e+00" itree="2">
      <Node pos="s" depth="0" NCoef="0" IVar="7" Cut="2.3629716491699219e+02" cType="1" res="7.9097249545156956e-04" rms="4.4200918078422546e-01" purity="5.0058430433273315e-01" nType="0">
        <Node pos="l" depth="1" NCoef="0" IVar="8" Cut="1.0661398315429688e+02" cType="1" res="2.0508952438831329e-01" rms="4.0681797266006470e-01" purity="7.4793213605880737e-01" nType="0">
          <Node pos="l" depth="2" NCoef="0" IVar="8" Cut="5.7546489715576172e+01" cType="1" res="2.7127993106842041e-01" rms="3.6863759160041809e-01" purity="8.2716268301010132e-01" nType="0">
            <Node pos="l" depth="3" NCoef="0" IVar="-1" Cut="0.0000000000000000e+00" cType="1" res="-5.2894365042448044e-02" rms="4.0827229619026184e-01" purity="2.1554532647132874e-01" nType="-99"/>
            <Node pos="r" depth="3" NCoef="0" IVar="-1" Cut="0.0000000000000000e+00" cType="1" res="5.5788036435842514e-02" rms="3.4673714637756348e-01" purity="8.5440206527709961e-01" nType="-99"/>
          </Node>
          <Node pos="r" depth="2" NCoef="0" IVar="7" Cut="2.0018125915527344e+02" cType="1" res="-3.7417265772819519e-01" rms="2.2521184384822845e-01" purity="5.4549645632505417e-02" nType="0">
            <Node pos="l" depth="3" NCoef="0" IVar="-1" Cut="0.0000000000000000e+00" cType="1" res="-5.9561319649219513e-02" rms="3.2171702384948730e-01" purity="1.1822571605443954e-01" nType="-99"/>
            <Node pos="r" depth="3" NCoef="0" IVar="-1" Cut="0.0000000000000000e+00" cType="1" res="-7.8149117529392242e-02" rms="1.0284557193517685e-01" purity="1.0907577350735664e-02" nType="-99"/>
          </Node>
        </Node>
        <Node pos="r" depth="1" NCoef="0" IVar="8" Cut="1.0343216705322266e+02" cType="1" res="-4.1141888499259949e-01" rms="3.8884364068508148e-02" purity="1.5146750956773758e-03" nType="0">
          <Node pos="l" depth="2" NCoef="0" IVar="6" Cut="1.8413357543945312e+02" cType="1" res="-4.0505784749984741e-01" rms="8.8676571846008301e-02" purity="7.9278508201241493e-03" nType="0">
            <Node pos="l" depth="3" NCoef="0" IVar="-1" Cut="0.0000000000000000e+00" cType="1" res="-7.5617007911205292e-02" rms="1.2170495837926865e-01" purity="1.5039199031889439e-02" nType="-99"/>
            <Node pos="r" depth="3" NCoef="0" IVar="-1" Cut="0.0000000000000000e+00" cType="1" res="-7.7789366245269775e-02" rms="2.0766518719028682e-04" purity="0.0000000000000000e+00" nType="-99"/>
          </Node>
          <Node pos="r" depth="2" NCoef="0" IVar="12" Cut="8.3194369077682495e-01" cType="1" res="-4.1291636228561401e-01" rms="2.2344551980495453e-03" purity="4.9320260586682707e-06" nType="0">
            <Node pos="l" depth="3" NCoef="0" IVar="-1" Cut="0.0000000000000000e+00" cType="1" res="-7.8446298837661743e-02" rms="2.3797526955604553e-03" purity="5.6297058108611964e-06" nType="-99"/>
            <Node pos="r" depth="3" NCoef="0" IVar="-1" Cut="0.0000000000000000e+00" cType="1" res="-7.9781346023082733e-02" rms="3.3371453173458576e-04" purity="0.0000000000000000e+00" nType="-99"/>
          </Node>
        </Node>
      </Node>
    </BinaryTree>
    <BinaryTree type="DecisionTree" boostWeight="1.0000000000000000e+00" itree="3">
      <Node pos="s" depth="0" NCoef="0" IVar="8" Cut="9.8852874755859375e+01" cType="1" res="1.4724312350153923e-03" rms="4.1760882735252380e-01" purity="5.0141668319702148e-01" nType="0">
        <Node pos="l" depth="1" NCoef="0" IVar="7" Cut="2.4901325988769531e+02" cType="1" res="2.0137305557727814e-01" rms="3.8276794552803040e-01" purity="7.6457071304321289e-01" nType="0">
          <Node pos="l" depth="2" NCoef="0" IVar="8" Cut="6.0254844665527344e+01" cType="1" res="2.4940617382526398e-01" rms="3.5865449905395508e-01" purity="8.2814997434616089e-01" nType="0">
            <Node pos="l" depth="3" NCoef="0" IVar="-1" Cut="0.0000000000000000e+00" cType="1" res="-4.5644097030162811e-02" rms="4.0954294800758362e-01" purity="2.3735055327415466e-01" nType="-99"/>
            <Node pos="r" depth="3" NCoef="0" IVar="-1" Cut="0.0000000000000000e+00" cType="1" res="5.4663062095642090e-02" rms="3.2703855633735657e-01" purity="8.7061613798141479e-01" nType="-99"/>
          </Node>
          <Node pos="r" depth="2" NCoef="0" IVar="-1" Cut="0.0000000000000000e+00" cType="1" res="-7.4232846498489380e-02" rms="1.7538655549287796e-02" purity="3.0747434357181191e-04" nType="-99"/>
        </Node>
        <Node pos="r" depth="1" NCoef="0" IVar="7" Cut="2.3152548217773438e+02" cType="1" res="-3.3851674199104309e-01" rms="1.9562317430973053e-01" purity="5.3846679627895355e-02" nType="0">
          <Node pos="l" depth="2" NCoef="0" IVar="8" Cut="1.0828221130371094e+02" cType="1" res="-2.2020170092582703e-01" rms="3.7617486715316772e-01" purity="2.2536210715770721e-01" nType="0">
            <Node pos="l" depth="3" NCoef="0" IVar="-1" Cut="0.0000000000000000e+00" cType="1" res="1.5475832624360919e-03" rms="4.8402488231658936e-01" purity="5.4995048046112061e-01" nType="-99"/>
            <Node pos="r" depth="3" NCoef="0" IVar="-1" Cut="0.0000000000000000e+00" cType="1" res="-6.6266961395740509e-02" rms="2.2758090496063232e-01" purity="5.6132223457098007e-02" nType="-99"/>
          </Node>
          <Node pos="r" depth="2" NCoef="0" IVar="4" Cut="9.0437823534011841e-01" cType="1" res="-3.7552419304847717e-01" rms="1.5114016830921173e-02" purity="1.9879449973814189e-04" nType="0">
            <Node pos="l" depth="3" NCoef="0" IVar="-1" Cut="0.0000000000000000e+00" cType="1" res="-7.3697224259376526e-02" rms="5.7228351943194866e-03" purity="0.0000000000000000e+00" nType="-99"/>
            <Node pos="r" depth="3" NCoef="0" IVar="-1" Cut="0.0000000000000000e+00" cType="1" res="-7.3955841362476349e-02" rms="4.2113054543733597e-02" purity="1.7754744039848447e-03" nType="-99"/>
          </Node>
        </Node>
      </Node>
    </BinaryTree>
    <BinaryTree type="DecisionTree" boostWeight="1.0000000000000000e+00" itree="4">
      <Node pos="s" depth="0" NCoef="0" IVar="7" Cut="2.6728314208984375e+02" cType="1" res="-2.8390069492161274e-03" rms="3.9828786253929138e-01" purity="4.9794402718544006e-01" nType="0">
        <Node pos="l" depth="1" NCoef="0" IVar="7" Cut="2.0695251464843750e+02" cType="1" res="1.2844811379909515e-01" rms="3.9801055192947388e-01" purity="6.9094473123550415e-01" nType="0">
          <Node pos="l" depth="2" NCoef="0" IVar="0" Cut="1.8745906066894531e+02" cType="1" res="2.1271994709968567e-01" rms="3.6399832367897034e-01" purity="8.0529469251632690e-01" nType="0">
            <Node pos="l" depth="3" NCoef="0" IVar="-1" Cut="0.0000000000000000e+00" cType="1" res="-9.4139119028113782e-05" rms="4.5409905910491943e-01" purity="5.6499445438385010e-01" nType="-99"/>
            <Node pos="r" depth="3" NCoef="0" IVar="-1" Cut="0.0000000000000000e+00" cType="1" res="5.5660061538219452e-02" rms="2.9518648982048035e-01" purity="8.8633805513381958e-01" nType="-99"/>
          </Node>
          <Node pos="r" depth="2" NCoef="0" IVar="7" Cut="2.1843516540527344e+02" cType="1" res="-3.3884379267692566e-01" rms="2.1067921817302704e-01" purity="5.6867700070142746e-02" nType="0">
            <Node pos="l" depth="3" NCoef="0" IVar="-1" Cut="0.0000000000000000e+00" cType="1" res="-5.2434071898460388e-02" rms="3.5420781373977661e-01" purity="1.8627396225929260e-01" nType="-99"/>
            <Node pos="r" depth="3" NCoef="0" IVar="-1" Cut="0.0000000000000000e+00" cType="1" res="-7.2808489203453064e-02" rms="1.2282045185565948e-01" purity="1.3471444137394428e-02" nType="-99"/>
          </Node>
        </Node>
        <Node pos="r" depth="1" NCoef="0" IVar="12" Cut="8.3194369077682495e-01" cType="1" res="-3.4156140685081482e-01" rms="4.6890223165974021e-04" purity="0.0000000000000000e+00" nType="0">
          <Node pos="l" depth="2" NCoef="0" IVar="8" Cut="8.5176483154296875e+01" cType="1" res="-3.4167999029159546e-01" rms="3.0460109701380134e-04" purity="0.0000000000000000e+00" nType="0">
            <Node pos="l" depth="3" NCoef="0" IVar="-1" Cut="0.0000000000000000e+00" cType="1" res="-6.9275602698326111e-02" rms="5.0483271479606628e-04" purity="0.0000000000000000e+00" nType="-99"/>
            <Node pos="r" depth="3" NCoef="0" IVar="-1" Cut="0.0000000000000000e+00" cType="1" res="-6.9620266556739807e-02" rms="2.2929809347260743e-04" purity="0.0000000000000000e+00" nType="-99"/>
          </Node>
          <Node pos="r" depth="2" NCoef="0" IVar="-1" Cut="0.0000000000000000e+00" cType="1" res="-7.0787966251373291e-02" rms="5.4279709002003074e-04" purity="0.0000000000000000e+00" nType="-99"/>
        </Node>
      </Node>
    </BinaryTree>
    <BinaryTree type="DecisionTree" boostWeight="1.0000000000000000e+00" itree="5">
      <Node pos="s" depth="0" NCoef="0" IVar="8" Cut="9.8852874755859375e+01" cType="1" res="-4.7761308960616589e-03" rms="3.7951681017875671e-01" purity="4.9486795067787170e-01" nType="0">
        <Node pos="l" depth="1" NCoef="0" IVar="7" Cut="2.3483168029785156e+02" cType="1" res="1.6226072609424591e-01" rms="3.6809912323951721e-01" purity="7.5844889879226685e-01" nType="0">
          <Node pos="l" depth="2" NCoef="0" IVar="7" Cut="2.0072114562988281e+02" cType="1" res="2.0641644299030304e-01" rms="3.5312700271606445e-01" purity="8.2861667871475220e-01" nType="0">
            <Node pos="l" depth="3" NCoef="0" IVar="-1" Cut="0.0000000000000000e+00" cType="1" res="4.7455966472625732e-02" rms="3.2586431503295898e-01" purity="8.6449712514877319e-01" nType="-99"/>
            <Node pos="r" depth="3" NCoef="0" IVar="-1" Cut="0.0000000000000000e+00" cType="1" res="-4.8151578754186630e-02" rms="4.2263850569725037e-01" purity="2.8735107183456421e-01" nType="-99"/>
          </Node>
          <Node pos="r" depth="2" NCoef="0" IVar="1" Cut="1.3272390747070312e+02" cType="1" res="-3.1058555841445923e-01" rms="8.1664592027664185e-02" purity="7.0498371496796608e-03" nType="0">
            <Node pos="l" depth="3" NCoef="0" IVar="-1" Cut="0.0000000000000000e+00" cType="1" res="-6.7026361823081970e-02" rms="1.8526012077927589e-02" purity="0.0000000000000000e+00" nType="-99"/>
            <Node pos="r" depth="3" NCoef="0" IVar="-1" Cut="0.0000000000000000e+00" cType="1" res="-6.4428731799125671e-02" rms="1.1258050799369812e-01" purity="1.3836570084095001e-02" nType="-99"/>
          </Node>
        </Node>
        <Node pos="r" depth="1" NCoef="0" IVar="7" Cut="2.1794303894042969e+02" cType="1" res="-2.8720670938491821e-01" rms="1.7754618823528290e-01" purity="4.9197956919670105e-02" nType="0">
          <Node pos="l" depth="2" NCoef="0" IVar="8" Cut="1.1102124786376953e+02" cType="1" res="-1.8788096308708191e-01" rms="3.8326221704483032e-01" purity="2.5143188238143921e-01" nType="0">
            <Node pos="l" depth="3" NCoef="0" IVar="-1" Cut="0.0000000000000000e+00" cType="1" res="-5.2862400189042091e-03" rms="4.7767618298530579e-01" purity="5.0827151536941528e-01" nType="-99"/>
            <Node pos="r" depth="3" NCoef="0" IVar="-1" Cut="0.0000000000000000e+00" cType="1" res="-6.2432840466499329e-02" rms="2.2303098440170288e-01" purity="5.4616551846265793e-02" nType="-99"/>
          </Node>
          <Node pos="r" depth="2" NCoef="0" IVar="18" Cut="1.5000000000000000e+01" cType="1" res="9.7759865224361420e-02" rms="5.1594120264053345e-01" purity="1.2984707718715072e-03" nType="0">
            <Node pos="l" depth="3" NCoef="0" IVar="-1" Cut="0.0000000000000000e+00" cType="1" res="-6.7040167748928070e-02" rms="2.1650895476341248e-02" purity="2.8817908605560660e-04" nType="-99"/>
            <Node pos="r" depth="3" NCoef="0" IVar="-1" Cut="0.0000000000000000e+00" cType="1" res="-6.5581798553466797e-02" rms="5.7553544640541077e-02" purity="3.7305108271539211e-03" nType="-99"/>
          </Node>
        </Node>
      </Node>
    </BinaryTree>
    <BinaryTree type="DecisionTree" boostWeight="1.0000000000000000e+00" itree="6">
      <Node pos="s" depth="0" NCoef="0" IVar="8" Cut="1.0419049835205078e+02" cType="1" res="7.7772833174094558e-04" rms="3.6241453886032104e-01" purity="5.0229221582412720e-01" nType="0">
        <Node pos="l" depth="1" NCoef="0" IVar="7" Cut="2.3483168029785156e+02" cType="1" res="1.4239206910133362e-01" rms="3.6241108179092407e-01" purity="7.4972796440124512e-01" nType="0">
          <Node pos="l" depth="2" NCoef="0" IVar="7" Cut="1.4127861022949219e+02" cType="1" res="1.8712596595287323e-01" rms="3.5136869549751282e-01" purity="8.2755732536315918e-01" nType="0">
            <Node pos="l" depth="3" NCoef="0" IVar="-1" Cut="0.0000000000000000e+00" cType="1" res="-5.9698473662137985e-02" rms="4.3721494078636169e-01" purity="2.8959569334983826e-01" nType="-99"/>
            <Node pos="r" depth="3" NCoef="0" IVar="-1" Cut="0.0000000000000000e+00" cType="1" res="4.4497489929199219e-02" rms="3.2149162888526917e-01" purity="8.6079603433609009e-01" nType="-99"/>
          </Node>
          <Node pos="r" depth="2" NCoef="0" IVar="0" Cut="3.1055267333984375e+02" cType="1" res="-2.8628489375114441e-01" rms="6.2702707946300507e-02" purity="3.9035079535096884e-03" nType="0">
            <Node pos="l" depth="3" NCoef="0" IVar="-1" Cut="0.0000000000000000e+00" cType="1" res="-6.5263360738754272e-02" rms="2.4078847840428352e-02" purity="0.0000000000000000e+00" nType="-99"/>
            <Node pos="r" depth="3" NCoef="0" IVar="-1" Cut="0.0000000000000000e+00" cType="1" res="-6.3260383903980255e-02" rms="8.0265916883945465e-02" purity="6.8965628743171692e-03" nType="-99"/>
          </Node>
        </Node>
        <Node pos="r" depth="1" NCoef="0" IVar="10" Cut="1.2432945519685745e-01" cType="1" res="-2.7420887351036072e-01" rms="1.2957412004470825e-01" purity="2.1821714937686920e-02" nType="0">
          <Node pos="l" depth="2" NCoef="0" IVar="10" Cut="7.2317034006118774e-02" cType="1" res="-2.8368413448333740e-01" rms="9.1917291283607483e-02" purity="9.7670890390872955e-03" nType="0">
            <Node pos="l" depth="3" NCoef="0" IVar="-1" Cut="0.0000000000000000e+00" cType="1" res="-6.4222149550914764e-02" rms="7.1919217705726624e-02" purity="5.3390590474009514e-03" nType="-99"/>
            <Node pos="r" depth="3" NCoef="0" IVar="-1" Cut="0.0000000000000000e+00" cType="1" res="-6.0323972254991531e-02" rms="1.5269342064857483e-01" purity="3.0009565874934196e-02" nType="-99"/>
          </Node>
          <Node pos="r" depth="2" NCoef="0" IVar="-1" Cut="0.0000000000000000e+00" cType="1" res="-4.1235927492380142e-02" rms="2.8834483027458191e-01" purity="1.2916572391986847e-01" nType="-99"/>
        </Node>
      </Node>
    </BinaryTree>
    <BinaryTree type="DecisionTree" boostWeight="1.0000000000000000e+00" itree="7">
      <Node pos="s" depth="0" NCoef="0" IVar="7" Cut="2.4970323181152344e+02" cType="1" res="2.1240713249426335e-04" rms="3.4785786271095276e-01" purity="5.0298213958740234e-01" nType="0">
        <Node pos="l" depth="1" NCoef="0" IVar="7" Cut="2.0358874511718750e+02" cType="1" res="1.1302789300680161e-01" rms="3.6299285292625427e-01" purity="7.2248840332031250e-01" nType="0">
          <Node pos="l" depth="2" NCoef="0" IVar="0" Cut="1.8607238769531250e+02" cType="1" res="1.6826771199703217e-01" rms="3.4304070472717285e-01" purity="8.1507062911987305e-01" nType="0">
            <Node pos="l" depth="3" NCoef="0" IVar="-1" Cut="0.0000000000000000e+00" cType="1" res="-2.5791209191083908e-03" rms="4.3482455611228943e-01" purity="5.7693731784820557e-01" nType="-99"/>
            <Node pos="r" depth="3" NCoef="0" IVar="-1" Cut="0.0000000000000000e+00" cType="1" res="4.8757068812847137e-02" rms="2.8003159165382385e-01" purity="8.9618700742721558e-01" nType="-99"/>
          </Node>
          <Node pos="r" depth="2" NCoef="0" IVar="1" Cut="1.2904415893554688e+02" cType="1" res="-2.5881570577621460e-01" rms="2.6034721732139587e-01" purity="9.9276892840862274e-02" nType="0">
            <Node pos="l" depth="3" NCoef="0" IVar="-1" Cut="0.0000000000000000e+00" cType="1" res="-7.3331318795681000e-02" rms="1.7936086654663086e-01" purity="2.8815034776926041e-02" nType="-99"/>
            <Node pos="r" depth="3" NCoef="0" IVar="-1" Cut="0.0000000000000000e+00" cType="1" res="-4.7868881374597549e-02" rms="2.8154867887496948e-01" purity="1.3171221315860748e-01" nType="-99"/>
          </Node>
        </Node>
        <Node pos="r" depth="1" NCoef="0" IVar="4" Cut="9.0421551465988159e-01" cType="1" res="-2.5800332427024841e-01" rms="2.3959029465913773e-02" purity="5.6923250667750835e-04" nType="0">
          <Node pos="l" depth="2" NCoef="0" IVar="10" Cut="1.2322545796632767e-01" cType="1" res="-2.5840711593627930e-01" rms="1.5279863961040974e-02" purity="2.2853023256175220e-04" nType="0">
            <Node pos="l" depth="3" NCoef="0" IVar="-1" Cut="0.0000000000000000e+00" cType="1" res="-6.2065139412879944e-02" rms="6.9022743264213204e-04" purity="0.0000000000000000e+00" nType="-99"/>
            <Node pos="r" depth="3" NCoef="0" IVar="-1" Cut="0.0000000000000000e+00" cType="1" res="-6.2136631458997726e-02" rms="3.2541465014219284e-02" purity="1.0417532175779343e-03" nType="-99"/>
          </Node>
          <Node pos="r" depth="2" NCoef="0" IVar="-1" Cut="0.0000000000000000e+00" cType="1" res="-6.1456967145204544e-02" rms="5.8432210236787796e-02" purity="3.4235150087624788e-03" nType="-99"/>
        </Node>
      </Node>
    </BinaryTree>
    <BinaryTree type="DecisionTree" boostWeight="1.0000000000000000e+00" itree="8">
      <Node pos="s" depth="0" NCoef="0" IVar="8" Cut="9.8852874755859375e+01" cType="1" res="1.5580514445900917e-03" rms="3.3460584282875061e-01" purity="5.0304484367370605e-01" nType="0">
        <Node pos="l" depth="1" NCoef="0" IVar="7" Cut="2.4025985717773438e+02" cType="1" res="1.3183881342411041e-01" rms="3.3876907825469971e-01" purity="7.6788407564163208e-01" nType="0">
          <Node pos="l" depth="2" NCoef="0" IVar="8" Cut="5.6392375946044922e+01" cType="1" res="1.6422556340694427e-01" rms="3.3410346508026123e-01" purity="8.3531665802001953e-01" nType="0">
            <Node pos="l" depth="3" NCoef="0" IVar="-1" Cut="0.0000000000000000e+00" cType="1" res="-6.2147580087184906e-02" rms="3.5769450664520264e-01" purity="1.6666768491268158e-01" nType="-99"/>
            <Node pos="r" depth="3" NCoef="0" IVar="-1" Cut="0.0000000000000000e+00" cType="1" res="4.0318429470062256e-02" rms="3.1580367684364319e-01" purity="8.6580568552017212e-01" nType="-99"/>
          </Node>
          <Node pos="r" depth="2" NCoef="0" IVar="10" Cut="2.6710516214370728e-01" cType="1" res="-2.3518109321594238e-01" rms="6.1245813965797424e-02" purity="3.7109763361513615e-03" nType="0">
            <Node pos="l" depth="3" NCoef="0" IVar="-1" Cut="0.0000000000000000e+00" cType="1" res="-5.9354104101657867e-02" rms="5.3505141288042068e-02" purity="2.6567287277430296e-03" nType="-99"/>
            <Node pos="r" depth="3" NCoef="0" IVar="-1" Cut="0.0000000000000000e+00" cType="1" res="-5.9151835739612579e-02" rms="6.8070180714130402e-02" purity="4.7654178924858570e-03" nType="-99"/>
          </Node>
        </Node>
        <Node pos="r" depth="1" NCoef="0" IVar="10" Cut="1.3391651213169098e-01" cType="1" res="-2.2083820402622223e-01" rms="1.6953288018703461e-01" purity="5.0950042903423309e-02" nType="0">
          <Node pos="l" depth="2" NCoef="0" IVar="10" Cut="9.6515320241451263e-02" cType="1" res="-2.3689341545104980e-01" rms="1.2391930073499680e-01" purity="2.3175572976469994e-02" nType="0">
            <Node pos="l" depth="3" NCoef="0" IVar="-1" Cut="0.0000000000000000e+00" cType="1" res="-5.9991579502820969e-02" rms="1.0056477040052414e-01" purity="1.3747380115091801e-02" nType="-99"/>
            <Node pos="r" depth="3" NCoef="0" IVar="-1" Cut="0.0000000000000000e+00" cType="1" res="-4.4289071112871170e-02" rms="2.5021076202392578e-01" purity="1.1271852254867554e-01" nType="-99"/>
          </Node>
          <Node pos="r" depth="2" NCoef="0" IVar="-1" Cut="0.0000000000000000e+00" cType="1" res="-2.4491705000400543e-02" rms="3.2876497507095337e-01" purity="2.4561154842376709e-01" nType="-99"/>
        </Node>
      </Node>
    </BinaryTree>
    <BinaryTree type="DecisionTree" boostWeight="1.0000000000000000e+00" itree="9">
      <Node pos="s" depth="0" NCoef="0" IVar="8" Cut="1.0733486938476562e+02" cType="1" res="3.8335926365107298e-04" rms="3.2444509863853455e-01" purity="5.0326740741729736e-01" nType="0">
        <Node pos="l" depth="1" NCoef="0" IVar="7" Cut="2.1204974365234375e+02" cType="1" res="1.0337857156991959e-01" rms="3.4355685114860535e-01" purity="7.3814934492111206e-01" nType="0">
          <Node pos="l" depth="2" NCoef="0" IVar="7" Cut="1.4196623229980469e+02" cType="1" res="1.5582305192947388e-01" rms="3.3153212070465088e-01" purity="8.4429866075515747e-01" nType="0">
            <Node pos="l" depth="3" NCoef="0" IVar="-1" Cut="0.0000000000000000e+00" cType="1" res="-4.7615285962820053e-02" rms="4.4673600792884827e-01" purity="3.4226578474044800e-01" nType="-99"/>
            <Node pos="r" depth="3" NCoef="0" IVar="-1" Cut="0.0000000000000000e+00" cType="1" res="4.0986876934766769e-02" rms="3.0315732955932617e-01" purity="8.7929689884185791e-01" nType="-99"/>
          </Node>
          <Node pos="r" depth="2" NCoef="0" IVar="7" Cut="2.7882394409179688e+02" cType="1" res="-2.4362015724182129e-01" rms="1.8203337490558624e-01" purity="3.5813286900520325e-02" nType="0">
            <Node pos="l" depth="3" NCoef="0" IVar="-1" Cut="0.0000000000000000e+00" cType="1" res="-5.9602051973342896e-02" rms="2.4941544234752655e-01" purity="6.8671010434627533e-02" nType="-99"/>
            <Node pos="r" depth="3" NCoef="0" IVar="-1" Cut="0.0000000000000000e+00" cType="1" res="-5.8008078485727310e-02" rms="4.2456365190446377e-03" purity="0.0000000000000000e+00" nType="-99"/>
          </Node>
        </Node>
        <Node pos="r" depth="1" NCoef="0" IVar="10" Cut="1.3453257083892822e-01" cType="1" res="-2.1510374546051025e-01" rms="9.9625773727893829e-02" purity="1.1846072971820831e-02" nType="0">
          <Node pos="l" depth="2" NCoef="0" IVar="7" Cut="2.2926788330078125e+02" cType="1" res="-2.1743334829807281e-01" rms="7.8939989209175110e-02" purity="6.7728138528764248e-03" nType="0">
            <Node pos="l" depth="3" NCoef="0" IVar="-1" Cut="0.0000000000000000e+00" cType="1" res="-5.4623771458864212e-02" rms="1.8848679959774017e-01" purity="3.8869932293891907e-02" nType="-99"/>
            <Node pos="r" depth="3" NCoef="0" IVar="-1" Cut="0.0000000000000000e+00" cType="1" res="-5.8711215853691101e-02" rms="2.8243658598512411e-03" purity="0.0000000000000000e+00" nType="-99"/>
          </Node>
          <Node pos="r" depth="2" NCoef="0" IVar="-1" Cut="0.0000000000000000e+00" cType="1" res="-4.5799020677804947e-02" rms="2.2924289107322693e-01" purity="7.1511313319206238e-02" nType="-99"/>
        </Node>
      </Node>
    </BinaryTree>
    <BinaryTree type="DecisionTree" boostWeight="1.0000000000000000e+00" itree="10">
      <Node pos="s" depth="0" NCoef="0" IVar="8" Cut="9.8852874755859375e+01" cType="1" res="2.8902271296828985e-03" rms="3.1361404061317444e-01" purity="5.0648266077041626e-01" nType="0">
        <Node pos="l" depth="1" NCoef="0" IVar="5" Cut="1.8519760131835938e+02" cType="1" res="1.0945202410221100e-01" rms="3.2747906446456909e-01" purity="7.6598650217056274e-01" nType="0">
          <Node pos="l" depth="2" NCoef="0" IVar="8" Cut="5.6391902923583984e+01" cType="1" res="1.3680872321128845e-01" rms="3.2621592283248901e-01" purity="8.3221024274826050e-01" nType="0">
            <Node pos="l" depth="3" NCoef="0" IVar="-1" Cut="0.0000000000000000e+00" cType="1" res="-5.1978297531604767e-02" rms="3.7179636955261230e-01" purity="1.8666423857212067e-01" nType="-99"/>
            <Node pos="r" depth="3" NCoef="0" IVar="-1" Cut="0.0000000000000000e+00" cType="1" res="3.6009125411510468e-02" rms="3.1101542711257935e-01" purity="8.6301302909851074e-01" nType="-99"/>
          </Node>
          <Node pos="r" depth="2" NCoef="0" IVar="3" Cut="2.3746627569198608e-01" cType="1" res="-2.0282942056655884e-01" rms="1.0298254340887070e-01" purity="1.0030959732830524e-02" nType="0">
            <Node pos="l" depth="3" NCoef="0" IVar="-1" Cut="0.0000000000000000e+00" cType="1" res="-5.8555092662572861e-02" rms="8.3657085895538330e-02" purity="5.0574508495628834e-03" nType="-99"/>
            <Node pos="r" depth="3" NCoef="0" IVar="-1" Cut="0.0000000000000000e+00" cType="1" res="-5.5139437317848206e-02" rms="1.1842646449804306e-01" purity="1.4799951575696468e-02" nType="-99"/>
          </Node>
        </Node>
        <Node pos="r" depth="1" NCoef="0" IVar="10" Cut="1.3391651213169098e-01" cType="1" res="-1.8319612741470337e-01" rms="1.6844496130943298e-01" purity="5.3317211568355560e-02" nType="0">
          <Node pos="l" depth="2" NCoef="0" IVar="5" Cut="1.0328993988037109e+02" cType="1" res="-1.9614768028259277e-01" rms="1.3243128359317780e-01" purity="2.7041023597121239e-02" nType="0">
            <Node pos="l" depth="3" NCoef="0" IVar="-1" Cut="0.0000000000000000e+00" cType="1" res="-5.6078273802995682e-02" rms="1.9913792610168457e-01" purity="5.4345190525054932e-02" nType="-99"/>
            <Node pos="r" depth="3" NCoef="0" IVar="-1" Cut="0.0000000000000000e+00" cType="1" res="-5.3946122527122498e-02" rms="1.1703687161207199e-01" purity="2.2479159757494926e-02" nType="-99"/>
          </Node>
          <Node pos="r" depth="2" NCoef="0" IVar="-1" Cut="0.0000000000000000e+00" cType="1" res="-2.2385492920875549e-02" rms="3.0732998251914978e-01" purity="2.3605769872665405e-01" nType="-99"/>
        </Node>
      </Node>
    </BinaryTree>
    <BinaryTree type="DecisionTree" boostWeight="1.0000000000000000e+00" itree="11">
      <Node pos="s" depth="0" NCoef="0" IVar="7" Cut="2.2994868469238281e+02" cType="1" res="-9.4600440934300423e-04" rms="3.0425640940666199e-01" purity="4.9828347563743591e-01" nType="0">
        <Node pos="l" depth="1" NCoef="0" IVar="7" Cut="1.9972209167480469e+02" cType="1" res="9.4171144068241119e-02" rms="3.3612191677093506e-01" purity="7.5714015960693359e-01" nType="0">
          <Node pos="l" depth="2" NCoef="0" IVar="7" Cut="1.3860621643066406e+02" cType="1" res="1.2568579614162445e-01" rms="3.2192897796630859e-01" purity="8.2308781147003174e-01" nType="0">
            <Node pos="l" depth="3" NCoef="0" IVar="-1" Cut="0.0000000000000000e+00" cType="1" res="-5.7232230901718140e-02" rms="4.0684574842453003e-01" purity="2.5221800804138184e-01" nType="-99"/>
            <Node pos="r" depth="3" NCoef="0" IVar="-1" Cut="0.0000000000000000e+00" cType="1" res="3.5282265394926071e-02" rms="3.0101233720779419e-01" purity="8.5391360521316528e-01" nType="-99"/>
          </Node>
          <Node pos="r" depth="2" NCoef="0" IVar="1" Cut="1.5560571289062500e+02" cType="1" res="-1.5244349837303162e-01" rms="3.4274464845657349e-01" purity="2.4107395112514496e-01" nType="0">
            <Node pos="l" depth="3" NCoef="0" IVar="-1" Cut="0.0000000000000000e+00" cType="1" res="-5.1186699420213699e-02" rms="3.3817017078399658e-01" purity="1.9109694659709930e-01" nType="-99"/>
            <Node pos="r" depth="3" NCoef="0" IVar="-1" Cut="0.0000000000000000e+00" cType="1" res="-1.7070585861802101e-02" rms="3.2788228988647461e-01" purity="2.9203897714614868e-01" nType="-99"/>
          </Node>
        </Node>
        <Node pos="r" depth="1" NCoef="0" IVar="10" Cut="1.2387130409479141e-01" cType="1" res="-1.8313954770565033e-01" rms="5.4413184523582458e-02" purity="2.4525108747184277e-03" nType="0">
          <Node pos="l" depth="2" NCoef="0" IVar="8" Cut="1.2740359497070312e+02" cType="1" res="-1.8006637692451477e-01" rms="2.5276832282543182e-02" purity="3.9432331686839461e-04" nType="0">
            <Node pos="l" depth="3" NCoef="0" IVar="-1" Cut="0.0000000000000000e+00" cType="1" res="-5.7017501443624496e-02" rms="6.9146178662776947e-02" purity="3.0152916442602873e-03" nType="-99"/>
            <Node pos="r" depth="3" NCoef="0" IVar="-1" Cut="0.0000000000000000e+00" cType="1" res="-5.6034211069345474e-02" rms="1.7267855582758784e-03" purity="0.0000000000000000e+00" nType="-99"/>
          </Node>
          <Node pos="r" depth="2" NCoef="0" IVar="6" Cut="1.6152700805664062e+02" cType="1" res="-1.9389975070953369e-01" rms="1.0460228472948074e-01" purity="9.6589382737874985e-03" nType="0">
            <Node pos="l" depth="3" NCoef="0" IVar="-1" Cut="0.0000000000000000e+00" cType="1" res="-5.8247175067663193e-02" rms="1.0394335538148880e-01" purity="7.8067709691822529e-03" nType="-99"/>
            <Node pos="r" depth="3" NCoef="0" IVar="-1" Cut="0.0000000000000000e+00" cType="1" res="-5.3812090307474136e-02" rms="1.0399673879146576e-01" purity="1.0862924158573151e-02" nType="-99"/>
          </Node>
        </Node>
      </Node>
    </BinaryTree>
    <BinaryTree type="DecisionTree" boostWeight="1.0000000000000000e+00" itree="12">
      <Node pos="s" depth="0" NCoef="0" IVar="8" Cut="1.0553614044189453e+02" cType="1" res="2.5645413552410901e-04" rms="2.9754319787025452e-01" purity="5.0561535358428955e-01" nType="0">
        <Node pos="l" depth="1" NCoef="0" IVar="7" Cut="2.0421037292480469e+02" cType="1" res="8.1116080284118652e-02" rms="3.2522523403167725e-01" purity="7.4540990591049194e-01" nType="0">
          <Node pos="l" depth="2" NCoef="0" IVar="7" Cut="1.4077833557128906e+02" cType="1" res="1.2595458328723907e-01" rms="3.1678801774978638e-01" purity="8.5749238729476929e-01" nType="0">
            <Node pos="l" depth="3" NCoef="0" IVar="-1" Cut="0.0000000000000000e+00" cType="1" res="-4.6466100960969925e-02" rms="4.2659208178520203e-01" purity="3.0594807863235474e-01" nType="-99"/>
            <Node pos="r" depth="3" NCoef="0" IVar="-1" Cut="0.0000000000000000e+00" cType="1" res="3.6315672099590302e-02" rms="2.9555770754814148e-01" purity="8.9008587598800659e-01" nType="-99"/>
          </Node>
          <Node pos="r" depth="2" NCoef="0" IVar="8" Cut="8.9393653869628906e+01" cType="1" res="-1.8482860922813416e-01" rms="2.3504970967769623e-01" purity="8.0629952251911163e-02" nType="0">
            <Node pos="l" depth="3" NCoef="0" IVar="-1" Cut="0.0000000000000000e+00" cType="1" res="-5.8210741728544235e-02" rms="1.8753056228160858e-01" purity="3.6523986607789993e-02" nType="-99"/>
            <Node pos="r" depth="3" NCoef="0" IVar="-1" Cut="0.0000000000000000e+00" cType="1" res="-3.2775491476058960e-02" rms="2.9923981428146362e-01" purity="1.6552896797657013e-01" nType="-99"/>
          </Node>
        </Node>
        <Node pos="r" depth="1" NCoef="0" IVar="10" Cut="1.2432945519685745e-01" cType="1" res="-1.6435687243938446e-01" rms="1.1413939297199249e-01" purity="1.7443580552935600e-02" nType="0">
          <Node pos="l" depth="2" NCoef="0" IVar="7" Cut="2.4077989196777344e+02" cType="1" res="-1.6703461110591888e-01" rms="8.7360359728336334e-02" purity="8.8497698307037354e-03" nType="0">
            <Node pos="l" depth="3" NCoef="0" IVar="-1" Cut="0.0000000000000000e+00" cType="1" res="-4.9812808632850647e-02" rms="1.8827046453952789e-01" purity="4.1453830897808075e-02" nType="-99"/>
            <Node pos="r" depth="3" NCoef="0" IVar="-1" Cut="0.0000000000000000e+00" cType="1" res="-5.4927580058574677e-02" rms="1.4325692318379879e-03" purity="0.0000000000000000e+00" nType="-99"/>
          </Node>
          <Node pos="r" depth="2" NCoef="0" IVar="-1" Cut="0.0000000000000000e+00" cType="1" res="-3.8238208740949631e-02" rms="2.4134641885757446e-01" purity="9.0382561087608337e-02" nType="-99"/>
        </Node>
      </Node>
    </BinaryTree>
    <BinaryTree type="DecisionTree" boostWeight="1.0000000000000000e+00" itree="13">
      <Node pos="s" depth="0" NCoef="0" IVar="10" Cut="1.2858444452285767e-01" cType="1" res="1.4106304151937366e-03" rms="2.8874781727790833e-01" purity="5.0705862045288086e-01" nType="0">
        <Node pos="l" depth="1" NCoef="0" IVar="7" Cut="1.9736428833007812e+02" cType="1" res="-9.8875463008880615e-02" rms="2.4616217613220215e-01" purity="2.3158271610736847e-01" nType="0">
          <Node pos="l" depth="2" NCoef="0" IVar="8" Cut="9.6216674804687500e+01" cType="1" res="1.6432864591479301e-02" rms="3.8046211004257202e-01" purity="6.8072116374969482e-01" nType="0">
            <Node pos="l" depth="3" NCoef="0" IVar="-1" Cut="0.0000000000000000e+00" cType="1" res="2.0227720960974693e-02" rms="3.6073508858680725e-01" purity="8.2825040817260742e-01" nType="-99"/>
            <Node pos="r" depth="3" NCoef="0" IVar="-1" Cut="0.0000000000000000e+00" cType="1" res="-3.7807587534189224e-02" rms="3.7589985132217407e-01" purity="2.7093151211738586e-01" nType="-99"/>
          </Node>
          <Node pos="r" depth="2" NCoef="0" IVar="0" Cut="1.9258650207519531e+02" cType="1" res="-1.5298475325107574e-01" rms="1.0926161706447601e-01" purity="2.0821128040552139e-02" nType="0">
            <Node pos="l" depth="3" NCoef="0" IVar="-1" Cut="0.0000000000000000e+00" cType="1" res="-5.5408842861652374e-02" rms="1.0926689207553864e-01" purity="1.4736039564013481e-02" nType="-99"/>
            <Node pos="r" depth="3" NCoef="0" IVar="-1" Cut="0.0000000000000000e+00" cType="1" res="-5.1319692283868790e-02" rms="1.0894446820020676e-01" purity="2.3334253579378128e-02" nType="-99"/>
          </Node>
        </Node>
        <Node pos="r" depth="1" NCoef="0" IVar="7" Cut="1.9261738586425781e+02" cType="1" res="8.5960380733013153e-02" rms="2.9487717151641846e-01" purity="7.3930841684341431e-01" nType="0">
          <Node pos="l" depth="2" NCoef="0" IVar="8" Cut="6.0690361022949219e+01" cType="1" res="1.4181965589523315e-01" rms="2.7533149719238281e-01" purity="8.8321620225906372e-01" nType="0">
            <Node pos="l" depth="3" NCoef="0" IVar="-1" Cut="0.0000000000000000e+00" cType="1" res="-3.4528236836194992e-02" rms="4.2826277017593384e-01" purity="3.3270487189292908e-01" nType="-99"/>
            <Node pos="r" depth="3" NCoef="0" IVar="-1" Cut="0.0000000000000000e+00" cType="1" res="4.3171700090169907e-02" rms="2.4241293966770172e-01" purity="9.2694705724716187e-01" nType="-99"/>
          </Node>
          <Node pos="r" depth="2" NCoef="0" IVar="5" Cut="1.6517465209960938e+02" cType="1" res="-1.0420278459787369e-01" rms="2.7948114275932312e-01" purity="2.4939957261085510e-01" nType="0">
            <Node pos="l" depth="3" NCoef="0" IVar="-1" Cut="0.0000000000000000e+00" cType="1" res="-5.2520856261253357e-03" rms="3.7073311209678650e-01" purity="5.3669172525405884e-01" nType="-99"/>
            <Node pos="r" depth="3" NCoef="0" IVar="-1" Cut="0.0000000000000000e+00" cType="1" res="-5.0636161118745804e-02" rms="1.6118711233139038e-01" purity="3.8795866072177887e-02" nType="-99"/>
          </Node>
        </Node>
      </Node>
    </BinaryTree>
    <BinaryTree type="DecisionTree" boostWeight="1.0000000000000000e+00" itree="14">
      <Node pos="s" depth="0" NCoef="0" IVar="8" Cut="1.0419049835205078e+02" cType="1" res="-5.2882818272337317e-04" rms="2.8266078233718872e-01" purity="5.0481492280960083e-01" nType="0">
        <Node pos="l" depth="1" NCoef="0" IVar="7" Cut="2.0421037292480469e+02" cType="1" res="6.9746837019920349e-02" rms="3.1474718451499939e-01" purity="7.5168633460998535e-01" nType="0">
          <Node pos="l" depth="2" NCoef="0" IVar="7" Cut="1.4079194641113281e+02" cType="1" res="1.0493209958076477e-01" rms="3.1054854393005371e-01" purity="8.5820269584655762e-01" nType="0">
            <Node pos="l" depth="3" NCoef="0" IVar="-1" Cut="0.0000000000000000e+00" cType="1" res="-5.1859088242053986e-02" rms="4.0394166111946106e-01" purity="2.5406089425086975e-01" nType="-99"/>
            <Node pos="r" depth="3" NCoef="0" IVar="-1" Cut="0.0000000000000000e+00" cType="1" res="3.3515535295009613e-02" rms="2.8954115509986877e-01" purity="8.9444863796234131e-01" nType="-99"/>
          </Node>
          <Node pos="r" depth="2" NCoef="0" IVar="1" Cut="1.5904643249511719e+02" cType="1" res="-1.4765468239784241e-01" rms="2.4571250379085541e-01" purity="9.3546509742736816e-02" nType="0">
            <Node pos="l" depth="3" NCoef="0" IVar="-1" Cut="0.0000000000000000e+00" cType="1" res="-5.2027840167284012e-02" rms="2.0591548085212708e-01" purity="5.0971634685993195e-02" nType="-99"/>
            <Node pos="r" depth="3" NCoef="0" IVar="-1" Cut="0.0000000000000000e+00" cType="1" res="-1.8765050917863846e-02" rms="3.0834454298019409e-01" purity="1.9669215381145477e-01" nType="-99"/>
          </Node>
        </Node>
        <Node pos="r" depth="1" NCoef="0" IVar="15" Cut="4.6425007283687592e-02" cType="1" res="-1.3921819627285004e-01" rms="1.1439587920904160e-01" purity="1.7612792551517487e-02" nType="0">
          <Node pos="l" depth="2" NCoef="0" IVar="9" Cut="9.5432031154632568e-01" cType="1" res="-1.3598804175853729e-01" rms="1.2080436944961548e-01" purity="2.0117517560720444e-02" nType="0">
            <Node pos="l" depth="3" NCoef="0" IVar="-1" Cut="0.0000000000000000e+00" cType="1" res="-5.2162412554025650e-02" rms="8.5379742085933685e-02" purity="8.8641615584492683e-03" nType="-99"/>
            <Node pos="r" depth="3" NCoef="0" IVar="-1" Cut="0.0000000000000000e+00" cType="1" res="-4.6035118401050568e-02" rms="1.4459247887134552e-01" purity="2.9999190941452980e-02" nType="-99"/>
          </Node>
          <Node pos="r" depth="2" NCoef="0" IVar="7" Cut="2.7181262207031250e+02" cType="1" res="-1.4982864260673523e-01" rms="8.9378081262111664e-02" purity="9.3852393329143524e-03" nType="0">
            <Node pos="l" depth="3" NCoef="0" IVar="-1" Cut="0.0000000000000000e+00" cType="1" res="-5.2055176347494125e-02" rms="1.3919958472251892e-01" purity="2.3489370942115784e-02" nType="-99"/>
            <Node pos="r" depth="3" NCoef="0" IVar="-1" Cut="0.0000000000000000e+00" cType="1" res="-5.3047351539134979e-02" rms="8.5667036473751068e-03" purity="0.0000000000000000e+00" nType="-99"/>
          </Node>
        </Node>
      </Node>
    </BinaryTree>
    <BinaryTree type="DecisionTree" boostWeight="1.0000000000000000e+00" itree="15">
      <Node pos="s" depth="0" NCoef="0" IVar="10" Cut="1.3507221639156342e-01" cType="1" res="-5.2559752948582172e-03" rms="2.7944248914718628e-01" purity="4.9438041448593140e-01" nType="0">
        <Node pos="l" depth="1" NCoef="0" IVar="7" Cut="1.9732609558105469e+02" cType="1" res="-8.7259285151958466e-02" rms="2.4469561874866486e-01" purity="2.3757402598857880e-01" nType="0">
          <Node pos="l" depth="2" NCoef="0" IVar="5" Cut="8.2648826599121094e+01" cType="1" res="-1.4172485098242760e-03" rms="3.8261887431144714e-01" purity="6.8562698364257812e-01" nType="0">
            <Node pos="l" depth="3" NCoef="0" IVar="-1" Cut="0.0000000000000000e+00" cType="1" res="-4.9048781394958496e-02" rms="3.9525413513183594e-01" purity="3.7809309363365173e-01" nType="-99"/>
            <Node pos="r" depth="3" NCoef="0" IVar="-1" Cut="0.0000000000000000e+00" cType="1" res="1.1311274953186512e-02" rms="3.6491796374320984e-01" purity="7.5464165210723877e-01" nType="-99"/>
          </Node>
          <Node pos="r" depth="2" NCoef="0" IVar="2" Cut="1.3658222198486328e+01" cType="1" res="-1.2852379679679871e-01" rms="1.1419255286455154e-01" purity="2.2193647921085358e-02" nType="0">
            <Node pos="l" depth="3" NCoef="0" IVar="-1" Cut="0.0000000000000000e+00" cType="1" res="-5.2293725311756134e-02" rms="1.0518909990787506e-01" purity="1.4532557688653469e-02" nType="-99"/>
            <Node pos="r" depth="3" NCoef="0" IVar="-1" Cut="0.0000000000000000e+00" cType="1" res="-4.5923970639705658e-02" rms="1.2631089985370636e-01" purity="3.4010384231805801e-02" nType="-99"/>
          </Node>
        </Node>
        <Node pos="r" depth="1" NCoef="0" IVar="7" Cut="2.0421037292480469e+02" cType="1" res="7.0783734321594238e-02" rms="2.8802472352981567e-01" purity="7.3251080513000488e-01" nType="0">
          <Node pos="l" depth="2" NCoef="0" IVar="1" Cut="1.0718608093261719e+02" cType="1" res="1.1487186700105667e-01" rms="2.8246724605560303e-01" purity="8.7340664863586426e-01" nType="0">
            <Node pos="l" depth="3" NCoef="0" IVar="-1" Cut="0.0000000000000000e+00" cType="1" res="-4.3815389275550842e-02" rms="4.1297993063926697e-01" purity="3.0422425270080566e-01" nType="-99"/>
            <Node pos="r" depth="3" NCoef="0" IVar="-1" Cut="0.0000000000000000e+00" cType="1" res="3.9476122707128525e-02" rms="2.4995377659797668e-01" purity="9.2130672931671143e-01" nType="-99"/>
          </Node>
          <Node pos="r" depth="2" NCoef="0" IVar="1" Cut="1.6064360046386719e+02" cType="1" res="-1.3602963089942932e-01" rms="2.1433858573436737e-01" purity="7.1581304073333740e-02" nType="0">
            <Node pos="l" depth="3" NCoef="0" IVar="-1" Cut="0.0000000000000000e+00" cType="1" res="-5.1012456417083740e-02" rms="1.9078065454959869e-01" purity="4.3082576245069504e-02" nType="-99"/>
            <Node pos="r" depth="3" NCoef="0" IVar="-1" Cut="0.0000000000000000e+00" cType="1" res="-3.3269364386796951e-02" rms="2.3375111818313599e-01" purity="1.0235767811536789e-01" nType="-99"/>
          </Node>
        </Node>
      </Node>
    </BinaryTree>
    <BinaryTree type="DecisionTree" boostWeight="1.0000000000000000e+00" itree="16">
      <Node pos="s" depth="0" NCoef="0" IVar="8" Cut="1.0553614044189453e+02" cType="1" res="-1.1379153002053499e-03" rms="2.7159741520881653e-01" purity="4.9805817008018494e-01" nType="0">
        <Node pos="l" depth="1" NCoef="0" IVar="7" Cut="2.1204974365234375e+02" cType="1" res="5.8136172592639923e-02" rms="3.0898889899253845e-01" purity="7.4607092142105103e-01" nType="0">
          <Node pos="l" depth="2" NCoef="0" IVar="1" Cut="1.0832041168212891e+02" cType="1" res="8.6083658039569855e-02" rms="3.1417915225028992e-01" purity="8.4827142953872681e-01" nType="0">
            <Node pos="l" depth="3" NCoef="0" IVar="-1" Cut="0.0000000000000000e+00" cType="1" res="-1.5575721859931946e-02" rms="4.2300903797149658e-01" purity="5.8686530590057373e-01" nType="-99"/>
            <Node pos="r" depth="3" NCoef="0" IVar="-1" Cut="0.0000000000000000e+00" cType="1" res="3.3247206360101700e-02" rms="2.7631178498268127e-01" purity="9.0228843688964844e-01" nType="-99"/>
          </Node>
          <Node pos="r" depth="2" NCoef="0" IVar="1" Cut="1.4199382019042969e+02" cType="1" res="-1.3651852309703827e-01" rms="1.7209264636039734e-01" purity="3.4242153167724609e-02" nType="0">
            <Node pos="l" depth="3" NCoef="0" IVar="-1" Cut="0.0000000000000000e+00" cType="1" res="-5.5196575820446014e-02" rms="1.1865334212779999e-01" purity="8.0888066440820694e-03" nType="-99"/>
            <Node pos="r" depth="3" NCoef="0" IVar="-1" Cut="0.0000000000000000e+00" cType="1" res="-3.6356940865516663e-02" rms="2.2488719224929810e-01" purity="7.1587905287742615e-02" nType="-99"/>
          </Node>
        </Node>
        <Node pos="r" depth="1" NCoef="0" IVar="0" Cut="1.7785363769531250e+02" cType="1" res="-1.1648397147655487e-01" rms="1.0666874796152115e-01" purity="1.5430973842740059e-02" nType="0">
          <Node pos="l" depth="2" NCoef="0" IVar="5" Cut="1.0426373291015625e+02" cType="1" res="-1.2634660303592682e-01" rms="1.1639639735221863e-01" purity="1.5010814182460308e-02" nType="0">
            <Node pos="l" depth="3" NCoef="0" IVar="-1" Cut="0.0000000000000000e+00" cType="1" res="-5.5024154484272003e-02" rms="9.8579339683055878e-02" purity="7.3510236106812954e-03" nType="-99"/>
            <Node pos="r" depth="3" NCoef="0" IVar="-1" Cut="0.0000000000000000e+00" cType="1" res="-4.6503979712724686e-02" rms="1.1980938911437988e-01" purity="1.8075948581099510e-02" nType="-99"/>
          </Node>
          <Node pos="r" depth="2" NCoef="0" IVar="7" Cut="2.3824345397949219e+02" cType="1" res="-1.1294120550155640e-01" rms="1.0271941125392914e-01" purity="1.5581901185214520e-02" nType="0">
            <Node pos="l" depth="3" NCoef="0" IVar="-1" Cut="0.0000000000000000e+00" cType="1" res="-2.6634225621819496e-02" rms="2.7336224913597107e-01" purity="1.1232920736074448e-01" nType="-99"/>
            <Node pos="r" depth="3" NCoef="0" IVar="-1" Cut="0.0000000000000000e+00" cType="1" res="-5.2298121154308319e-02" rms="9.5388377085328102e-03" purity="6.1797832131560426e-06" nType="-99"/>
          </Node>
        </Node>
      </Node>
    </BinaryTree>
    <BinaryTree type="DecisionTree" boostWeight="1.0000000000000000e+00" itree="17">
      <Node pos="s" depth="0" NCoef="0" IVar="8" Cut="9.8852874755859375e+01" cType="1" res="-5.2149165421724319e-03" rms="2.7235236763954163e-01" purity="4.9579402804374695e-01" nType="0">
        <Node pos="l" depth="1" NCoef="0" IVar="9" Cut="4.7584339976310730e-01" cType="1" res="5.0335019826889038e-02" rms="3.0622404813766479e-01" purity="7.5341993570327759e-01" nType="0">
          <Node pos="l" depth="2" NCoef="0" IVar="-1" Cut="0.0000000000000000e+00" cType="1" res="-6.6060543060302734e-02" rms="3.6049970984458923e-01" purity="2.6346376538276672e-01" nType="-99"/>
          <Node pos="r" depth="2" NCoef="0" IVar="7" Cut="1.9261738586425781e+02" cType="1" res="6.7554056644439697e-02" rms="2.9400211572647095e-01" purity="7.8363531827926636e-01" nType="0">
            <Node pos="l" depth="3" NCoef="0" IVar="-1" Cut="0.0000000000000000e+00" cType="1" res="2.8324456885457039e-02" rms="2.8156152367591858e-01" purity="8.8089072704315186e-01" nType="-99"/>
            <Node pos="r" depth="3" NCoef="0" IVar="-1" Cut="0.0000000000000000e+00" cType="1" res="-2.3107042536139488e-02" rms="3.0893477797508240e-01" purity="3.2106772065162659e-01" nType="-99"/>
          </Node>
        </Node>
        <Node pos="r" depth="1" NCoef="0" IVar="10" Cut="1.5514923632144928e-01" cType="1" res="-1.0114509612321854e-01" rms="1.6062779724597931e-01" purity="5.0895113497972488e-02" nType="0">
          <Node pos="l" depth="2" NCoef="0" IVar="5" Cut="1.0087268066406250e+02" cType="1" res="-1.0764709115028381e-01" rms="1.3875381648540497e-01" purity="2.9433375224471092e-02" nType="0">
            <Node pos="l" depth="3" NCoef="0" IVar="-1" Cut="0.0000000000000000e+00" cType="1" res="-5.0021402537822723e-02" rms="2.0592559874057770e-01" purity="5.3933851420879364e-02" nType="-99"/>
            <Node pos="r" depth="3" NCoef="0" IVar="-1" Cut="0.0000000000000000e+00" cType="1" res="-4.5310523360967636e-02" rms="1.2386508285999298e-01" purity="2.5577709078788757e-02" nType="-99"/>
          </Node>
          <Node pos="r" depth="2" NCoef="0" IVar="-1" Cut="0.0000000000000000e+00" cType="1" res="-1.1693228036165237e-02" rms="2.8997263312339783e-01" purity="2.5586399435997009e-01" nType="-99"/>
        </Node>
      </Node>
    </BinaryTree>
    <BinaryTree type="DecisionTree" boostWeight="1.0000000000000000e+00" itree="18">
      <Node pos="s" depth="0" NCoef="0" IVar="8" Cut="1.0707609558105469e+02" cType="1" res="-1.3059125049039721e-03" rms="2.6202982664108276e-01" purity="4.9845042824745178e-01" nType="0">
        <Node pos="l" depth="1" NCoef="0" IVar="7" Cut="2.0421037292480469e+02" cType="1" res="4.6949025243520737e-02" rms="3.0165639519691467e-01" purity="7.4034249782562256e-01" nType="0">
          <Node pos="l" depth="2" NCoef="0" IVar="8" Cut="6.2074329376220703e+01" cType="1" res="7.5130082666873932e-02" rms="3.0594798922538757e-01" purity="8.5515016317367554e-01" nType="0">
            <Node pos="l" depth="3" NCoef="0" IVar="-1" Cut="0.0000000000000000e+00" cType="1" res="-3.7400428205728531e-02" rms="4.2993173003196716e-01" purity="3.4727799892425537e-01" nType="-99"/>
            <Node pos="r" depth="3" NCoef="0" IVar="-1" Cut="0.0000000000000000e+00" cType="1" res="2.7806950733065605e-02" rms="2.8641524910926819e-01" purity="8.9209330081939697e-01" nType="-99"/>
          </Node>
          <Node pos="r" depth="2" NCoef="0" IVar="1" Cut="1.5431649780273438e+02" cType="1" res="-1.1876875162124634e-01" rms="2.0863917469978333e-01" purity="6.5220057964324951e-02" nType="0">
            <Node pos="l" depth="3" NCoef="0" IVar="-1" Cut="0.0000000000000000e+00" cType="1" res="-5.1372867077589035e-02" rms="1.6385614871978760e-01" purity="2.7182091027498245e-02" nType="-99"/>
            <Node pos="r" depth="3" NCoef="0" IVar="-1" Cut="0.0000000000000000e+00" cType="1" res="-2.3355450481176376e-02" rms="2.6957756280899048e-01" purity="1.3886621594429016e-01" nType="-99"/>
          </Node>
        </Node>
        <Node pos="r" depth="1" NCoef="0" IVar="4" Cut="1.4251920580863953e-01" cType="1" res="-9.8299935460090637e-02" rms="9.8352961242198944e-02" purity="1.2239271774888039e-02" nType="0">
          <Node pos="l" depth="2" NCoef="0" IVar="6" Cut="1.1488764190673828e+02" cType="1" res="-9.2378273606300354e-02" rms="1.2181377410888672e-01" purity="1.9803071394562721e-02" nType="0">
            <Node pos="l" depth="3" NCoef="0" IVar="-1" Cut="0.0000000000000000e+00" cType="1" res="-3.4418489784002304e-02" rms="1.8504987657070160e-01" purity="4.6593315899372101e-02" nType="-99"/>
            <Node pos="r" depth="3" NCoef="0" IVar="-1" Cut="0.0000000000000000e+00" cType="1" res="-4.9936663359403610e-02" rms="4.8008602112531662e-02" purity="2.7787485159933567e-03" nType="-99"/>
          </Node>
          <Node pos="r" depth="2" NCoef="0" IVar="14" Cut="4.3657344579696655e-01" cType="1" res="-1.0045789182186127e-01" rms="8.8167704641819000e-02" purity="9.4828866422176361e-03" nType="0">
            <Node pos="l" depth="3" NCoef="0" IVar="-1" Cut="0.0000000000000000e+00" cType="1" res="-4.9487859010696411e-02" rms="7.4980549514293671e-02" purity="6.1304038390517235e-03" nType="-99"/>
            <Node pos="r" depth="3" NCoef="0" IVar="-1" Cut="0.0000000000000000e+00" cType="1" res="-4.5396547764539719e-02" rms="1.0821080952882767e-01" purity="1.5714179724454880e-02" nType="-99"/>
          </Node>
        </Node>
      </Node>
    </BinaryTree>
    <BinaryTree type="DecisionTree" boostWeight="1.0000000000000000e+00" itree="19">
      <Node pos="s" depth="0" NCoef="0" IVar="8" Cut="1.0834381103515625e+02" cType="1" res="-1.8578994786366820e-03" rms="2.6279988884925842e-01" purity="4.9744021892547607e-01" nType="0">
        <Node pos="l" depth="1" NCoef="0" IVar="9" Cut="4.7570329904556274e-01" cType="1" res="4.2526926845312119e-02" rms="3.0568152666091919e-01" purity="7.3743587732315063e-01" nType="0">
          <Node pos="l" depth="2" NCoef="0" IVar="-1" Cut="0.0000000000000000e+00" cType="1" res="-6.2755912542343140e-02" rms="3.4441649913787842e-01" purity="2.3014153540134430e-01" nType="-99"/>
          <Node pos="r" depth="2" NCoef="0" IVar="8" Cut="5.4981304168701172e+01" cType="1" res="5.7983849197626114e-02" rms="2.9616832733154297e-01" purity="7.6795053482055664e-01" nType="0">
            <Node pos="l" depth="3" NCoef="0" IVar="-1" Cut="0.0000000000000000e+00" cType="1" res="-4.7772210091352463e-02" rms="3.1712552905082703e-01" purity="1.2892624735832214e-01" nType="-99"/>
            <Node pos="r" depth="3" NCoef="0" IVar="-1" Cut="0.0000000000000000e+00" cType="1" res="2.1692480891942978e-02" rms="2.8953677415847778e-01" purity="7.9882854223251343e-01" nType="-99"/>
          </Node>
        </Node>
        <Node pos="r" depth="1" NCoef="0" IVar="1" Cut="1.8375415039062500e+02" cType="1" res="-9.2231884598731995e-02" rms="8.5141710937023163e-02" purity="8.7740458548069000e-03" nType="0">
          <Node pos="l" depth="2" NCoef="0" IVar="7" Cut="2.2469895935058594e+02" cType="1" res="-1.0040175914764404e-01" rms="7.1320384740829468e-02" purity="4.6442234888672829e-03" nType="0">
            <Node pos="l" depth="3" NCoef="0" IVar="-1" Cut="0.0000000000000000e+00" cType="1" res="-4.9560409039258957e-02" rms="1.2745001912117004e-01" purity="1.5894046053290367e-02" nType="-99"/>
            <Node pos="r" depth="3" NCoef="0" IVar="-1" Cut="0.0000000000000000e+00" cType="1" res="-5.0930827856063843e-02" rms="4.8283403739333153e-03" purity="0.0000000000000000e+00" nType="-99"/>
          </Node>
          <Node pos="r" depth="2" NCoef="0" IVar="5" Cut="1.1795697784423828e+02" cType="1" res="-8.9091651141643524e-02" rms="8.9692771434783936e-02" purity="1.0361412540078163e-02" nType="0">
            <Node pos="l" depth="3" NCoef="0" IVar="-1" Cut="0.0000000000000000e+00" cType="1" res="-3.4385014325380325e-02" rms="1.8673278391361237e-01" purity="4.5404460281133652e-02" nType="-99"/>
            <Node pos="r" depth="3" NCoef="0" IVar="-1" Cut="0.0000000000000000e+00" cType="1" res="-4.9488727003335953e-02" rms="5.4870739579200745e-02" purity="3.8276151753962040e-03" nType="-99"/>
          </Node>
        </Node>
      </Node>
    </BinaryTree>
    <BinaryTree type="DecisionTree" boostWeight="1.0000000000000000e+00" itree="20">
      <Node pos="s" depth="0" NCoef="0" IVar="8" Cut="1.0419049835205078e+02" cType="1" res="-2.1940759324934334e-04" rms="2.5900745391845703e-01" purity="5.0536513328552246e-01" nType="0">
        <Node pos="l" depth="1" NCoef="0" IVar="7" Cut="1.3848593139648438e+02" cType="1" res="3.9936877787113190e-02" rms="2.9837432503700256e-01" purity="7.4869865179061890e-01" nType="0">
          <Node pos="l" depth="2" NCoef="0" IVar="-1" Cut="0.0000000000000000e+00" cType="1" res="-5.0952684134244919e-02" rms="3.9917501807212830e-01" purity="2.4152496457099915e-01" nType="-99"/>
          <Node pos="r" depth="2" NCoef="0" IVar="7" Cut="2.0870217895507812e+02" cType="1" res="5.2878867834806442e-02" rms="2.8632530570030212e-01" purity="7.7192181348800659e-01" nType="0">
            <Node pos="l" depth="3" NCoef="0" IVar="-1" Cut="0.0000000000000000e+00" cType="1" res="2.4118339642882347e-02" rms="2.9090866446495056e-01" purity="8.8385879993438721e-01" nType="-99"/>
            <Node pos="r" depth="3" NCoef="0" IVar="-1" Cut="0.0000000000000000e+00" cType="1" res="-4.1171055287122726e-02" rms="1.8734946846961975e-01" purity="4.8900406807661057e-02" nType="-99"/>
          </Node>
        </Node>
        <Node pos="r" depth="1" NCoef="0" IVar="0" Cut="1.9024418640136719e+02" cType="1" res="-8.0428868532180786e-02" rms="1.1662742495536804e-01" purity="1.9322888925671577e-02" nType="0">
          <Node pos="l" depth="2" NCoef="0" IVar="7" Cut="2.1541358947753906e+02" cType="1" res="-8.9532501995563507e-02" rms="1.2542703747749329e-01" purity="1.7362609505653381e-02" nType="0">
            <Node pos="l" depth="3" NCoef="0" IVar="-1" Cut="0.0000000000000000e+00" cType="1" res="-3.7447147071361542e-02" rms="2.3038426041603088e-01" purity="5.9147343039512634e-02" nType="-99"/>
            <Node pos="r" depth="3" NCoef="0" IVar="-1" Cut="0.0000000000000000e+00" cType="1" res="-5.0371021032333374e-02" rms="6.7561306059360504e-03" purity="0.0000000000000000e+00" nType="-99"/>
          </Node>
          <Node pos="r" depth="2" NCoef="0" IVar="7" Cut="2.5041142272949219e+02" cType="1" res="-7.6242759823799133e-02" rms="1.1210216581821442e-01" purity="2.0224282518029213e-02" nType="0">
            <Node pos="l" depth="3" NCoef="0" IVar="-1" Cut="0.0000000000000000e+00" cType="1" res="-1.5058071352541447e-02" rms="2.7086219191551208e-01" purity="1.2140632420778275e-01" nType="-99"/>
            <Node pos="r" depth="3" NCoef="0" IVar="-1" Cut="0.0000000000000000e+00" cType="1" res="-5.0121691077947617e-02" rms="9.1706374660134315e-03" purity="0.0000000000000000e+00" nType="-99"/>
          </Node>
        </Node>
      </Node>
    </BinaryTree>
    <BinaryTree type="DecisionTree" boostWeight="1.0000000000000000e+00" itree="21">
      <Node pos="s" depth="0" NCoef="0" IVar="7" Cut="2.3735566711425781e+02" cType="1" res="1.1883360566571355e-03" rms="2.5600507855415344e-01" purity="5.0346046686172485e-01" nType="0">
        <Node pos="l" depth="1" NCoef="0" IVar="0" Cut="1.8565496826171875e+02" cType="1" res="3.9459515362977982e-02" rms="3.0375349521636963e-01" purity="7.4661427736282349e-01" nType="0">
          <Node pos="l" depth="2" NCoef="0" IVar="7" Cut="1.4761079406738281e+02" cType="1" res="-6.3305221498012543e-02" rms="3.6147040128707886e-01" purity="5.0390237569808960e-01" nType="0">
            <Node pos="l" depth="3" NCoef="0" IVar="-1" Cut="0.0000000000000000e+00" cType="1" res="-4.4258922338485718e-02" rms="4.1248321533203125e-01" purity="3.4496039152145386e-01" nType="-99"/>
            <Node pos="r" depth="3" NCoef="0" IVar="-1" Cut="0.0000000000000000e+00" cType="1" res="-1.0339049622416496e-02" rms="3.4220889210700989e-01" purity="5.3802162408828735e-01" nType="-99"/>
          </Node>
          <Node pos="r" depth="2" NCoef="0" IVar="1" Cut="9.4072502136230469e+01" cType="1" res="7.5413875281810760e-02" rms="2.7174520492553711e-01" purity="8.3153206110000610e-01" nType="0">
            <Node pos="l" depth="3" NCoef="0" IVar="-1" Cut="0.0000000000000000e+00" cType="1" res="-2.4909244850277901e-02" rms="3.6430260539054871e-01" purity="5.0816428661346436e-01" nType="-99"/>
            <Node pos="r" depth="3" NCoef="0" IVar="-1" Cut="0.0000000000000000e+00" cType="1" res="2.9779313132166862e-02" rms="2.5710108876228333e-01" purity="8.5960817337036133e-01" nType="-99"/>
          </Node>
        </Node>
        <Node pos="r" depth="1" NCoef="0" IVar="10" Cut="1.0803852230310440e-01" cType="1" res="-7.7897042036056519e-02" rms="3.2035317271947861e-02" purity="9.9597149528563023e-04" nType="0">
          <Node pos="l" depth="2" NCoef="0" IVar="8" Cut="1.4143832397460938e+02" cType="1" res="-7.4340842664241791e-02" rms="4.9367258325219154e-03" purity="0.0000000000000000e+00" nType="0">
            <Node pos="l" depth="3" NCoef="0" IVar="-1" Cut="0.0000000000000000e+00" cType="1" res="-5.0247222185134888e-02" rms="1.0583799332380295e-02" purity="0.0000000000000000e+00" nType="-99"/>
            <Node pos="r" depth="3" NCoef="0" IVar="-1" Cut="0.0000000000000000e+00" cType="1" res="-4.9665980041027069e-02" rms="1.4569446211680770e-03" purity="0.0000000000000000e+00" nType="-99"/>
          </Node>
          <Node pos="r" depth="2" NCoef="0" IVar="8" Cut="9.8397361755371094e+01" cType="1" res="-8.8641822338104248e-02" rms="6.2447849661111832e-02" purity="4.0052216500043869e-03" nType="0">
            <Node pos="l" depth="3" NCoef="0" IVar="-1" Cut="0.0000000000000000e+00" cType="1" res="-4.7566633671522141e-02" rms="7.4010580778121948e-02" purity="5.8085829950869083e-03" nType="-99"/>
            <Node pos="r" depth="3" NCoef="0" IVar="-1" Cut="0.0000000000000000e+00" cType="1" res="-5.0354935228824615e-02" rms="4.1753284633159637e-02" purity="1.6258524265140295e-03" nType="-99"/>
          </Node>
        </Node>
      </Node>
    </BinaryTree>
    <BinaryTree type="DecisionTree" boostWeight="1.0000000000000000e+00" itree="22">
      <Node pos="s" depth="0" NCoef="0" IVar="8" Cut="1.0208097076416016e+02" cType="1" res="-2.4892445653676987e-03" rms="2.5155171751976013e-01" purity="4.9783754348754883e-01" nType="0">
        <Node pos="l" depth="1" NCoef="0" IVar="8" Cut="6.3562667846679688e+01" cType="1" res="3.3361393958330154e-02" rms="2.9233524203300476e-01" purity="7.5153464078903198e-01" nType="0">
          <Node pos="l" depth="2" NCoef="0" IVar="7" Cut="1.7237078857421875e+02" cType="1" res="-1.4571395516395569e-01" rms="3.5510051250457764e-01" purity="2.6985472440719604e-01" nType="0">
            <Node pos="l" depth="3" NCoef="0" IVar="-1" Cut="0.0000000000000000e+00" cType="1" res="-2.2140612825751305e-02" rms="4.0350097417831421e-01" purity="4.3194633722305298e-01" nType="-99"/>
            <Node pos="r" depth="3" NCoef="0" IVar="-1" Cut="0.0000000000000000e+00" cType="1" res="-7.5165353715419769e-02" rms="2.5971990823745728e-01" purity="4.8140216618776321e-02" nType="-99"/>
          </Node>
          <Node pos="r" depth="2" NCoef="0" IVar="7" Cut="2.0535929870605469e+02" cType="1" res="5.2576132118701935e-02" rms="2.7800992131233215e-01" purity="8.0321878194808960e-01" nType="0">
            <Node pos="l" depth="3" NCoef="0" IVar="-1" Cut="0.0000000000000000e+00" cType="1" res="2.3592142388224602e-02" rms="2.7864766120910645e-01" purity="8.9708137512207031e-01" nType="-99"/>
            <Node pos="r" depth="3" NCoef="0" IVar="-1" Cut="0.0000000000000000e+00" cType="1" res="-3.2800398766994476e-02" rms="2.2891801595687866e-01" purity="8.3449549973011017e-02" nType="-99"/>
          </Node>
        </Node>
        <Node pos="r" depth="1" NCoef="0" IVar="0" Cut="2.0135348510742188e+02" cType="1" res="-6.8994544446468353e-02" rms="1.2378472834825516e-01" purity="2.7212692424654961e-02" nType="0">
          <Node pos="l" depth="2" NCoef="0" IVar="7" Cut="2.1432475280761719e+02" cType="1" res="-8.4517180919647217e-02" rms="1.2502720952033997e-01" purity="1.7755785956978798e-02" nType="0">
            <Node pos="l" depth="3" NCoef="0" IVar="-1" Cut="0.0000000000000000e+00" cType="1" res="-4.1565712541341782e-02" rms="2.2546589374542236e-01" purity="5.9796791523694992e-02" nType="-99"/>
            <Node pos="r" depth="3" NCoef="0" IVar="-1" Cut="0.0000000000000000e+00" cType="1" res="-4.9861885607242584e-02" rms="1.2642610818147659e-02" purity="0.0000000000000000e+00" nType="-99"/>
          </Node>
          <Node pos="r" depth="2" NCoef="0" IVar="7" Cut="2.4162147521972656e+02" cType="1" res="-6.0759130865335464e-02" rms="1.2232329696416855e-01" purity="3.2229978591203690e-02" nType="0">
            <Node pos="l" depth="3" NCoef="0" IVar="-1" Cut="0.0000000000000000e+00" cType="1" res="-2.4887551553547382e-03" rms="3.1475695967674255e-01" purity="2.2149832546710968e-01" nType="-99"/>
            <Node pos="r" depth="3" NCoef="0" IVar="-1" Cut="0.0000000000000000e+00" cType="1" res="-4.9634777009487152e-02" rms="8.3227092400193214e-03" purity="0.0000000000000000e+00" nType="-99"/>
          </Node>
        </Node>
      </Node>
    </BinaryTree>
    <BinaryTree type="DecisionTree" boostWeight="1.0000000000000000e+00" itree="23">
      <Node pos="s" depth="0" NCoef="0" IVar="10" Cut="1.2163910269737244e-01" cType="1" res="3.3485752646811306e-04" rms="2.5001987814903259e-01" purity="5.0090438127517700e-01" nType="0">
        <Node pos="l" depth="1" NCoef="0" IVar="10" Cut="6.5158471465110779e-02" cType="1" res="-5.3436245769262314e-02" rms="2.2126902639865875e-01" purity="2.1322742104530334e-01" nType="0">
          <Node pos="l" depth="2" NCoef="0" IVar="7" Cut="2.2409487915039062e+02" cType="1" res="-7.0825971662998199e-02" rms="1.6520434617996216e-01" purity="8.2279585301876068e-02" nType="0">
            <Node pos="l" depth="3" NCoef="0" IVar="-1" Cut="0.0000000000000000e+00" cType="1" res="-3.2364588230848312e-02" rms="3.3993729948997498e-01" purity="3.5267007350921631e-01" nType="-99"/>
            <Node pos="r" depth="3" NCoef="0" IVar="-1" Cut="0.0000000000000000e+00" cType="1" res="-4.9313593655824661e-02" rms="1.2052898295223713e-02" purity="0.0000000000000000e+00" nType="-99"/>
          </Node>
          <Node pos="r" depth="2" NCoef="0" IVar="18" Cut="1.1000000000000000e+01" cType="1" res="8.2965940237045288e-02" rms="6.7241215705871582e-01" purity="4.2234891653060913e-01" nType="0">
            <Node pos="l" depth="3" NCoef="0" IVar="-1" Cut="0.0000000000000000e+00" cType="1" res="4.6482249163091183e-03" rms="2.9867884516716003e-01" purity="5.7384729385375977e-01" nType="-99"/>
            <Node pos="r" depth="3" NCoef="0" IVar="-1" Cut="0.0000000000000000e+00" cType="1" res="-3.1476665288209915e-02" rms="2.6471951603889465e-01" purity="2.4183425307273865e-01" nType="-99"/>
          </Node>
        </Node>
        <Node pos="r" depth="1" NCoef="0" IVar="7" Cut="2.0428138732910156e+02" cType="1" res="4.2907435446977615e-02" rms="2.6293787360191345e-01" purity="7.2866898775100708e-01" nType="0">
          <Node pos="l" depth="2" NCoef="0" IVar="1" Cut="1.0144897460937500e+02" cType="1" res="6.7038737237453461e-02" rms="2.6846396923065186e-01" purity="8.7363356351852417e-01" nType="0">
            <Node pos="l" depth="3" NCoef="0" IVar="-1" Cut="0.0000000000000000e+00" cType="1" res="-3.6193396896123886e-02" rms="3.7812286615371704e-01" purity="2.4833653867244720e-01" nType="-99"/>
            <Node pos="r" depth="3" NCoef="0" IVar="-1" Cut="0.0000000000000000e+00" cType="1" res="2.8591530397534370e-02" rms="2.5383019447326660e-01" purity="9.1076821088790894e-01" nType="-99"/>
          </Node>
          <Node pos="r" depth="2" NCoef="0" IVar="8" Cut="7.3357727050781250e+01" cType="1" res="-6.6050797700881958e-02" rms="2.0341064035892487e-01" purity="7.4121139943599701e-02" nType="0">
            <Node pos="l" depth="3" NCoef="0" IVar="-1" Cut="0.0000000000000000e+00" cType="1" res="-5.2760198712348938e-02" rms="1.1603698134422302e-01" purity="7.5048725120723248e-03" nType="-99"/>
            <Node pos="r" depth="3" NCoef="0" IVar="-1" Cut="0.0000000000000000e+00" cType="1" res="-2.1072106435894966e-02" rms="2.2682781517505646e-01" purity="1.0034776479005814e-01" nType="-99"/>
          </Node>
        </Node>
      </Node>
    </BinaryTree>
    <BinaryTree type="DecisionTree" boostWeight="1.0000000000000000e+00" itree="24">
      <Node pos="s" depth="0" NCoef="0" IVar="10" Cut="1.2767130136489868e-01" cType="1" res="-2.9043694958090782e-03" rms="2.5252932310104370e-01" purity="5.0128465890884399e-01" nType="0">
        <Node pos="l" depth="1" NCoef="0" IVar="9" Cut="4.7582644224166870e-01" cType="1" res="-4.9792747944593430e-02" rms="2.3194007575511932e-01" purity="2.2377718985080719e-01" nType="0">
          <Node pos="l" depth="2" NCoef="0" IVar="-1" Cut="0.0000000000000000e+00" cType="1" res="-6.4283430576324463e-02" rms="2.2952967882156372e-01" purity="5.2923616021871567e-02" nType="-99"/>
          <Node pos="r" depth="2" NCoef="0" IVar="7" Cut="1.8684523010253906e+02" cType="1" res="-4.2177516967058182e-02" rms="2.3083159327507019e-01" purity="2.4120700359344482e-01" nType="0">
            <Node pos="l" depth="3" NCoef="0" IVar="-1" Cut="0.0000000000000000e+00" cType="1" res="-1.2058537686243653e-04" rms="3.6430448293685913e-01" purity="7.1343237161636353e-01" nType="-99"/>
            <Node pos="r" depth="3" NCoef="0" IVar="-1" Cut="0.0000000000000000e+00" cType="1" res="-3.5961937159299850e-02" rms="1.5481242537498474e-01" purity="7.1975782513618469e-02" nType="-99"/>
          </Node>
        </Node>
        <Node pos="r" depth="1" NCoef="0" IVar="1" Cut="1.2810943603515625e+02" cType="1" res="3.5473048686981201e-02" rms="2.6203635334968567e-01" purity="7.2842019796371460e-01" nType="0">
          <Node pos="l" depth="2" NCoef="0" IVar="1" Cut="1.1048024749755859e+02" cType="1" res="-5.6282017379999161e-02" rms="3.4180396795272827e-01" purity="5.2906829118728638e-01" nType="0">
            <Node pos="l" depth="3" NCoef="0" IVar="-1" Cut="0.0000000000000000e+00" cType="1" res="-3.5495802760124207e-02" rms="3.5156083106994629e-01" purity="2.6722338795661926e-01" nType="-99"/>
            <Node pos="r" depth="3" NCoef="0" IVar="-1" Cut="0.0000000000000000e+00" cType="1" res="2.0119328110013157e-04" rms="3.2272511720657349e-01" purity="7.3784244060516357e-01" nType="-99"/>
          </Node>
          <Node pos="r" depth="2" NCoef="0" IVar="7" Cut="2.4020971679687500e+02" cType="1" res="6.5215721726417542e-02" rms="2.2234195470809937e-01" purity="7.9304069280624390e-01" nType="0">
            <Node pos="l" depth="3" NCoef="0" IVar="-1" Cut="0.0000000000000000e+00" cType="1" res="3.1468611210584641e-02" rms="2.2953972220420837e-01" purity="9.0306448936462402e-01" nType="-99"/>
            <Node pos="r" depth="3" NCoef="0" IVar="-1" Cut="0.0000000000000000e+00" cType="1" res="-4.8739753663539886e-02" rms="5.0770010799169540e-02" purity="2.4832757189869881e-03" nType="-99"/>
          </Node>
        </Node>
      </Node>
    </BinaryTree>
    <BinaryTree type="DecisionTree" boostWeight="1.0000000000000000e+00" itree="25">
      <Node pos="s" depth="0" NCoef="0" IVar="10" Cut="1.2793861329555511e-01" cType="1" res="-2.5837600696831942e-03" rms="2.5163400173187256e-01" purity="4.9850171804428101e-01" nType="0">
        <Node pos="l" depth="1" NCoef="0" IVar="9" Cut="4.7570329904556274e-01" cType="1" res="-4.4565275311470032e-02" rms="2.3002450168132782e-01" purity="2.2789944708347321e-01" nType="0">
          <Node pos="l" depth="2" NCoef="0" IVar="-1" Cut="0.0000000000000000e+00" cType="1" res="-5.8308515697717667e-02" rms="2.2566005587577820e-01" purity="5.9425648301839828e-02" nType="-99"/>
          <Node pos="r" depth="2" NCoef="0" IVar="7" Cut="1.9732609558105469e+02" cType="1" res="-3.7460334599018097e-02" rms="2.2929674386978149e-01" purity="2.4528871476650238e-01" nType="0">
            <Node pos="l" depth="3" NCoef="0" IVar="-1" Cut="0.0000000000000000e+00" cType="1" res="5.6013876019278541e-05" rms="3.6326563358306885e-01" purity="6.9816213846206665e-01" nType="-99"/>
            <Node pos="r" depth="3" NCoef="0" IVar="-1" Cut="0.0000000000000000e+00" cType="1" res="-4.0663372725248337e-02" rms="1.1364015191793442e-01" purity="2.4871377274394035e-02" nType="-99"/>
          </Node>
        </Node>
        <Node pos="r" depth="1" NCoef="0" IVar="5" Cut="1.3891296386718750e+02" cType="1" res="3.2906476408243179e-02" rms="2.6338031888008118e-01" purity="7.2726285457611084e-01" nType="0">
          <Node pos="l" depth="2" NCoef="0" IVar="7" Cut="1.4044293212890625e+02" cType="1" res="6.1873897910118103e-02" rms="2.6136368513107300e-01" purity="8.6537569761276245e-01" nType="0">
            <Node pos="l" depth="3" NCoef="0" IVar="-1" Cut="0.0000000000000000e+00" cType="1" res="-2.7148395776748657e-02" rms="4.1705468297004700e-01" purity="3.5361793637275696e-01" nType="-99"/>
            <Node pos="r" depth="3" NCoef="0" IVar="-1" Cut="0.0000000000000000e+00" cType="1" res="2.8255233541131020e-02" rms="2.4130584299564362e-01" purity="9.0203660726547241e-01" nType="-99"/>
          </Node>
          <Node pos="r" depth="2" NCoef="0" IVar="8" Cut="7.9167747497558594e+01" cType="1" res="-4.8514179885387421e-02" rms="2.5170567631721497e-01" purity="3.3905994892120361e-01" nType="0">
            <Node pos="l" depth="3" NCoef="0" IVar="-1" Cut="0.0000000000000000e+00" cType="1" res="-5.2634354680776596e-02" rms="2.5901424884796143e-01" purity="1.9889517128467560e-01" nType="-99"/>
            <Node pos="r" depth="3" NCoef="0" IVar="-1" Cut="0.0000000000000000e+00" cType="1" res="-8.0463761696591973e-04" rms="2.3545150458812714e-01" purity="4.3412309885025024e-01" nType="-99"/>
          </Node>
        </Node>
      </Node>
    </BinaryTree>
    <BinaryTree type="DecisionTree" boostWeight="1.0000000000000000e+00" itree="26">
      <Node pos="s" depth="0" NCoef="0" IVar="10" Cut="1.3507221639156342e-01" cType="1" res="-5.8426219038665295e-04" rms="2.4533683061599731e-01" purity="5.0148940086364746e-01" nType="0">
        <Node pos="l" depth="1" NCoef="0" IVar="9" Cut="4.7570329904556274e-01" cType="1" res="-4.1352491825819016e-02" rms="2.2823183238506317e-01" purity="2.3260977864265442e-01" nType="0">
          <Node pos="l" depth="2" NCoef="0" IVar="-1" Cut="0.0000000000000000e+00" cType="1" res="-5.7418718934059143e-02" rms="2.1192297339439392e-01" purity="5.5561799556016922e-02" nType="-99"/>
          <Node pos="r" depth="2" NCoef="0" IVar="10" Cut="5.9643805027008057e-02" cType="1" res="-3.5111378878355026e-02" rms="2.2895757853984833e-01" purity="2.5100195407867432e-01" nType="0">
            <Node pos="l" depth="3" NCoef="0" IVar="-1" Cut="0.0000000000000000e+00" cType="1" res="-3.8611631840467453e-02" rms="1.6239559650421143e-01" purity="8.0520398914813995e-02" nType="-99"/>
            <Node pos="r" depth="3" NCoef="0" IVar="-1" Cut="0.0000000000000000e+00" cType="1" res="-4.3988539837300777e-03" rms="2.8303450345993042e-01" purity="4.3938326835632324e-01" nType="-99"/>
          </Node>
        </Node>
        <Node pos="r" depth="1" NCoef="0" IVar="7" Cut="2.0438914489746094e+02" cType="1" res="3.4842476248741150e-02" rms="2.5402736663818359e-01" purity="7.3514008522033691e-01" nType="0">
          <Node pos="l" depth="2" NCoef="0" IVar="8" Cut="6.2047607421875000e+01" cType="1" res="5.6682124733924866e-02" rms="2.6097631454467773e-01" purity="8.7957280874252319e-01" nType="0">
            <Node pos="l" depth="3" NCoef="0" IVar="-1" Cut="0.0000000000000000e+00" cType="1" res="-1.9932843744754791e-02" rms="4.1388800740242004e-01" purity="3.6363503336906433e-01" nType="-99"/>
            <Node pos="r" depth="3" NCoef="0" IVar="-1" Cut="0.0000000000000000e+00" cType="1" res="2.8163298964500427e-02" rms="2.3725347220897675e-01" purity="9.2808699607849121e-01" nType="-99"/>
          </Node>
          <Node pos="r" depth="2" NCoef="0" IVar="15" Cut="2.9379434883594513e-02" cType="1" res="-6.6895976662635803e-02" rms="1.8784560263156891e-01" purity="6.2310572713613510e-02" nType="0">
            <Node pos="l" depth="3" NCoef="0" IVar="-1" Cut="0.0000000000000000e+00" cType="1" res="-2.2369034588336945e-02" rms="2.0740145444869995e-01" purity="8.3759181201457977e-02" nType="-99"/>
            <Node pos="r" depth="3" NCoef="0" IVar="-1" Cut="0.0000000000000000e+00" cType="1" res="-4.0191791951656342e-02" rms="1.6743671894073486e-01" purity="4.4145870953798294e-02" nType="-99"/>
          </Node>
        </Node>
      </Node>
    </BinaryTree>
    <BinaryTree type="DecisionTree" boostWeight="1.0000000000000000e+00" itree="27">
      <Node pos="s" depth="0" NCoef="0" IVar="7" Cut="2.1264059448242188e+02" cType="1" res="1.7673424445092678e-03" rms="2.4295251071453094e-01" purity="5.0321632623672485e-01" nType="0">
        <Node pos="l" depth="1" NCoef="0" IVar="5" Cut="7.2842849731445312e+01" cType="1" res="3.5031098872423172e-02" rms="2.9598262906074524e-01" purity="8.0004769563674927e-01" nType="0">
          <Node pos="l" depth="2" NCoef="0" IVar="-1" Cut="0.0000000000000000e+00" cType="1" res="-5.1942713558673859e-02" rms="3.5972574353218079e-01" purity="3.5349032282829285e-01" nType="-99"/>
          <Node pos="r" depth="2" NCoef="0" IVar="6" Cut="5.3806945800781250e+01" cType="1" res="4.7847203910350800e-02" rms="2.8669598698616028e-01" purity="8.2667636871337891e-01" nType="0">
            <Node pos="l" depth="3" NCoef="0" IVar="-1" Cut="0.0000000000000000e+00" cType="1" res="-4.6750441193580627e-02" rms="3.8394087553024292e-01" purity="4.6514621376991272e-01" nType="-99"/>
            <Node pos="r" depth="3" NCoef="0" IVar="-1" Cut="0.0000000000000000e+00" cType="1" res="2.0800201222300529e-02" rms="2.7725699543952942e-01" purity="8.4476494789123535e-01" nType="-99"/>
          </Node>
        </Node>
        <Node pos="r" depth="1" NCoef="0" IVar="8" Cut="1.4046504211425781e+02" cType="1" res="-5.3811658173799515e-02" rms="7.9594925045967102e-02" purity="7.2534875944256783e-03" nType="0">
          <Node pos="l" depth="2" NCoef="0" IVar="8" Cut="8.9573120117187500e+01" cType="1" res="-6.4895950257778168e-02" rms="1.3015906512737274e-01" purity="1.9795382395386696e-02" nType="0">
            <Node pos="l" depth="3" NCoef="0" IVar="-1" Cut="0.0000000000000000e+00" cType="1" res="-4.6098530292510986e-02" rms="1.3267397880554199e-01" purity="1.5127378515899181e-02" nType="-99"/>
            <Node pos="r" depth="3" NCoef="0" IVar="-1" Cut="0.0000000000000000e+00" cType="1" res="-3.7120088934898376e-02" rms="1.2757563591003418e-01" purity="2.2853655740618706e-02" nType="-99"/>
          </Node>
          <Node pos="r" depth="2" NCoef="0" IVar="10" Cut="4.5633003115653992e-02" cType="1" res="-4.7401160001754761e-02" rms="9.4500808045268059e-03" purity="0.0000000000000000e+00" nType="0">
            <Node pos="l" depth="3" NCoef="0" IVar="-1" Cut="0.0000000000000000e+00" cType="1" res="-4.7920979559421539e-02" rms="4.0632900781929493e-03" purity="0.0000000000000000e+00" nType="-99"/>
            <Node pos="r" depth="3" NCoef="0" IVar="-1" Cut="0.0000000000000000e+00" cType="1" res="-4.9143735319375992e-02" rms="1.3077905401587486e-02" purity="0.0000000000000000e+00" nType="-99"/>
          </Node>
        </Node>
      </Node>
    </BinaryTree>
    <BinaryTree type="DecisionTree" boostWeight="1.0000000000000000e+00" itree="28">
      <Node pos="s" depth="0" NCoef="0" IVar="9" Cut="4.7582644224166870e-01" cType="1" res="-2.4875311646610498e-03" rms="2.4131976068019867e-01" purity="4.9148574471473694e-01" nType="0">
        <Node pos="l" depth="1" NCoef="0" IVar="7" Cut="2.3908508300781250e+02" cType="1" res="-1.1246401816606522e-01" rms="2.6166036725044250e-01" purity="1.2941290438175201e-01" nType="0">
          <Node pos="l" depth="2" NCoef="0" IVar="-1" Cut="0.0000000000000000e+00" cType="1" res="-5.9033971279859543e-02" rms="3.7170729041099548e-01" purity="2.8708323836326599e-01" nType="-99"/>
          <Node pos="r" depth="2" NCoef="0" IVar="-1" Cut="0.0000000000000000e+00" cType="1" res="-4.8538237810134888e-02" rms="9.3145789578557014e-03" purity="0.0000000000000000e+00" nType="-99"/>
        </Node>
        <Node pos="r" depth="1" NCoef="0" IVar="8" Cut="1.0419049835205078e+02" cType="1" res="6.2016737647354603e-03" rms="2.3747794330120087e-01" purity="5.2009302377700806e-01" nType="0">
          <Node pos="l" depth="2" NCoef="0" IVar="0" Cut="1.5965264892578125e+02" cType="1" res="3.1539019197225571e-02" rms="2.7620944380760193e-01" purity="7.7586442232131958e-01" nType="0">
            <Node pos="l" depth="3" NCoef="0" IVar="-1" Cut="0.0000000000000000e+00" cType="1" res="-2.2203724831342697e-02" rms="3.8105443120002747e-01" purity="5.8217394351959229e-01" nType="-99"/>
            <Node pos="r" depth="3" NCoef="0" IVar="-1" Cut="0.0000000000000000e+00" cType="1" res="1.9364923238754272e-02" rms="2.5184300541877747e-01" purity="8.0604702234268188e-01" nType="-99"/>
          </Node>
          <Node pos="r" depth="2" NCoef="0" IVar="7" Cut="2.1349508666992188e+02" cType="1" res="-4.3215915560722351e-02" rms="1.1788515746593475e-01" purity="2.1240144968032837e-02" nType="0">
            <Node pos="l" depth="3" NCoef="0" IVar="-1" Cut="0.0000000000000000e+00" cType="1" res="-8.8609373196959496e-03" rms="3.0684563517570496e-01" purity="1.4757518470287323e-01" nType="-99"/>
            <Node pos="r" depth="3" NCoef="0" IVar="-1" Cut="0.0000000000000000e+00" cType="1" res="-4.7701232135295868e-02" rms="2.8707986697554588e-02" purity="7.6429592445492744e-04" nType="-99"/>
          </Node>
        </Node>
      </Node>
    </BinaryTree>
    <BinaryTree type="DecisionTree" boostWeight="1.0000000000000000e+00" itree="29">
      <Node pos="s" depth="0" NCoef="0" IVar="8" Cut="1.0707609558105469e+02" cType="1" res="2.8001307509839535e-04" rms="2.3738302290439606e-01" purity="5.0100529193878174e-01" nType="0">
        <Node pos="l" depth="1" NCoef="0" IVar="9" Cut="4.7584339976310730e-01" cType="1" res="2.1280542016029358e-02" rms="2.8111931681632996e-01" purity="7.4147224426269531e-01" nType="0">
          <Node pos="l" depth="2" NCoef="0" IVar="-1" Cut="0.0000000000000000e+00" cType="1" res="-4.7392971813678741e-02" rms="3.1694501638412476e-01" purity="2.3489879071712494e-01" nType="-99"/>
          <Node pos="r" depth="2" NCoef="0" IVar="7" Cut="2.1355784606933594e+02" cType="1" res="3.0687775462865829e-02" rms="2.7601304650306702e-01" purity="7.7270340919494629e-01" nType="0">
            <Node pos="l" depth="3" NCoef="0" IVar="-1" Cut="0.0000000000000000e+00" cType="1" res="1.6271444037556648e-02" rms="2.8473973274230957e-01" purity="8.6671775579452515e-01" nType="-99"/>
            <Node pos="r" depth="3" NCoef="0" IVar="-1" Cut="0.0000000000000000e+00" cType="1" res="-3.9423458278179169e-02" rms="1.5967644751071930e-01" purity="2.8508672490715981e-02" nType="-99"/>
          </Node>
        </Node>
        <Node pos="r" depth="1" NCoef="0" IVar="15" Cut="3.0508037656545639e-02" cType="1" res="-4.2586270719766617e-02" rms="8.5579760372638702e-02" purity="1.0164062492549419e-02" nType="0">
          <Node pos="l" depth="2" NCoef="0" IVar="7" Cut="2.2926788330078125e+02" cType="1" res="-3.7156295031309128e-02" rms="1.0008274763822556e-01" purity="1.4980069361627102e-02" nType="0">
            <Node pos="l" depth="3" NCoef="0" IVar="-1" Cut="0.0000000000000000e+00" cType="1" res="-9.7189703956246376e-03" rms="2.5709837675094604e-01" purity="9.9918462336063385e-02" nType="-99"/>
            <Node pos="r" depth="3" NCoef="0" IVar="-1" Cut="0.0000000000000000e+00" cType="1" res="-4.8191137611865997e-02" rms="8.2319490611553192e-03" purity="0.0000000000000000e+00" nType="-99"/>
          </Node>
          <Node pos="r" depth="2" NCoef="0" IVar="7" Cut="2.2550653076171875e+02" cType="1" res="-4.8449300229549408e-02" rms="6.5956614911556244e-02" purity="4.9639628268778324e-03" nType="0">
            <Node pos="l" depth="3" NCoef="0" IVar="-1" Cut="0.0000000000000000e+00" cType="1" res="-4.1143923997879028e-02" rms="1.4715473353862762e-01" purity="2.6769438758492470e-02" nType="-99"/>
            <Node pos="r" depth="3" NCoef="0" IVar="-1" Cut="0.0000000000000000e+00" cType="1" res="-4.8142906278371811e-02" rms="9.0036084875464439e-03" purity="0.0000000000000000e+00" nType="-99"/>
          </Node>
        </Node>
      </Node>
    </BinaryTree>
    <BinaryTree type="DecisionTree" boostWeight="1.0000000000000000e+00" itree="30">
      <Node pos="s" depth="0" NCoef="0" IVar="0" Cut="1.7856007385253906e+02" cType="1" res="-8.8662700727581978e-04" rms="2.4012918770313263e-01" purity="5.0042992830276489e-01" nType="0">
        <Node pos="l" depth="1" NCoef="0" IVar="5" Cut="9.3545227050781250e+01" cType="1" res="-5.4579842835664749e-02" rms="2.9441556334495544e-01" purity="3.4483128786087036e-01" nType="0">
          <Node pos="l" depth="2" NCoef="0" IVar="5" Cut="7.4326171875000000e+01" cType="1" res="-1.1938190460205078e-01" rms="3.2610151171684265e-01" purity="2.9158860445022583e-01" nType="0">
            <Node pos="l" depth="3" NCoef="0" IVar="-1" Cut="0.0000000000000000e+00" cType="1" res="-6.0903992503881454e-02" rms="2.9571631550788879e-01" purity="1.3095282018184662e-01" nType="-99"/>
            <Node pos="r" depth="3" NCoef="0" IVar="-1" Cut="0.0000000000000000e+00" cType="1" res="-1.5315816737711430e-02" rms="3.3821386098861694e-01" purity="4.5165672898292542e-01" nType="-99"/>
          </Node>
          <Node pos="r" depth="2" NCoef="0" IVar="14" Cut="5.0958728790283203e-01" cType="1" res="-3.2112412154674530e-02" rms="2.7911096811294556e-01" purity="3.6329102516174316e-01" nType="0">
            <Node pos="l" depth="3" NCoef="0" IVar="-1" Cut="0.0000000000000000e+00" cType="1" res="-2.1485570818185806e-02" rms="2.7726393938064575e-01" purity="3.2838341593742371e-01" nType="-99"/>
            <Node pos="r" depth="3" NCoef="0" IVar="-1" Cut="0.0000000000000000e+00" cType="1" res="6.9643850438296795e-03" rms="2.7980172634124756e-01" purity="4.8375138640403748e-01" nType="-99"/>
          </Node>
        </Node>
        <Node pos="r" depth="1" NCoef="0" IVar="7" Cut="1.8506977844238281e+02" cType="1" res="1.4154068194329739e-02" rms="2.2022597491741180e-01" purity="5.4401665925979614e-01" nType="0">
          <Node pos="l" depth="2" NCoef="0" IVar="1" Cut="1.1621656036376953e+02" cType="1" res="5.7803384959697723e-02" rms="2.4123050272464752e-01" purity="9.0815377235412598e-01" nType="0">
            <Node pos="l" depth="3" NCoef="0" IVar="-1" Cut="0.0000000000000000e+00" cType="1" res="-2.2935154847800732e-03" rms="3.8123992085456848e-01" purity="6.9070965051651001e-01" nType="-99"/>
            <Node pos="r" depth="3" NCoef="0" IVar="-1" Cut="0.0000000000000000e+00" cType="1" res="3.2792199403047562e-02" rms="2.0028938353061676e-01" purity="9.5071607828140259e-01" nType="-99"/>
          </Node>
          <Node pos="r" depth="2" NCoef="0" IVar="5" Cut="1.6359510803222656e+02" cType="1" res="-2.5413440540432930e-02" rms="1.9084163010120392e-01" purity="2.1393129229545593e-01" nType="0">
            <Node pos="l" depth="3" NCoef="0" IVar="-1" Cut="0.0000000000000000e+00" cType="1" res="-3.4225708805024624e-04" rms="2.6618495583534241e-01" purity="4.7065907716751099e-01" nType="-99"/>
            <Node pos="r" depth="3" NCoef="0" IVar="-1" Cut="0.0000000000000000e+00" cType="1" res="-4.3570809066295624e-02" rms="9.5806732773780823e-02" purity="1.6972592100501060e-02" nType="-99"/>
          </Node>
        </Node>
      </Node>
    </BinaryTree>
    <BinaryTree type="DecisionTree" boostWeight="1.0000000000000000e+00" itree="31">
      <Node pos="s" depth="0" NCoef="0" IVar="0" Cut="1.8111509704589844e+02" cType="1" res="-2.4230917915701866e-03" rms="2.3966075479984283e-01" purity="5.0304442644119263e-01" nType="0">
        <Node pos="l" depth="1" NCoef="0" IVar="16" Cut="4.8804569989442825e-02" cType="1" res="-5.2909236401319504e-02" rms="3.0044192075729370e-01" purity="3.5523182153701782e-01" nType="0">
          <Node pos="l" depth="2" NCoef="0" IVar="15" Cut="3.3418484032154083e-02" cType="1" res="-2.5430524721741676e-02" rms="2.8157892823219299e-01" purity="3.9434236288070679e-01" nType="0">
            <Node pos="l" depth="3" NCoef="0" IVar="-1" Cut="0.0000000000000000e+00" cType="1" res="2.1326041314750910e-04" rms="2.6099458336830139e-01" purity="4.2557325959205627e-01" nType="-99"/>
            <Node pos="r" depth="3" NCoef="0" IVar="-1" Cut="0.0000000000000000e+00" cType="1" res="-2.0080642774701118e-02" rms="2.9902973771095276e-01" purity="3.6205318570137024e-01" nType="-99"/>
          </Node>
          <Node pos="r" depth="2" NCoef="0" IVar="8" Cut="1.1894367980957031e+02" cType="1" res="-9.8861336708068848e-02" rms="3.2442319393157959e-01" purity="2.8982797265052795e-01" nType="0">
            <Node pos="l" depth="3" NCoef="0" IVar="-1" Cut="0.0000000000000000e+00" cType="1" res="-3.6524131894111633e-02" rms="3.9909574389457703e-01" purity="4.4815784692764282e-01" nType="-99"/>
            <Node pos="r" depth="3" NCoef="0" IVar="-1" Cut="0.0000000000000000e+00" cType="1" res="-4.7714676707983017e-02" rms="5.3693015128374100e-02" purity="2.4767939466983080e-03" nType="-99"/>
          </Node>
        </Node>
        <Node pos="r" depth="1" NCoef="0" IVar="7" Cut="2.0869696044921875e+02" cType="1" res="1.2461786158382893e-02" rms="2.1629957854747772e-01" purity="5.4662412405014038e-01" nType="0">
          <Node pos="l" depth="2" NCoef="0" IVar="8" Cut="6.3672073364257812e+01" cType="1" res="4.3795175850391388e-02" rms="2.5966006517410278e-01" purity="8.8184624910354614e-01" nType="0">
            <Node pos="l" depth="3" NCoef="0" IVar="-1" Cut="0.0000000000000000e+00" cType="1" res="-2.3713720962405205e-02" rms="4.2804154753684998e-01" purity="4.6376261115074158e-01" nType="-99"/>
            <Node pos="r" depth="3" NCoef="0" IVar="-1" Cut="0.0000000000000000e+00" cType="1" res="2.3384852334856987e-02" rms="2.4178497493267059e-01" purity="9.0899521112442017e-01" nType="-99"/>
          </Node>
          <Node pos="r" depth="2" NCoef="0" IVar="10" Cut="1.2706579267978668e-01" cType="1" res="-3.7188373506069183e-02" rms="1.0031157732009888e-01" purity="1.5439004637300968e-02" nType="0">
            <Node pos="l" depth="3" NCoef="0" IVar="-1" Cut="0.0000000000000000e+00" cType="1" res="-4.1292261332273483e-02" rms="6.8756178021430969e-02" purity="6.5148714929819107e-03" nType="-99"/>
