<?xml version="1.0"?>
<MethodSetup Method="BDT::BDTG">
  <GeneralInfo>
    <Info name="TMVA Release" value="4.2.1 [262657]"/>
    <Info name="ROOT Release" value="6.05/03 [394499]"/>
    <Info name="Creator" value="skonstan"/>
    <Info name="Date" value="Wed Oct 24 09:50:45 2018"/>
    <Info name="Host" value="Linux vocms0301.cern.ch 2.6.32-573.7.1.el6.x86_64 #1 SMP Wed Sep 23 10:12:03 CEST 2015 x86_64 x86_64 x86_64 GNU/Linux"/>
    <Info name="Dir" value="/uscms_data/d3/skonstan/CMSSW_8_0_30/src/HiggsAnalysis/NtupleAnalysis/src/TopRecoTree/work/TMVA_BDT/test"/>
    <Info name="Training events" value="40000"/>
    <Info name="TrainingTime" value="1.08044523e+02"/>
    <Info name="AnalysisType" value="Classification"/>
  </GeneralInfo>
  <Options>
    <Option name="V" modified="Yes">False</Option>
    <Option name="VerbosityLevel" modified="No">Default</Option>
    <Option name="VarTransform" modified="No">None</Option>
    <Option name="H" modified="Yes">True</Option>
    <Option name="CreateMVAPdfs" modified="No">False</Option>
    <Option name="IgnoreNegWeightsInTraining" modified="No">False</Option>
    <Option name="NTrees" modified="Yes">1000</Option>
    <Option name="MaxDepth" modified="Yes">3</Option>
    <Option name="MinNodeSize" modified="Yes">2.5%</Option>
    <Option name="nCuts" modified="No">20</Option>
    <Option name="BoostType" modified="Yes">Grad</Option>
    <Option name="AdaBoostR2Loss" modified="No">quadratic</Option>
    <Option name="UseBaggedBoost" modified="Yes">True</Option>
    <Option name="Shrinkage" modified="Yes">1.000000e-01</Option>
    <Option name="AdaBoostBeta" modified="No">5.000000e-01</Option>
    <Option name="UseRandomisedTrees" modified="No">False</Option>
    <Option name="UseNvars" modified="No">4</Option>
    <Option name="UsePoissonNvars" modified="No">True</Option>
    <Option name="BaggedSampleFraction" modified="Yes">5.000000e-01</Option>
    <Option name="UseYesNoLeaf" modified="No">True</Option>
    <Option name="NegWeightTreatment" modified="Yes">ignorenegweightsintraining</Option>
    <Option name="Css" modified="No">1.000000e+00</Option>
    <Option name="Cts_sb" modified="No">1.000000e+00</Option>
    <Option name="Ctb_ss" modified="No">1.000000e+00</Option>
    <Option name="Cbb" modified="No">1.000000e+00</Option>
    <Option name="NodePurityLimit" modified="No">5.000000e-01</Option>
    <Option name="SeparationType" modified="No">giniindex</Option>
    <Option name="DoBoostMonitor" modified="No">False</Option>
    <Option name="UseFisherCuts" modified="No">False</Option>
    <Option name="MinLinCorrForFisher" modified="No">8.000000e-01</Option>
    <Option name="UseExclusiveVars" modified="No">False</Option>
    <Option name="DoPreselection" modified="No">False</Option>
    <Option name="SigToBkgFraction" modified="No">1.000000e+00</Option>
    <Option name="PruneMethod" modified="No">nopruning</Option>
    <Option name="PruneStrength" modified="No">0.000000e+00</Option>
    <Option name="PruningValFraction" modified="No">5.000000e-01</Option>
    <Option name="nEventsMin" modified="No">0</Option>
    <Option name="UseBaggedGrad" modified="No">False</Option>
    <Option name="GradBaggingFraction" modified="No">5.000000e-01</Option>
    <Option name="UseNTrainEvents" modified="No">0</Option>
    <Option name="NNodesMax" modified="No">0</Option>
  </Options>
  <Variables NVar="19">
    <Variable VarIndex="0" Expression="TrijetPtDR" Label="TrijetPtDR" Title="p_{T} #Delta R_{T}" Unit="" Internal="TrijetPtDR" Type="F" Min="2.74345994e+00" Max="5.63911035e+03"/>
    <Variable VarIndex="1" Expression="TrijetDijetPtDR" Label="TrijetDijetPtDR" Title="p_{T} #Delta R_{W}" Unit="" Internal="TrijetDijetPtDR" Type="F" Min="2.23984623e+00" Max="3.35462793e+03"/>
    <Variable VarIndex="2" Expression="TrijetBjetMass" Label="TrijetBjetMass" Title="m_{b-tagged jet}" Unit="" Internal="TrijetBjetMass" Type="F" Min="3.05558586e+00" Max="1.94090927e+02"/>
    <Variable VarIndex="3" Expression="TrijetLdgJetBDisc" Label="TrijetLdgJetBDisc" Title="Leading jet CSV" Unit="" Internal="TrijetLdgJetBDisc" Type="F" Min="-1.00000000e+00" Max="9.99440968e-01"/>
    <Variable VarIndex="4" Expression="TrijetSubldgJetBDisc" Label="TrijetSubldgJetBDisc" Title="Subleading jet CSV" Unit="" Internal="TrijetSubldgJetBDisc" Type="F" Min="-1.00000000e+00" Max="9.99465585e-01"/>
    <Variable VarIndex="5" Expression="TrijetBJetLdgJetMass" Label="TrijetBJetLdgJetMass" Title="m_{b, leading jet}" Unit="" Internal="TrijetBJetLdgJetMass" Type="F" Min="2.58469162e+01" Max="2.70594067e+03"/>
    <Variable VarIndex="6" Expression="TrijetBJetSubldgJetMass" Label="TrijetBJetSubldgJetMass" Title="m_{b, subleading jet}" Unit="" Internal="TrijetBJetSubldgJetMass" Type="F" Min="2.03109207e+01" Max="1.45799097e+03"/>
    <Variable VarIndex="7" Expression="TrijetMass" Label="TrijetMass" Title="m_{t}" Unit="GeV" Internal="TrijetMass" Type="F" Min="5.93075867e+01" Max="2.84887036e+03"/>
    <Variable VarIndex="8" Expression="TrijetDijetMass" Label="TrijetDijetMass" Title="m_{W}" Unit="" Internal="TrijetDijetMass" Type="F" Min="2.01835995e+01" Max="2.06907324e+03"/>
    <Variable VarIndex="9" Expression="TrijetBJetBDisc" Label="TrijetBJetBDisc" Title="b-tagged jet CSV" Unit="" Internal="TrijetBJetBDisc" Type="F" Min="-1.00000000e+01" Max="9.99618351e-01"/>
    <Variable VarIndex="10" Expression="TrijetSoftDrop_n2" Label="TrijetSoftDrop_n2" Title="SoftDrop_n2" Unit="" Internal="TrijetSoftDrop_n2" Type="F" Min="2.93436903e-03" Max="2.94081092e+00"/>
    <Variable VarIndex="11" Expression="TrijetLdgJetCvsL" Label="TrijetLdgJetCvsL" Title="Leading jet CvsL" Unit="" Internal="TrijetLdgJetCvsL" Type="F" Min="-8.27378392e-01" Max="9.96819079e-01"/>
    <Variable VarIndex="12" Expression="TrijetSubldgJetCvsL" Label="TrijetSubldgJetCvsL" Title="Subleading jet CvsL" Unit="" Internal="TrijetSubldgJetCvsL" Type="F" Min="-8.27920914e-01" Max="9.96569216e-01"/>
    <Variable VarIndex="13" Expression="TrijetLdgJetPtD" Label="TrijetLdgJetPtD" Title="Leading jet p_{T}D" Unit="" Internal="TrijetLdgJetPtD" Type="F" Min="0.00000000e+00" Max="1.00000000e+00"/>
    <Variable VarIndex="14" Expression="TrijetSubldgJetPtD" Label="TrijetSubldgJetPtD" Title="Subleading jet p_{T}D" Unit="" Internal="TrijetSubldgJetPtD" Type="F" Min="0.00000000e+00" Max="1.00000000e+00"/>
    <Variable VarIndex="15" Expression="TrijetLdgJetAxis2" Label="TrijetLdgJetAxis2" Title="Leading jet axis2" Unit="" Internal="TrijetLdgJetAxis2" Type="F" Min="0.00000000e+00" Max="1.64472446e-01"/>
    <Variable VarIndex="16" Expression="TrijetSubldgJetAxis2" Label="TrijetSubldgJetAxis2" Title="Subleading jet axis2" Unit="" Internal="TrijetSubldgJetAxis2" Type="F" Min="0.00000000e+00" Max="1.86404288e-01"/>
    <Variable VarIndex="17" Expression="TrijetLdgJetMult" Label="TrijetLdgJetMult" Title="Leading jet mult" Unit="" Internal="TrijetLdgJetMult" Type="I" Min="0.00000000e+00" Max="7.10000000e+01"/>
    <Variable VarIndex="18" Expression="TrijetSubldgJetMult" Label="TrijetSubldgJetMult" Title="Subleading jet mult" Unit="" Internal="TrijetSubldgJetMult" Type="I" Min="0.00000000e+00" Max="5.10000000e+01"/>
  </Variables>
  <Spectators NSpec="0"/>
  <Classes NClass="2">
    <Class Name="Signal" Index="0"/>
    <Class Name="Background" Index="1"/>
  </Classes>
  <Transformations NTransformations="0"/>
  <MVAPdfs/>
  <Weights NTrees="1000" AnalysisType="1">
    <BinaryTree type="DecisionTree" boostWeight="1.0000000000000000e+00" itree="0">
      <Node pos="s" depth="0" NCoef="0" IVar="8" Cut="1.1774977111816406e+02" cType="1" res="4.2256866581737995e-03" rms="4.9998214840888977e-01" purity="5.0422567129135132e-01" nType="0">
        <Node pos="l" depth="1" NCoef="0" IVar="7" Cut="2.0722113037109375e+02" cType="1" res="2.3384934663772583e-01" rms="4.4194397330284119e-01" purity="7.3384934663772583e-01" nType="0">
          <Node pos="l" depth="2" NCoef="0" IVar="1" Cut="1.1310374450683594e+02" cType="1" res="3.6475527286529541e-01" rms="3.4198477864265442e-01" purity="8.6475527286529541e-01" nType="0">
            <Node pos="l" depth="3" NCoef="0" IVar="-1" Cut="0.0000000000000000e+00" cType="1" res="1.7931062728166580e-02" rms="4.9018952250480652e-01" purity="5.9856081008911133e-01" nType="-99"/>
            <Node pos="r" depth="3" NCoef="0" IVar="-1" Cut="0.0000000000000000e+00" cType="1" res="7.7570848166942596e-02" rms="2.7756470441818237e-01" purity="9.1588199138641357e-01" nType="-99"/>
          </Node>
          <Node pos="r" depth="2" NCoef="0" IVar="5" Cut="1.8554434204101562e+02" cType="1" res="-4.4649887084960938e-01" rms="2.2503054141998291e-01" purity="5.3501117974519730e-02" nType="0">
            <Node pos="l" depth="3" NCoef="0" IVar="-1" Cut="0.0000000000000000e+00" cType="1" res="-6.6068999469280243e-02" rms="3.4849691390991211e-01" purity="1.4146143198013306e-01" nType="-99"/>
            <Node pos="r" depth="3" NCoef="0" IVar="-1" Cut="0.0000000000000000e+00" cType="1" res="-9.0444467961788177e-02" rms="8.2809656858444214e-02" purity="6.9051203317940235e-03" nType="-99"/>
          </Node>
        </Node>
        <Node pos="r" depth="1" NCoef="0" IVar="7" Cut="2.4425523376464844e+02" cType="1" res="-4.9388206005096436e-01" rms="7.7977679669857025e-02" purity="6.1179469339549541e-03" nType="0">
          <Node pos="l" depth="2" NCoef="0" IVar="-1" Cut="0.0000000000000000e+00" cType="1" res="-8.4647312760353088e-02" rms="1.9778399169445038e-01" purity="4.0781646966934204e-02" nType="-99"/>
          <Node pos="r" depth="2" NCoef="0" IVar="9" Cut="5.4960995912551880e-01" cType="1" res="-5.0000000000000000e-01" rms="0.0000000000000000e+00" purity="0.0000000000000000e+00" nType="0">
            <Node pos="l" depth="3" NCoef="0" IVar="-1" Cut="0.0000000000000000e+00" cType="1" res="-9.1580681502819061e-02" rms="0.0000000000000000e+00" purity="0.0000000000000000e+00" nType="-99"/>
            <Node pos="r" depth="3" NCoef="0" IVar="-1" Cut="0.0000000000000000e+00" cType="1" res="-9.2014454305171967e-02" rms="0.0000000000000000e+00" purity="0.0000000000000000e+00" nType="-99"/>
          </Node>
        </Node>
      </Node>
    </BinaryTree>
    <BinaryTree type="DecisionTree" boostWeight="1.0000000000000000e+00" itree="1">
      <Node pos="s" depth="0" NCoef="0" IVar="8" Cut="1.0151445770263672e+02" cType="1" res="-2.5624451227486134e-03" rms="4.6629798412322998e-01" purity="4.9742439389228821e-01" nType="0">
        <Node pos="l" depth="1" NCoef="0" IVar="7" Cut="2.3087408447265625e+02" cType="1" res="2.4602480232715607e-01" rms="4.0129604935646057e-01" purity="7.6953536272048950e-01" nType="0">
          <Node pos="l" depth="2" NCoef="0" IVar="8" Cut="6.0162628173828125e+01" cType="1" res="3.3009052276611328e-01" rms="3.3779165148735046e-01" purity="8.6159896850585938e-01" nType="0">
            <Node pos="l" depth="3" NCoef="0" IVar="-1" Cut="0.0000000000000000e+00" cType="1" res="-3.0083021149039268e-02" rms="4.7185546159744263e-01" purity="3.4495860338211060e-01" nType="-99"/>
            <Node pos="r" depth="3" NCoef="0" IVar="-1" Cut="0.0000000000000000e+00" cType="1" res="6.7317374050617218e-02" rms="3.0395573377609253e-01" purity="8.9232552051544189e-01" nType="-99"/>
          </Node>
          <Node pos="r" depth="2" NCoef="0" IVar="10" Cut="3.0008956789970398e-01" cType="1" res="-4.5340129733085632e-01" rms="5.9542991220951080e-02" purity="3.5668781492859125e-03" nType="0">
            <Node pos="l" depth="3" NCoef="0" IVar="-1" Cut="0.0000000000000000e+00" cType="1" res="-8.3931401371955872e-02" rms="4.9494504928588867e-03" purity="0.0000000000000000e+00" nType="-99"/>
            <Node pos="r" depth="3" NCoef="0" IVar="-1" Cut="0.0000000000000000e+00" cType="1" res="-8.3147019147872925e-02" rms="8.4895767271518707e-02" purity="7.3127010837197304e-03" nType="-99"/>
          </Node>
        </Node>
        <Node pos="r" depth="1" NCoef="0" IVar="7" Cut="2.2995861816406250e+02" cType="1" res="-4.2401286959648132e-01" rms="1.7509344220161438e-01" purity="3.6092124879360199e-02" nType="0">
          <Node pos="l" depth="2" NCoef="0" IVar="8" Cut="1.1578393554687500e+02" cType="1" res="-2.7710855007171631e-01" rms="3.8995498418807983e-01" purity="2.0982705056667328e-01" nType="0">
            <Node pos="l" depth="3" NCoef="0" IVar="-1" Cut="0.0000000000000000e+00" cType="1" res="-1.7550531774759293e-02" rms="4.8720309138298035e-01" purity="4.2555561661720276e-01" nType="-99"/>
            <Node pos="r" depth="3" NCoef="0" IVar="-1" Cut="0.0000000000000000e+00" cType="1" res="-7.7955380082130432e-02" rms="1.9817179441452026e-01" purity="4.1351798921823502e-02" nType="-99"/>
          </Node>
          <Node pos="r" depth="2" NCoef="0" IVar="14" Cut="3.0904379487037659e-01" cType="1" res="-4.5437586307525635e-01" rms="1.3500280678272247e-02" purity="1.8365577852819115e-04" nType="0">
            <Node pos="l" depth="3" NCoef="0" IVar="-1" Cut="0.0000000000000000e+00" cType="1" res="-8.5145838558673859e-02" rms="3.8395952433347702e-02" purity="1.5110375825315714e-03" nType="-99"/>
            <Node pos="r" depth="3" NCoef="0" IVar="-1" Cut="0.0000000000000000e+00" cType="1" res="-8.4727689623832703e-02" rms="1.7904470441862941e-03" purity="0.0000000000000000e+00" nType="-99"/>
          </Node>
        </Node>
      </Node>
    </BinaryTree>
    <BinaryTree type="DecisionTree" boostWeight="1.0000000000000000e+00" itree="2">
      <Node pos="s" depth="0" NCoef="0" IVar="7" Cut="1.9259233093261719e+02" cType="1" res="1.2227420229464769e-03" rms="4.3679943680763245e-01" purity="5.0199389457702637e-01" nType="0">
        <Node pos="l" depth="1" NCoef="0" IVar="0" Cut="1.7151077270507812e+02" cType="1" res="3.0271095037460327e-01" rms="3.2980251312255859e-01" purity="8.6342984437942505e-01" nType="0">
          <Node pos="l" depth="2" NCoef="0" IVar="8" Cut="8.6803550720214844e+01" cType="1" res="-1.3908372493460774e-03" rms="4.8063144087791443e-01" purity="5.3755128383636475e-01" nType="0">
            <Node pos="l" depth="3" NCoef="0" IVar="-1" Cut="0.0000000000000000e+00" cType="1" res="1.8027985468506813e-02" rms="4.6762984991073608e-01" purity="6.4834493398666382e-01" nType="-99"/>
            <Node pos="r" depth="3" NCoef="0" IVar="-1" Cut="0.0000000000000000e+00" cType="1" res="-3.2077435404062271e-02" rms="4.5471632480621338e-01" purity="3.4818154573440552e-01" nType="-99"/>
          </Node>
          <Node pos="r" depth="2" NCoef="0" IVar="1" Cut="1.0035771942138672e+02" cType="1" res="3.5684210062026978e-01" rms="2.6003757119178772e-01" purity="9.2143732309341431e-01" nType="0">
            <Node pos="l" depth="3" NCoef="0" IVar="-1" Cut="0.0000000000000000e+00" cType="1" res="1.7679600045084953e-02" rms="4.7608318924903870e-01" purity="6.1883389949798584e-01" nType="-99"/>
            <Node pos="r" depth="3" NCoef="0" IVar="-1" Cut="0.0000000000000000e+00" cType="1" res="7.1779802441596985e-02" rms="2.2310289740562439e-01" purity="9.4476866722106934e-01" nType="-99"/>
          </Node>
        </Node>
        <Node pos="r" depth="1" NCoef="0" IVar="8" Cut="1.1779439544677734e+02" cType="1" res="-3.3661529421806335e-01" rms="2.5829932093620300e-01" purity="9.6980378031730652e-02" nType="0">
          <Node pos="l" depth="2" NCoef="0" IVar="7" Cut="2.3951869201660156e+02" cType="1" res="-1.9773072004318237e-01" rms="3.9707076549530029e-01" purity="2.7379778027534485e-01" nType="0">
            <Node pos="l" depth="3" NCoef="0" IVar="-1" Cut="0.0000000000000000e+00" cType="1" res="2.2686882875859737e-03" rms="4.6903079748153687e-01" purity="5.3851258754730225e-01" nType="-99"/>
            <Node pos="r" depth="3" NCoef="0" IVar="-1" Cut="0.0000000000000000e+00" cType="1" res="-7.8250795602798462e-02" rms="4.6889271587133408e-02" purity="2.2173868492245674e-03" nType="-99"/>
          </Node>
          <Node pos="r" depth="2" NCoef="0" IVar="10" Cut="1.0940571874380112e-01" cType="1" res="-4.1133826971054077e-01" rms="4.2729966342449188e-02" purity="1.8486995249986649e-03" nType="0">
            <Node pos="l" depth="3" NCoef="0" IVar="-1" Cut="0.0000000000000000e+00" cType="1" res="-7.8126750886440277e-02" rms="1.8354506464675069e-03" purity="0.0000000000000000e+00" nType="-99"/>
            <Node pos="r" depth="3" NCoef="0" IVar="-1" Cut="0.0000000000000000e+00" cType="1" res="-7.5778976082801819e-02" rms="1.3188807666301727e-01" purity="1.7922973260283470e-02" nType="-99"/>
          </Node>
        </Node>
      </Node>
    </BinaryTree>
    <BinaryTree type="DecisionTree" boostWeight="1.0000000000000000e+00" itree="3">
      <Node pos="s" depth="0" NCoef="0" IVar="8" Cut="9.9239173889160156e+01" cType="1" res="-9.3645084416493773e-04" rms="4.1076081991195679e-01" purity="4.9969372153282166e-01" nType="0">
        <Node pos="l" depth="1" NCoef="0" IVar="7" Cut="2.4151127624511719e+02" cType="1" res="2.1104328334331512e-01" rms="3.6616364121437073e-01" purity="7.7837711572647095e-01" nType="0">
          <Node pos="l" depth="2" NCoef="0" IVar="7" Cut="1.9801217651367188e+02" cType="1" res="2.6990103721618652e-01" rms="3.3059403300285339e-01" purity="8.5631585121154785e-01" nType="0">
            <Node pos="l" depth="3" NCoef="0" IVar="-1" Cut="0.0000000000000000e+00" cType="1" res="5.8285079896450043e-02" rms="2.9555585980415344e-01" purity="8.9394789934158325e-01" nType="-99"/>
            <Node pos="r" depth="3" NCoef="0" IVar="-1" Cut="0.0000000000000000e+00" cType="1" res="-2.1169781684875488e-02" rms="4.6305841207504272e-01" purity="4.0228125452995300e-01" nType="-99"/>
          </Node>
          <Node pos="r" depth="2" NCoef="0" IVar="12" Cut="-1.5116667747497559e-01" cType="1" res="-3.7375372648239136e-01" rms="6.2535189092159271e-02" purity="3.9959899149835110e-03" nType="0">
            <Node pos="l" depth="3" NCoef="0" IVar="-1" Cut="0.0000000000000000e+00" cType="1" res="-7.3034778237342834e-02" rms="3.5745771601796150e-03" purity="0.0000000000000000e+00" nType="-99"/>
            <Node pos="r" depth="3" NCoef="0" IVar="-1" Cut="0.0000000000000000e+00" cType="1" res="-7.2445228695869446e-02" rms="9.3322463333606720e-02" purity="8.9606698602437973e-03" nType="-99"/>
          </Node>
        </Node>
        <Node pos="r" depth="1" NCoef="0" IVar="10" Cut="1.3811519742012024e-01" cType="1" res="-3.4144246578216553e-01" rms="1.9041095674037933e-01" purity="5.2040625363588333e-02" nType="0">
          <Node pos="l" depth="2" NCoef="0" IVar="7" Cut="2.4127456665039062e+02" cType="1" res="-3.6813747882843018e-01" rms="1.1982562392950058e-01" purity="1.8487580120563507e-02" nType="0">
            <Node pos="l" depth="3" NCoef="0" IVar="-1" Cut="0.0000000000000000e+00" cType="1" res="-6.4439550042152405e-02" rms="2.7138403058052063e-01" purity="9.6373945474624634e-02" nType="-99"/>
            <Node pos="r" depth="3" NCoef="0" IVar="-1" Cut="0.0000000000000000e+00" cType="1" res="-7.3881573975086212e-02" rms="1.3310252688825130e-03" purity="0.0000000000000000e+00" nType="-99"/>
          </Node>
          <Node pos="r" depth="2" NCoef="0" IVar="-1" Cut="0.0000000000000000e+00" cType="1" res="-3.0577694997191429e-02" rms="3.8433647155761719e-01" purity="2.8121995925903320e-01" nType="-99"/>
        </Node>
      </Node>
    </BinaryTree>
    <BinaryTree type="DecisionTree" boostWeight="1.0000000000000000e+00" itree="4">
      <Node pos="s" depth="0" NCoef="0" IVar="8" Cut="1.1556058502197266e+02" cType="1" res="2.0122674759477377e-03" rms="3.8877347111701965e-01" purity="5.0378525257110596e-01" nType="0">
        <Node pos="l" depth="1" NCoef="0" IVar="7" Cut="2.1962820434570312e+02" cType="1" res="1.6249483823776245e-01" rms="3.7264597415924072e-01" purity="7.3718792200088501e-01" nType="0">
          <Node pos="l" depth="2" NCoef="0" IVar="0" Cut="1.6636926269531250e+02" cType="1" res="2.4464856088161469e-01" rms="3.3217516541481018e-01" purity="8.5363745689392090e-01" nType="0">
            <Node pos="l" depth="3" NCoef="0" IVar="-1" Cut="0.0000000000000000e+00" cType="1" res="-8.8527979096397758e-04" rms="4.7782683372497559e-01" purity="5.6383395195007324e-01" nType="-99"/>
            <Node pos="r" depth="3" NCoef="0" IVar="-1" Cut="0.0000000000000000e+00" cType="1" res="5.6115224957466125e-02" rms="2.8497630357742310e-01" purity="8.9813178777694702e-01" nType="-99"/>
          </Node>
          <Node pos="r" depth="2" NCoef="0" IVar="1" Cut="1.5321017456054688e+02" cType="1" res="-3.4589332342147827e-01" rms="1.2311941385269165e-01" purity="1.6568431630730629e-02" nType="0">
            <Node pos="l" depth="3" NCoef="0" IVar="-1" Cut="0.0000000000000000e+00" cType="1" res="-7.1519985795021057e-02" rms="6.9201245903968811e-02" purity="4.1781188920140266e-03" nType="-99"/>
            <Node pos="r" depth="3" NCoef="0" IVar="-1" Cut="0.0000000000000000e+00" cType="1" res="-6.6397823393344879e-02" rms="1.6633123159408569e-01" purity="3.2003171741962433e-02" nType="-99"/>
          </Node>
        </Node>
        <Node pos="r" depth="1" NCoef="0" IVar="7" Cut="2.3977590942382812e+02" cType="1" res="-3.4048771858215332e-01" rms="7.1278728544712067e-02" purity="5.6599504314363003e-03" nType="0">
          <Node pos="l" depth="2" NCoef="0" IVar="-1" Cut="0.0000000000000000e+00" cType="1" res="-6.4916782081127167e-02" rms="1.9233104586601257e-01" purity="4.1700579226016998e-02" nType="-99"/>
          <Node pos="r" depth="2" NCoef="0" IVar="10" Cut="7.9926438629627228e-02" cType="1" res="-3.4285044670104980e-01" rms="5.3080995567142963e-03" purity="0.0000000000000000e+00" nType="0">
            <Node pos="l" depth="3" NCoef="0" IVar="-1" Cut="0.0000000000000000e+00" cType="1" res="-7.0001594722270966e-02" rms="5.3529237629845738e-04" purity="0.0000000000000000e+00" nType="-99"/>
            <Node pos="r" depth="3" NCoef="0" IVar="-1" Cut="0.0000000000000000e+00" cType="1" res="-7.1449071168899536e-02" rms="9.9267326295375824e-03" purity="0.0000000000000000e+00" nType="-99"/>
          </Node>
        </Node>
      </Node>
    </BinaryTree>
    <BinaryTree type="DecisionTree" boostWeight="1.0000000000000000e+00" itree="5">
      <Node pos="s" depth="0" NCoef="0" IVar="7" Cut="1.9056066894531250e+02" cType="1" res="-2.9727853834629059e-03" rms="3.6903855204582214e-01" purity="4.9824148416519165e-01" nType="0">
        <Node pos="l" depth="1" NCoef="0" IVar="7" Cut="1.4055928039550781e+02" cType="1" res="2.2848202288150787e-01" rms="3.1581777334213257e-01" purity="8.6274290084838867e-01" nType="0">
          <Node pos="l" depth="2" NCoef="0" IVar="-1" Cut="0.0000000000000000e+00" cType="1" res="-4.4848591089248657e-02" rms="4.6483793854713440e-01" purity="3.6015233397483826e-01" nType="-99"/>
          <Node pos="r" depth="2" NCoef="0" IVar="8" Cut="1.0033773040771484e+02" cType="1" res="2.5478473305702209e-01" rms="2.8334844112396240e-01" purity="8.9142036437988281e-01" nType="0">
            <Node pos="l" depth="3" NCoef="0" IVar="-1" Cut="0.0000000000000000e+00" cType="1" res="5.6697282940149307e-02" rms="2.5540623068809509e-01" purity="9.2345523834228516e-01" nType="-99"/>
            <Node pos="r" depth="3" NCoef="0" IVar="-1" Cut="0.0000000000000000e+00" cType="1" res="-2.9629150405526161e-02" rms="4.2181429266929626e-01" purity="3.1486845016479492e-01" nType="-99"/>
          </Node>
        </Node>
        <Node pos="r" depth="1" NCoef="0" IVar="8" Cut="1.2210075378417969e+02" cType="1" res="-2.4756734073162079e-01" rms="2.4138794839382172e-01" purity="1.1304723471403122e-01" nType="0">
          <Node pos="l" depth="2" NCoef="0" IVar="7" Cut="2.4263092041015625e+02" cType="1" res="-1.4614048600196838e-01" rms="3.6279445886611938e-01" purity="2.8931915760040283e-01" nType="0">
            <Node pos="l" depth="3" NCoef="0" IVar="-1" Cut="0.0000000000000000e+00" cType="1" res="-1.2151066912338138e-03" rms="4.4406759738922119e-01" purity="5.2948158979415894e-01" nType="-99"/>
            <Node pos="r" depth="3" NCoef="0" IVar="-1" Cut="0.0000000000000000e+00" cType="1" res="-6.6663153469562531e-02" rms="3.8145087659358978e-02" purity="1.4336601598188281e-03" nType="-99"/>
          </Node>
          <Node pos="r" depth="2" NCoef="0" IVar="10" Cut="1.0002497583627701e-01" cType="1" res="-3.1210288405418396e-01" rms="2.9761001467704773e-02" purity="8.8956230320036411e-04" nType="0">
            <Node pos="l" depth="3" NCoef="0" IVar="-1" Cut="0.0000000000000000e+00" cType="1" res="-6.6790908575057983e-02" rms="1.4479008503258228e-02" purity="1.9984084065072238e-04" nType="-99"/>
            <Node pos="r" depth="3" NCoef="0" IVar="-1" Cut="0.0000000000000000e+00" cType="1" res="-6.7372031509876251e-02" rms="7.6071180403232574e-02" purity="5.9150974266231060e-03" nType="-99"/>
          </Node>
        </Node>
      </Node>
    </BinaryTree>
    <BinaryTree type="DecisionTree" boostWeight="1.0000000000000000e+00" itree="6">
      <Node pos="s" depth="0" NCoef="0" IVar="7" Cut="1.9201179504394531e+02" cType="1" res="-2.7966538909822702e-03" rms="3.5152649879455566e-01" purity="4.9877965450286865e-01" nType="0">
        <Node pos="l" depth="1" NCoef="0" IVar="7" Cut="1.4203005981445312e+02" cType="1" res="2.0487838983535767e-01" rms="3.1389927864074707e-01" purity="8.5892176628112793e-01" nType="0">
          <Node pos="l" depth="2" NCoef="0" IVar="-1" Cut="0.0000000000000000e+00" cType="1" res="-3.6276999861001968e-02" rms="4.6307903528213501e-01" purity="3.9045602083206177e-01" nType="-99"/>
          <Node pos="r" depth="2" NCoef="0" IVar="8" Cut="9.7336685180664062e+01" cType="1" res="2.3119480907917023e-01" rms="2.8235262632369995e-01" purity="8.9013421535491943e-01" nType="0">
            <Node pos="l" depth="3" NCoef="0" IVar="-1" Cut="0.0000000000000000e+00" cType="1" res="5.4137639701366425e-02" rms="2.5134894251823425e-01" purity="9.2716366052627563e-01" nType="-99"/>
            <Node pos="r" depth="3" NCoef="0" IVar="-1" Cut="0.0000000000000000e+00" cType="1" res="-1.2954280711710453e-02" rms="4.2900812625885010e-01" purity="4.4220501184463501e-01" nType="-99"/>
          </Node>
        </Node>
        <Node pos="r" depth="1" NCoef="0" IVar="8" Cut="1.1855757141113281e+02" cType="1" res="-2.3194502294063568e-01" rms="2.2605423629283905e-01" purity="1.0139922797679901e-01" nType="0">
          <Node pos="l" depth="2" NCoef="0" IVar="5" Cut="2.0122076416015625e+02" cType="1" res="-1.4009489119052887e-01" rms="3.5476312041282654e-01" purity="2.7766600251197815e-01" nType="0">
            <Node pos="l" depth="3" NCoef="0" IVar="-1" Cut="0.0000000000000000e+00" cType="1" res="-8.4740817546844482e-03" rms="4.2924976348876953e-01" purity="4.5868149399757385e-01" nType="-99"/>
            <Node pos="r" depth="3" NCoef="0" IVar="-1" Cut="0.0000000000000000e+00" cType="1" res="-6.4286582171916962e-02" rms="1.3702316209673882e-02" purity="0.0000000000000000e+00" nType="-99"/>
          </Node>
          <Node pos="r" depth="2" NCoef="0" IVar="6" Cut="8.1196853637695312e+01" cType="1" res="-2.8427878022193909e-01" rms="3.0994517728686333e-02" purity="9.6711795777082443e-04" nType="0">
            <Node pos="l" depth="3" NCoef="0" IVar="-1" Cut="0.0000000000000000e+00" cType="1" res="-6.3151508569717407e-02" rms="7.4937060475349426e-02" purity="5.8915000408887863e-03" nType="-99"/>
            <Node pos="r" depth="3" NCoef="0" IVar="-1" Cut="0.0000000000000000e+00" cType="1" res="-6.4553692936897278e-02" rms="1.5604033134877682e-02" purity="2.1149629901628941e-04" nType="-99"/>
          </Node>
        </Node>
      </Node>
    </BinaryTree>
    <BinaryTree type="DecisionTree" boostWeight="1.0000000000000000e+00" itree="7">
      <Node pos="s" depth="0" NCoef="0" IVar="7" Cut="1.9586552429199219e+02" cType="1" res="5.8473035460337996e-04" rms="3.3553740382194519e-01" purity="5.0253623723983765e-01" nType="0">
        <Node pos="l" depth="1" NCoef="0" IVar="0" Cut="1.9992712402343750e+02" cType="1" res="1.9289590418338776e-01" rms="3.0599519610404968e-01" purity="8.6332803964614868e-01" nType="0">
          <Node pos="l" depth="2" NCoef="0" IVar="8" Cut="9.0583618164062500e+01" cType="1" res="3.1987696886062622e-02" rms="4.2639529705047607e-01" purity="6.3818567991256714e-01" nType="0">
            <Node pos="l" depth="3" NCoef="0" IVar="-1" Cut="0.0000000000000000e+00" cType="1" res="1.9326036795973778e-02" rms="4.1070958971977234e-01" purity="7.3824006319046021e-01" nType="-99"/>
            <Node pos="r" depth="3" NCoef="0" IVar="-1" Cut="0.0000000000000000e+00" cType="1" res="-3.0592421069741249e-02" rms="4.1704601049423218e-01" purity="3.4851443767547607e-01" nType="-99"/>
          </Node>
          <Node pos="r" depth="2" NCoef="0" IVar="1" Cut="1.0221710968017578e+02" cType="1" res="2.4451038241386414e-01" rms="2.3319172859191895e-01" purity="9.3554693460464478e-01" nType="0">
            <Node pos="l" depth="3" NCoef="0" IVar="-1" Cut="0.0000000000000000e+00" cType="1" res="3.5502412356436253e-03" rms="4.6157732605934143e-01" purity="6.3780885934829712e-01" nType="-99"/>
            <Node pos="r" depth="3" NCoef="0" IVar="-1" Cut="0.0000000000000000e+00" cType="1" res="5.7993568480014801e-02" rms="1.9719512760639191e-01" purity="9.5713824033737183e-01" nType="-99"/>
          </Node>
        </Node>
        <Node pos="r" depth="1" NCoef="0" IVar="8" Cut="1.1610015869140625e+02" cType="1" res="-2.3016458749771118e-01" rms="1.9417724013328552e-01" purity="6.9631159305572510e-02" nType="0">
          <Node pos="l" depth="2" NCoef="0" IVar="5" Cut="1.6470759582519531e+02" cType="1" res="-1.7121814191341400e-01" rms="3.2834333181381226e-01" purity="2.1193660795688629e-01" nType="0">
            <Node pos="l" depth="3" NCoef="0" IVar="-1" Cut="0.0000000000000000e+00" cType="1" res="-5.9380927123129368e-03" rms="4.4826656579971313e-01" purity="4.7679519653320312e-01" nType="-99"/>
            <Node pos="r" depth="3" NCoef="0" IVar="-1" Cut="0.0000000000000000e+00" cType="1" res="-5.7574555277824402e-02" rms="1.7864432930946350e-01" purity="5.0776876509189606e-02" nType="-99"/>
          </Node>
          <Node pos="r" depth="2" NCoef="0" IVar="11" Cut="8.3929556608200073e-01" cType="1" res="-2.5817948579788208e-01" rms="4.4166512787342072e-02" purity="1.9990340806543827e-03" nType="0">
            <Node pos="l" depth="3" NCoef="0" IVar="-1" Cut="0.0000000000000000e+00" cType="1" res="-6.2025867402553558e-02" rms="3.2744988799095154e-02" purity="1.0706280590966344e-03" nType="-99"/>
            <Node pos="r" depth="3" NCoef="0" IVar="-1" Cut="0.0000000000000000e+00" cType="1" res="-6.0926835983991623e-02" rms="9.0828292071819305e-02" purity="8.6904363706707954e-03" nType="-99"/>
          </Node>
        </Node>
      </Node>
    </BinaryTree>
    <BinaryTree type="DecisionTree" boostWeight="1.0000000000000000e+00" itree="8">
      <Node pos="s" depth="0" NCoef="0" IVar="8" Cut="1.1598877716064453e+02" cType="1" res="-7.3693104786798358e-04" rms="3.2353240251541138e-01" purity="5.0349557399749756e-01" nType="0">
        <Node pos="l" depth="1" NCoef="0" IVar="7" Cut="2.3545207214355469e+02" cType="1" res="1.0703291743993759e-01" rms="3.3710315823554993e-01" purity="7.3244893550872803e-01" nType="0">
          <Node pos="l" depth="2" NCoef="0" IVar="1" Cut="1.1133943939208984e+02" cType="1" res="1.5342764556407928e-01" rms="3.3036935329437256e-01" purity="8.2805961370468140e-01" nType="0">
            <Node pos="l" depth="3" NCoef="0" IVar="-1" Cut="0.0000000000000000e+00" cType="1" res="-1.3981559313833714e-02" rms="4.5855402946472168e-01" purity="5.2552443742752075e-01" nType="-99"/>
            <Node pos="r" depth="3" NCoef="0" IVar="-1" Cut="0.0000000000000000e+00" cType="1" res="4.3682068586349487e-02" rms="2.8129827976226807e-01" purity="8.8433539867401123e-01" nType="-99"/>
          </Node>
          <Node pos="r" depth="2" NCoef="0" IVar="0" Cut="3.0339865112304688e+02" cType="1" res="-2.4429386854171753e-01" rms="8.9129678905010223e-02" purity="8.4311431273818016e-03" nType="0">
            <Node pos="l" depth="3" NCoef="0" IVar="-1" Cut="0.0000000000000000e+00" cType="1" res="-6.1586242169141769e-02" rms="5.6770175695419312e-02" purity="1.8938308348879218e-03" nType="-99"/>
            <Node pos="r" depth="3" NCoef="0" IVar="-1" Cut="0.0000000000000000e+00" cType="1" res="-5.8630701154470444e-02" rms="1.0072269290685654e-01" purity="1.1710918508470058e-02" nType="-99"/>
          </Node>
        </Node>
        <Node pos="r" depth="1" NCoef="0" IVar="16" Cut="1.6797455027699471e-02" cType="1" res="-2.3493860661983490e-01" rms="7.1412838995456696e-02" purity="5.9420606121420860e-03" nType="0">
          <Node pos="l" depth="2" NCoef="0" IVar="-1" Cut="0.0000000000000000e+00" cType="1" res="-5.6257683783769608e-02" rms="1.2349050492048264e-01" purity="2.0179472863674164e-02" nType="-99"/>
          <Node pos="r" depth="2" NCoef="0" IVar="15" Cut="1.5664042904973030e-02" cType="1" res="-2.3691354691982269e-01" rms="6.0192082077264786e-02" purity="3.9145965129137039e-03" nType="0">
            <Node pos="l" depth="3" NCoef="0" IVar="-1" Cut="0.0000000000000000e+00" cType="1" res="-5.8582570403814316e-02" rms="8.5301712155342102e-02" purity="9.0131685137748718e-03" nType="-99"/>
            <Node pos="r" depth="3" NCoef="0" IVar="-1" Cut="0.0000000000000000e+00" cType="1" res="-6.0154147446155548e-02" rms="5.0639282912015915e-02" purity="2.4590005632489920e-03" nType="-99"/>
          </Node>
        </Node>
      </Node>
    </BinaryTree>
    <BinaryTree type="DecisionTree" boostWeight="1.0000000000000000e+00" itree="9">
      <Node pos="s" depth="0" NCoef="0" IVar="8" Cut="1.1556058502197266e+02" cType="1" res="2.3212323430925608e-03" rms="3.0942964553833008e-01" purity="5.0622260570526123e-01" nType="0">
        <Node pos="l" depth="1" NCoef="0" IVar="7" Cut="2.3071820068359375e+02" cType="1" res="1.0409475117921829e-01" rms="3.2543548941612244e-01" purity="7.4156761169433594e-01" nType="0">
          <Node pos="l" depth="2" NCoef="0" IVar="1" Cut="1.0121316528320312e+02" cType="1" res="1.4973691105842590e-01" rms="3.1984522938728333e-01" purity="8.4201669692993164e-01" nType="0">
            <Node pos="l" depth="3" NCoef="0" IVar="-1" Cut="0.0000000000000000e+00" cType="1" res="-1.5579754486680031e-02" rms="4.6379759907722473e-01" purity="4.9839204549789429e-01" nType="-99"/>
            <Node pos="r" depth="3" NCoef="0" IVar="-1" Cut="0.0000000000000000e+00" cType="1" res="4.0861651301383972e-02" rms="2.8489190340042114e-01" purity="8.8398212194442749e-01" nType="-99"/>
          </Node>
          <Node pos="r" depth="2" NCoef="0" IVar="5" Cut="2.1474424743652344e+02" cType="1" res="-2.3057174682617188e-01" rms="7.1285754442214966e-02" purity="5.0346935167908669e-03" nType="0">
            <Node pos="l" depth="3" NCoef="0" IVar="-1" Cut="0.0000000000000000e+00" cType="1" res="-5.9977773576974869e-02" rms="1.1824458092451096e-01" purity="1.4715950004756451e-02" nType="-99"/>
            <Node pos="r" depth="3" NCoef="0" IVar="-1" Cut="0.0000000000000000e+00" cType="1" res="-5.9332370758056641e-02" rms="5.6785973720252514e-03" purity="0.0000000000000000e+00" nType="-99"/>
          </Node>
        </Node>
        <Node pos="r" depth="1" NCoef="0" IVar="10" Cut="1.2097703665494919e-01" cType="1" res="-2.1369545161724091e-01" rms="7.4368074536323547e-02" purity="6.6973133943974972e-03" nType="0">
          <Node pos="l" depth="2" NCoef="0" IVar="7" Cut="2.4805632019042969e+02" cType="1" res="-2.1606943011283875e-01" rms="4.8615239560604095e-02" purity="2.4742733221501112e-03" nType="0">
            <Node pos="l" depth="3" NCoef="0" IVar="-1" Cut="0.0000000000000000e+00" cType="1" res="-5.7265363633632660e-02" rms="1.2079109996557236e-01" purity="1.5460411086678505e-02" nType="-99"/>
            <Node pos="r" depth="3" NCoef="0" IVar="-1" Cut="0.0000000000000000e+00" cType="1" res="-5.8391600847244263e-02" rms="9.1537903062999249e-04" purity="0.0000000000000000e+00" nType="-99"/>
          </Node>
          <Node pos="r" depth="2" NCoef="0" IVar="-1" Cut="0.0000000000000000e+00" cType="1" res="-4.9902886152267456e-02" rms="1.8336398899555206e-01" purity="4.4835004955530167e-02" nType="-99"/>
        </Node>
      </Node>
    </BinaryTree>
    <BinaryTree type="DecisionTree" boostWeight="1.0000000000000000e+00" itree="10">
      <Node pos="s" depth="0" NCoef="0" IVar="7" Cut="1.9223324584960938e+02" cType="1" res="-4.7047445550560951e-03" rms="2.9965272545814514e-01" purity="4.9465572834014893e-01" nType="0">
        <Node pos="l" depth="1" NCoef="0" IVar="0" Cut="1.7707371520996094e+02" cType="1" res="1.4443045854568481e-01" rms="2.9799902439117432e-01" purity="8.5986417531967163e-01" nType="0">
          <Node pos="l" depth="2" NCoef="0" IVar="6" Cut="8.2793899536132812e+01" cType="1" res="-3.2613214105367661e-02" rms="4.3196749687194824e-01" purity="5.6374275684356689e-01" nType="0">
            <Node pos="l" depth="3" NCoef="0" IVar="-1" Cut="0.0000000000000000e+00" cType="1" res="-3.4299694001674652e-02" rms="4.3270397186279297e-01" purity="3.9777383208274841e-01" nType="-99"/>
            <Node pos="r" depth="3" NCoef="0" IVar="-1" Cut="0.0000000000000000e+00" cType="1" res="1.3081479817628860e-02" rms="4.0491628646850586e-01" purity="6.7862099409103394e-01" nType="-99"/>
          </Node>
          <Node pos="r" depth="2" NCoef="0" IVar="8" Cut="6.6147697448730469e+01" cType="1" res="1.8128073215484619e-01" rms="2.4610286951065063e-01" purity="9.2149955034255981e-01" nType="0">
            <Node pos="l" depth="3" NCoef="0" IVar="-1" Cut="0.0000000000000000e+00" cType="1" res="1.7314405413344502e-03" rms="4.3541643023490906e-01" purity="6.7627066373825073e-01" nType="-99"/>
            <Node pos="r" depth="3" NCoef="0" IVar="-1" Cut="0.0000000000000000e+00" cType="1" res="4.9852132797241211e-02" rms="2.1040113270282745e-01" purity="9.4616550207138062e-01" nType="-99"/>
          </Node>
        </Node>
        <Node pos="r" depth="1" NCoef="0" IVar="8" Cut="1.0620974731445312e+02" cType="1" res="-1.6777570545673370e-01" rms="1.9990165531635284e-01" purity="9.5320776104927063e-02" nType="0">
          <Node pos="l" depth="2" NCoef="0" IVar="1" Cut="1.5599629211425781e+02" cType="1" res="-9.9718555808067322e-02" rms="3.3347201347351074e-01" purity="2.9656332731246948e-01" nType="0">
            <Node pos="l" depth="3" NCoef="0" IVar="-1" Cut="0.0000000000000000e+00" cType="1" res="-4.5897569507360458e-02" rms="2.8966110944747925e-01" purity="1.5822775661945343e-01" nType="-99"/>
            <Node pos="r" depth="3" NCoef="0" IVar="-1" Cut="0.0000000000000000e+00" cType="1" res="6.6950968466699123e-03" rms="3.4200200438499451e-01" purity="4.7603899240493774e-01" nType="-99"/>
          </Node>
          <Node pos="r" depth="2" NCoef="0" IVar="1" Cut="1.5632228088378906e+02" cType="1" res="-1.9696788489818573e-01" rms="8.1012830138206482e-02" purity="9.0005388483405113e-03" nType="0">
            <Node pos="l" depth="3" NCoef="0" IVar="-1" Cut="0.0000000000000000e+00" cType="1" res="-5.8135513216257095e-02" rms="9.1363847255706787e-02" purity="6.2189875170588493e-03" nType="-99"/>
            <Node pos="r" depth="3" NCoef="0" IVar="-1" Cut="0.0000000000000000e+00" cType="1" res="-5.5904284119606018e-02" rms="7.8631721436977386e-02" purity="9.5466002821922302e-03" nType="-99"/>
          </Node>
        </Node>
      </Node>
    </BinaryTree>
    <BinaryTree type="DecisionTree" boostWeight="1.0000000000000000e+00" itree="11">
      <Node pos="s" depth="0" NCoef="0" IVar="8" Cut="1.1774977111816406e+02" cType="1" res="3.3192147384397686e-04" rms="2.8998979926109314e-01" purity="5.0426572561264038e-01" nType="0">
        <Node pos="l" depth="1" NCoef="0" IVar="7" Cut="2.4281729125976562e+02" cType="1" res="8.2210242748260498e-02" rms="3.1513464450836182e-01" purity="7.3291599750518799e-01" nType="0">
          <Node pos="l" depth="2" NCoef="0" IVar="7" Cut="2.0807798767089844e+02" cType="1" res="1.1700985580682755e-01" rms="3.1754666566848755e-01" purity="8.2614284753799438e-01" nType="0">
            <Node pos="l" depth="3" NCoef="0" IVar="-1" Cut="0.0000000000000000e+00" cType="1" res="3.3312711864709854e-02" rms="3.0268758535385132e-01" purity="8.6373418569564819e-01" nType="-99"/>
            <Node pos="r" depth="3" NCoef="0" IVar="-1" Cut="0.0000000000000000e+00" cType="1" res="-4.9062591046094894e-02" rms="3.4639599919319153e-01" purity="1.6476924717426300e-01" nType="-99"/>
          </Node>
          <Node pos="r" depth="2" NCoef="0" IVar="1" Cut="1.6246800231933594e+02" cType="1" res="-1.8994075059890747e-01" rms="6.1955038458108902e-02" purity="3.8337528239935637e-03" nType="0">
            <Node pos="l" depth="3" NCoef="0" IVar="-1" Cut="0.0000000000000000e+00" cType="1" res="-5.5561222136020660e-02" rms="5.8978930115699768e-02" purity="3.4859485458582640e-03" nType="-99"/>
            <Node pos="r" depth="3" NCoef="0" IVar="-1" Cut="0.0000000000000000e+00" cType="1" res="-5.6545451283454895e-02" rms="6.6397167742252350e-02" purity="4.4642039574682713e-03" nType="-99"/>
          </Node>
        </Node>
        <Node pos="r" depth="1" NCoef="0" IVar="10" Cut="1.2034814059734344e-01" cType="1" res="-1.7848387360572815e-01" rms="6.5175279974937439e-02" purity="4.9115442670881748e-03" nType="0">
          <Node pos="l" depth="2" NCoef="0" IVar="7" Cut="2.5088897705078125e+02" cType="1" res="-1.7938129603862762e-01" rms="4.6890839934349060e-02" purity="2.3519669193774462e-03" nType="0">
            <Node pos="l" depth="3" NCoef="0" IVar="-1" Cut="0.0000000000000000e+00" cType="1" res="-5.4287809878587723e-02" rms="1.1732014268636703e-01" purity="1.4820671640336514e-02" nType="-99"/>
            <Node pos="r" depth="3" NCoef="0" IVar="-1" Cut="0.0000000000000000e+00" cType="1" res="-5.5886637419462204e-02" rms="5.2301696268841624e-04" purity="0.0000000000000000e+00" nType="-99"/>
          </Node>
          <Node pos="r" depth="2" NCoef="0" IVar="-1" Cut="0.0000000000000000e+00" cType="1" res="-4.9899742007255554e-02" rms="1.5795971453189850e-01" purity="3.0886946246027946e-02" nType="-99"/>
        </Node>
      </Node>
    </BinaryTree>
    <BinaryTree type="DecisionTree" boostWeight="1.0000000000000000e+00" itree="12">
      <Node pos="s" depth="0" NCoef="0" IVar="7" Cut="1.9359503173828125e+02" cType="1" res="3.3297869376838207e-03" rms="2.8182849287986755e-01" purity="5.0708079338073730e-01" nType="0">
        <Node pos="l" depth="1" NCoef="0" IVar="7" Cut="1.4301142883300781e+02" cType="1" res="1.2793983519077301e-01" rms="2.8949764370918274e-01" purity="8.6829888820648193e-01" nType="0">
          <Node pos="l" depth="2" NCoef="0" IVar="-1" Cut="0.0000000000000000e+00" cType="1" res="-3.1683497130870819e-02" rms="4.5653867721557617e-01" purity="4.6266800165176392e-01" nType="-99"/>
          <Node pos="r" depth="2" NCoef="0" IVar="8" Cut="6.3671417236328125e+01" cType="1" res="1.4689847826957703e-01" rms="2.6412332057952881e-01" purity="8.9523792266845703e-01" nType="0">
            <Node pos="l" depth="3" NCoef="0" IVar="-1" Cut="0.0000000000000000e+00" cType="1" res="-1.8500773236155510e-02" rms="4.6664196252822876e-01" purity="5.8836430311203003e-01" nType="-99"/>
            <Node pos="r" depth="3" NCoef="0" IVar="-1" Cut="0.0000000000000000e+00" cType="1" res="4.1752438992261887e-02" rms="2.4181264638900757e-01" purity="9.1213256120681763e-01" nType="-99"/>
          </Node>
        </Node>
        <Node pos="r" depth="1" NCoef="0" IVar="10" Cut="1.3879714906215668e-01" cType="1" res="-1.4094977080821991e-01" rms="1.8857042491436005e-01" purity="8.8844962418079376e-02" nType="0">
          <Node pos="l" depth="2" NCoef="0" IVar="2" Cut="1.2675744056701660e+01" cType="1" res="-1.6184642910957336e-01" rms="1.2206257879734039e-01" purity="2.7863984927535057e-02" nType="0">
            <Node pos="l" depth="3" NCoef="0" IVar="-1" Cut="0.0000000000000000e+00" cType="1" res="-5.4739370942115784e-02" rms="9.9057681858539581e-02" purity="1.4838892966508865e-02" nType="-99"/>
            <Node pos="r" depth="3" NCoef="0" IVar="-1" Cut="0.0000000000000000e+00" cType="1" res="-4.8552691936492920e-02" rms="1.3868591189384460e-01" purity="3.9328280836343765e-02" nType="-99"/>
          </Node>
          <Node pos="r" depth="2" NCoef="0" IVar="7" Cut="2.6458917236328125e+02" cType="1" res="-8.6739100515842438e-02" rms="2.9168942570686340e-01" purity="2.4704357981681824e-01" nType="0">
            <Node pos="l" depth="3" NCoef="0" IVar="-1" Cut="0.0000000000000000e+00" cType="1" res="-2.8294738149270415e-04" rms="3.8840332627296448e-01" purity="4.8325893282890320e-01" nType="-99"/>
            <Node pos="r" depth="3" NCoef="0" IVar="-1" Cut="0.0000000000000000e+00" cType="1" res="-5.5376969277858734e-02" rms="3.2273937016725540e-02" purity="9.7009510500356555e-04" nType="-99"/>
          </Node>
        </Node>
      </Node>
    </BinaryTree>
    <BinaryTree type="DecisionTree" boostWeight="1.0000000000000000e+00" itree="13">
      <Node pos="s" depth="0" NCoef="0" IVar="7" Cut="1.9359503173828125e+02" cType="1" res="-7.8280532034114003e-04" rms="2.7799099683761597e-01" purity="5.0490486621856689e-01" nType="0">
        <Node pos="l" depth="1" NCoef="0" IVar="0" Cut="1.9895568847656250e+02" cType="1" res="1.1036955565214157e-01" rms="2.9397380352020264e-01" purity="8.6108154058456421e-01" nType="0">
          <Node pos="l" depth="2" NCoef="0" IVar="8" Cut="9.0583618164062500e+01" cType="1" res="-1.6332095488905907e-02" rms="4.1283890604972839e-01" purity="6.3327872753143311e-01" nType="0">
            <Node pos="l" depth="3" NCoef="0" IVar="-1" Cut="0.0000000000000000e+00" cType="1" res="9.9950302392244339e-03" rms="3.9650076627731323e-01" purity="7.4335879087448120e-01" nType="-99"/>
            <Node pos="r" depth="3" NCoef="0" IVar="-1" Cut="0.0000000000000000e+00" cType="1" res="-3.9470601826906204e-02" rms="4.0931722521781921e-01" purity="3.2106435298919678e-01" nType="-99"/>
          </Node>
          <Node pos="r" depth="2" NCoef="0" IVar="1" Cut="1.2103535461425781e+02" cType="1" res="1.5229883790016174e-01" rms="2.2703939676284790e-01" purity="9.3646818399429321e-01" nType="0">
            <Node pos="l" depth="3" NCoef="0" IVar="-1" Cut="0.0000000000000000e+00" cType="1" res="1.1871150694787502e-02" rms="4.0642130374908447e-01" purity="7.5389474630355835e-01" nType="-99"/>
            <Node pos="r" depth="3" NCoef="0" IVar="-1" Cut="0.0000000000000000e+00" cType="1" res="4.9088884145021439e-02" rms="1.7867523431777954e-01" purity="9.6508252620697021e-01" nType="-99"/>
          </Node>
        </Node>
        <Node pos="r" depth="1" NCoef="0" IVar="5" Cut="1.5707522583007812e+02" cType="1" res="-1.3100516796112061e-01" rms="1.8744759261608124e-01" purity="8.7620265781879425e-02" nType="0">
          <Node pos="l" depth="2" NCoef="0" IVar="10" Cut="1.4214387536048889e-01" cType="1" res="-8.7097652256488800e-02" rms="2.7760303020477295e-01" purity="2.1575322747230530e-01" nType="0">
            <Node pos="l" depth="3" NCoef="0" IVar="-1" Cut="0.0000000000000000e+00" cType="1" res="-4.2827103286981583e-02" rms="1.9808965921401978e-01" purity="7.7447175979614258e-02" nType="-99"/>
            <Node pos="r" depth="3" NCoef="0" IVar="-1" Cut="0.0000000000000000e+00" cType="1" res="1.1455867439508438e-02" rms="3.8794985413551331e-01" purity="5.8305501937866211e-01" nType="-99"/>
          </Node>
          <Node pos="r" depth="2" NCoef="0" IVar="6" Cut="7.4117515563964844e+01" cType="1" res="-1.5119180083274841e-01" rms="1.2069279700517654e-01" purity="2.8710722923278809e-02" nType="0">
            <Node pos="l" depth="3" NCoef="0" IVar="-1" Cut="0.0000000000000000e+00" cType="1" res="-3.4994050860404968e-02" rms="2.0221206545829773e-01" purity="1.0499559342861176e-01" nType="-99"/>
            <Node pos="r" depth="3" NCoef="0" IVar="-1" Cut="0.0000000000000000e+00" cType="1" res="-5.2546493709087372e-02" rms="1.0240959376096725e-01" purity="1.7615770921111107e-02" nType="-99"/>
          </Node>
        </Node>
      </Node>
    </BinaryTree>
    <BinaryTree type="DecisionTree" boostWeight="1.0000000000000000e+00" itree="14">
      <Node pos="s" depth="0" NCoef="0" IVar="7" Cut="2.7085333251953125e+02" cType="1" res="-1.3459851033985615e-03" rms="2.7016964554786682e-01" purity="5.0105661153793335e-01" nType="0">
        <Node pos="l" depth="1" NCoef="0" IVar="7" Cut="2.1079985046386719e+02" cType="1" res="5.8818727731704712e-02" rms="3.0473175644874573e-01" purity="7.1982246637344360e-01" nType="0">
          <Node pos="l" depth="2" NCoef="0" IVar="8" Cut="6.1545372009277344e+01" cType="1" res="9.5790967345237732e-02" rms="3.0480569601058960e-01" purity="8.3174765110015869e-01" nType="0">
            <Node pos="l" depth="3" NCoef="0" IVar="-1" Cut="0.0000000000000000e+00" cType="1" res="-3.4364070743322372e-02" rms="4.6208003163337708e-01" purity="4.3883091211318970e-01" nType="-99"/>
            <Node pos="r" depth="3" NCoef="0" IVar="-1" Cut="0.0000000000000000e+00" cType="1" res="3.0543575063347816e-02" rms="2.8316277265548706e-01" purity="8.5710543394088745e-01" nType="-99"/>
          </Node>
          <Node pos="r" depth="2" NCoef="0" IVar="8" Cut="9.5980590820312500e+01" cType="1" res="-1.6481007635593414e-01" rms="1.8523207306861877e-01" purity="4.2836207896471024e-02" nType="0">
            <Node pos="l" depth="3" NCoef="0" IVar="-1" Cut="0.0000000000000000e+00" cType="1" res="-5.1858574151992798e-02" rms="2.4680612981319427e-01" purity="7.3077090084552765e-02" nType="-99"/>
            <Node pos="r" depth="3" NCoef="0" IVar="-1" Cut="0.0000000000000000e+00" cType="1" res="-4.8019804060459137e-02" rms="1.4750227332115173e-01" purity="3.0261268839240074e-02" nType="-99"/>
          </Node>
        </Node>
        <Node pos="r" depth="1" NCoef="0" IVar="10" Cut="1.2608502805233002e-01" cType="1" res="-1.3909025490283966e-01" rms="1.5486373566091061e-02" purity="2.0252967078704387e-04" nType="0">
          <Node pos="l" depth="2" NCoef="0" IVar="8" Cut="1.6004930114746094e+02" cType="1" res="-1.3710777461528778e-01" rms="3.5487411078065634e-03" purity="0.0000000000000000e+00" nType="0">
            <Node pos="l" depth="3" NCoef="0" IVar="-1" Cut="0.0000000000000000e+00" cType="1" res="-5.3447876125574112e-02" rms="6.9170831702649593e-03" purity="0.0000000000000000e+00" nType="-99"/>
            <Node pos="r" depth="3" NCoef="0" IVar="-1" Cut="0.0000000000000000e+00" cType="1" res="-5.3625285625457764e-02" rms="1.6070612473413348e-03" purity="0.0000000000000000e+00" nType="-99"/>
          </Node>
          <Node pos="r" depth="2" NCoef="0" IVar="1" Cut="1.6853883361816406e+02" cType="1" res="-1.4652529358863831e-01" rms="3.1969070434570312e-02" purity="9.6209184266626835e-04" nType="0">
            <Node pos="l" depth="3" NCoef="0" IVar="-1" Cut="0.0000000000000000e+00" cType="1" res="-5.2780859172344208e-02" rms="4.4887926429510117e-02" purity="1.9973330199718475e-03" nType="-99"/>
            <Node pos="r" depth="3" NCoef="0" IVar="-1" Cut="0.0000000000000000e+00" cType="1" res="-5.5022057145833969e-02" rms="7.0407390594482422e-03" purity="0.0000000000000000e+00" nType="-99"/>
          </Node>
        </Node>
      </Node>
    </BinaryTree>
    <BinaryTree type="DecisionTree" boostWeight="1.0000000000000000e+00" itree="15">
      <Node pos="s" depth="0" NCoef="0" IVar="8" Cut="1.1774977111816406e+02" cType="1" res="-2.2383651230484247e-03" rms="2.6528525352478027e-01" purity="5.0074172019958496e-01" nType="0">
        <Node pos="l" depth="1" NCoef="0" IVar="9" Cut="4.7573384642601013e-01" cType="1" res="5.5364944040775299e-02" rms="3.0060788989067078e-01" purity="7.2808724641799927e-01" nType="0">
          <Node pos="l" depth="2" NCoef="0" IVar="-1" Cut="0.0000000000000000e+00" cType="1" res="-5.7637117803096771e-02" rms="3.2079234719276428e-01" purity="2.3786227405071259e-01" nType="-99"/>
          <Node pos="r" depth="2" NCoef="0" IVar="7" Cut="2.4151127624511719e+02" cType="1" res="7.3847375810146332e-02" rms="2.9017210006713867e-01" purity="7.6185083389282227e-01" nType="0">
            <Node pos="l" depth="3" NCoef="0" IVar="-1" Cut="0.0000000000000000e+00" cType="1" res="2.6075812056660652e-02" rms="2.9634982347488403e-01" purity="8.4390616416931152e-01" nType="-99"/>
            <Node pos="r" depth="3" NCoef="0" IVar="-1" Cut="0.0000000000000000e+00" cType="1" res="-5.1918394863605499e-02" rms="4.5040443539619446e-02" purity="1.9517039181664586e-03" nType="-99"/>
          </Node>
        </Node>
        <Node pos="r" depth="1" NCoef="0" IVar="7" Cut="2.4737364196777344e+02" cType="1" res="-1.2813532352447510e-01" rms="5.9890110045671463e-02" purity="3.8586633745580912e-03" nType="0">
          <Node pos="l" depth="2" NCoef="0" IVar="-1" Cut="0.0000000000000000e+00" cType="1" res="-4.8017095774412155e-02" rms="1.5927025675773621e-01" purity="2.7712859213352203e-02" nType="-99"/>
          <Node pos="r" depth="2" NCoef="0" IVar="8" Cut="2.1068023681640625e+02" cType="1" res="-1.2565481662750244e-01" rms="4.4118063524365425e-03" purity="0.0000000000000000e+00" nType="0">
            <Node pos="l" depth="3" NCoef="0" IVar="-1" Cut="0.0000000000000000e+00" cType="1" res="-5.2513815462589264e-02" rms="5.9192688204348087e-03" purity="0.0000000000000000e+00" nType="-99"/>
            <Node pos="r" depth="3" NCoef="0" IVar="-1" Cut="0.0000000000000000e+00" cType="1" res="-5.2469871938228607e-02" rms="2.2510096896439791e-03" purity="0.0000000000000000e+00" nType="-99"/>
          </Node>
        </Node>
      </Node>
    </BinaryTree>
    <BinaryTree type="DecisionTree" boostWeight="1.0000000000000000e+00" itree="16">
      <Node pos="s" depth="0" NCoef="0" IVar="7" Cut="1.9359503173828125e+02" cType="1" res="-3.1327540054917336e-03" rms="2.6011821627616882e-01" purity="4.9794182181358337e-01" nType="0">
        <Node pos="l" depth="1" NCoef="0" IVar="0" Cut="1.6747070312500000e+02" cType="1" res="8.5075184702873230e-02" rms="2.8813123703002930e-01" purity="8.6227798461914062e-01" nType="0">
          <Node pos="l" depth="2" NCoef="0" IVar="6" Cut="7.8498962402343750e+01" cType="1" res="-9.2529758810997009e-02" rms="4.2802125215530396e-01" purity="5.2387988567352295e-01" nType="0">
            <Node pos="l" depth="3" NCoef="0" IVar="-1" Cut="0.0000000000000000e+00" cType="1" res="-4.6827893704175949e-02" rms="4.1309508681297302e-01" purity="3.3926478028297424e-01" nType="-99"/>
            <Node pos="r" depth="3" NCoef="0" IVar="-1" Cut="0.0000000000000000e+00" cType="1" res="-1.3944157399237156e-03" rms="4.1430908441543579e-01" purity="6.3888990879058838e-01" nType="-99"/>
          </Node>
          <Node pos="r" depth="2" NCoef="0" IVar="8" Cut="6.4208396911621094e+01" cType="1" res="1.1430132389068604e-01" rms="2.4594509601593018e-01" purity="9.1796374320983887e-01" nType="0">
            <Node pos="l" depth="3" NCoef="0" IVar="-1" Cut="0.0000000000000000e+00" cType="1" res="-1.3727120123803616e-02" rms="4.5894122123718262e-01" purity="5.9943604469299316e-01" nType="-99"/>
            <Node pos="r" depth="3" NCoef="0" IVar="-1" Cut="0.0000000000000000e+00" cType="1" res="4.0632240474224091e-02" rms="2.1389754116535187e-01" purity="9.4344103336334229e-01" nType="-99"/>
          </Node>
        </Node>
        <Node pos="r" depth="1" NCoef="0" IVar="10" Cut="1.3879714906215668e-01" cType="1" res="-1.0356562584638596e-01" rms="1.7671760916709900e-01" purity="8.3111584186553955e-02" nType="0">
          <Node pos="l" depth="2" NCoef="0" IVar="2" Cut="2.0523921966552734e+01" cType="1" res="-1.1771399527788162e-01" rms="1.1815477907657623e-01" purity="2.5146722793579102e-02" nType="0">
            <Node pos="l" depth="3" NCoef="0" IVar="-1" Cut="0.0000000000000000e+00" cType="1" res="-4.9804355949163437e-02" rms="1.1306741833686829e-01" purity="2.0203649997711182e-02" nType="-99"/>
            <Node pos="r" depth="3" NCoef="0" IVar="-1" Cut="0.0000000000000000e+00" cType="1" res="-4.0700271725654602e-02" rms="1.3529282808303833e-01" purity="4.4781509786844254e-02" nType="-99"/>
          </Node>
          <Node pos="r" depth="2" NCoef="0" IVar="5" Cut="1.5012466430664062e+02" cType="1" res="-6.4712688326835632e-02" rms="2.7675110101699829e-01" purity="2.4228931963443756e-01" nType="0">
            <Node pos="l" depth="3" NCoef="0" IVar="-1" Cut="0.0000000000000000e+00" cType="1" res="1.3289458118379116e-02" rms="3.7751767039299011e-01" purity="6.1485654115676880e-01" nType="-99"/>
            <Node pos="r" depth="3" NCoef="0" IVar="-1" Cut="0.0000000000000000e+00" cType="1" res="-3.8176782429218292e-02" rms="2.0716890692710876e-01" purity="9.8360434174537659e-02" nType="-99"/>
          </Node>
        </Node>
      </Node>
    </BinaryTree>
    <BinaryTree type="DecisionTree" boostWeight="1.0000000000000000e+00" itree="17">
      <Node pos="s" depth="0" NCoef="0" IVar="7" Cut="1.9739463806152344e+02" cType="1" res="-3.5130511969327927e-03" rms="2.5775665044784546e-01" purity="4.9705156683921814e-01" nType="0">
        <Node pos="l" depth="1" NCoef="0" IVar="0" Cut="1.9992712402343750e+02" cType="1" res="7.5930006802082062e-02" rms="2.9287588596343994e-01" purity="8.5284751653671265e-01" nType="0">
          <Node pos="l" depth="2" NCoef="0" IVar="8" Cut="9.1456642150878906e+01" cType="1" res="-3.4389857202768326e-02" rms="4.0438312292098999e-01" purity="6.2416213750839233e-01" nType="0">
            <Node pos="l" depth="3" NCoef="0" IVar="-1" Cut="0.0000000000000000e+00" cType="1" res="3.6668393295258284e-03" rms="3.9238736033439636e-01" purity="7.3260051012039185e-01" nType="-99"/>
            <Node pos="r" depth="3" NCoef="0" IVar="-1" Cut="0.0000000000000000e+00" cType="1" res="-3.9712313562631607e-02" rms="4.0326991677284241e-01" purity="3.0230522155761719e-01" nType="-99"/>
          </Node>
          <Node pos="r" depth="2" NCoef="0" IVar="8" Cut="6.3558208465576172e+01" cType="1" res="1.1301363259553909e-01" rms="2.3275487124919891e-01" purity="9.2971926927566528e-01" nType="0">
            <Node pos="l" depth="3" NCoef="0" IVar="-1" Cut="0.0000000000000000e+00" cType="1" res="-1.0565773583948612e-02" rms="4.6551975607872009e-01" purity="6.0498887300491333e-01" nType="-99"/>
            <Node pos="r" depth="3" NCoef="0" IVar="-1" Cut="0.0000000000000000e+00" cType="1" res="4.1644215583801270e-02" rms="2.0234733819961548e-01" purity="9.5220679044723511e-01" nType="-99"/>
          </Node>
        </Node>
        <Node pos="r" depth="1" NCoef="0" IVar="1" Cut="1.5155715942382812e+02" cType="1" res="-1.0181263089179993e-01" rms="1.5823620557785034e-01" purity="5.6804168969392776e-02" nType="0">
          <Node pos="l" depth="2" NCoef="0" IVar="7" Cut="2.5155984497070312e+02" cType="1" res="-1.3445025682449341e-01" rms="1.9387823343276978e-01" purity="5.5885426700115204e-02" nType="0">
            <Node pos="l" depth="3" NCoef="0" IVar="-1" Cut="0.0000000000000000e+00" cType="1" res="-4.2996253818273544e-02" rms="2.9942366480827332e-01" purity="1.3706912100315094e-01" nType="-99"/>
            <Node pos="r" depth="3" NCoef="0" IVar="-1" Cut="0.0000000000000000e+00" cType="1" res="-5.1610995084047318e-02" rms="8.9432541280984879e-03" purity="0.0000000000000000e+00" nType="-99"/>
          </Node>
          <Node pos="r" depth="2" NCoef="0" IVar="10" Cut="2.6112917065620422e-01" cType="1" res="-9.0760745108127594e-02" rms="1.4249944686889648e-01" purity="5.7115279138088226e-02" nType="0">
            <Node pos="l" depth="3" NCoef="0" IVar="-1" Cut="0.0000000000000000e+00" cType="1" res="-4.5282609760761261e-02" rms="1.0913275927305222e-01" purity="2.7415193617343903e-02" nType="-99"/>
            <Node pos="r" depth="3" NCoef="0" IVar="-1" Cut="0.0000000000000000e+00" cType="1" res="2.7464682352729142e-04" rms="2.8185701370239258e-01" purity="2.9966378211975098e-01" nType="-99"/>
          </Node>
        </Node>
      </Node>
    </BinaryTree>
    <BinaryTree type="DecisionTree" boostWeight="1.0000000000000000e+00" itree="18">
      <Node pos="s" depth="0" NCoef="0" IVar="7" Cut="1.9214390563964844e+02" cType="1" res="1.2892887461930513e-03" rms="2.4701470136642456e-01" purity="5.0308012962341309e-01" nType="0">
        <Node pos="l" depth="1" NCoef="0" IVar="8" Cut="9.9894096374511719e+01" cType="1" res="7.5550794601440430e-02" rms="2.7499362826347351e-01" purity="8.6786162853240967e-01" nType="0">
          <Node pos="l" depth="2" NCoef="0" IVar="7" Cut="1.4153715515136719e+02" cType="1" res="9.0848147869110107e-02" rms="2.5985661149024963e-01" purity="9.0188390016555786e-01" nType="0">
            <Node pos="l" depth="3" NCoef="0" IVar="-1" Cut="0.0000000000000000e+00" cType="1" res="-3.4898880869150162e-02" rms="4.4974324107170105e-01" purity="4.2297318577766418e-01" nType="-99"/>
            <Node pos="r" depth="3" NCoef="0" IVar="-1" Cut="0.0000000000000000e+00" cType="1" res="3.5016652196645737e-02" rms="2.3511576652526855e-01" purity="9.2984563112258911e-01" nType="-99"/>
          </Node>
          <Node pos="r" depth="2" NCoef="0" IVar="-1" Cut="0.0000000000000000e+00" cType="1" res="-3.9863727986812592e-02" rms="3.7635117769241333e-01" purity="3.0541050434112549e-01" nType="-99"/>
        </Node>
        <Node pos="r" depth="1" NCoef="0" IVar="5" Cut="1.6082467651367188e+02" cType="1" res="-8.1608213484287262e-02" rms="1.7800131440162659e-01" purity="9.5877587795257568e-02" nType="0">
          <Node pos="l" depth="2" NCoef="0" IVar="10" Cut="1.2964448332786560e-01" cType="1" res="-4.9756113439798355e-02" rms="2.6393643021583557e-01" purity="2.3566024005413055e-01" nType="0">
            <Node pos="l" depth="3" NCoef="0" IVar="-1" Cut="0.0000000000000000e+00" cType="1" res="-3.5249650478363037e-02" rms="1.8610170483589172e-01" purity="7.7410362660884857e-02" nType="-99"/>
            <Node pos="r" depth="3" NCoef="0" IVar="-1" Cut="0.0000000000000000e+00" cType="1" res="9.0176193043589592e-03" rms="3.7023678421974182e-01" purity="5.9176421165466309e-01" nType="-99"/>
          </Node>
          <Node pos="r" depth="2" NCoef="0" IVar="6" Cut="9.5515892028808594e+01" cType="1" res="-9.8032742738723755e-02" rms="1.0634005069732666e-01" purity="2.3798679932951927e-02" nType="0">
            <Node pos="l" depth="3" NCoef="0" IVar="-1" Cut="0.0000000000000000e+00" cType="1" res="-3.2262522727251053e-02" rms="1.8420806527137756e-01" purity="8.6010836064815521e-02" nType="-99"/>
            <Node pos="r" depth="3" NCoef="0" IVar="-1" Cut="0.0000000000000000e+00" cType="1" res="-5.0349250435829163e-02" rms="6.5454587340354919e-02" purity="4.8521985299885273e-03" nType="-99"/>
          </Node>
        </Node>
      </Node>
    </BinaryTree>
    <BinaryTree type="DecisionTree" boostWeight="1.0000000000000000e+00" itree="19">
      <Node pos="s" depth="0" NCoef="0" IVar="10" Cut="1.4371611177921295e-01" cType="1" res="-3.7530541885644197e-03" rms="2.4999965727329254e-01" purity="5.0246846675872803e-01" nType="0">
        <Node pos="l" depth="1" NCoef="0" IVar="7" Cut="2.0641598510742188e+02" cType="1" res="-7.3629476130008698e-02" rms="2.2005562484264374e-01" purity="1.9195266067981720e-01" nType="0">
          <Node pos="l" depth="2" NCoef="0" IVar="8" Cut="9.4817176818847656e+01" cType="1" res="-2.3677214980125427e-02" rms="3.8564336299896240e-01" purity="6.3158327341079712e-01" nType="0">
            <Node pos="l" depth="3" NCoef="0" IVar="-1" Cut="0.0000000000000000e+00" cType="1" res="1.0459299199283123e-02" rms="3.7135410308837891e-01" purity="7.9423099756240845e-01" nType="-99"/>
            <Node pos="r" depth="3" NCoef="0" IVar="-1" Cut="0.0000000000000000e+00" cType="1" res="-3.8972117006778717e-02" rms="3.7894225120544434e-01" purity="2.7088710665702820e-01" nType="-99"/>
          </Node>
          <Node pos="r" depth="2" NCoef="0" IVar="7" Cut="3.0251281738281250e+02" cType="1" res="-9.4901397824287415e-02" rms="6.4797528088092804e-02" purity="4.7381347976624966e-03" nType="0">
            <Node pos="l" depth="3" NCoef="0" IVar="-1" Cut="0.0000000000000000e+00" cType="1" res="-4.8764921724796295e-02" rms="1.1254753917455673e-01" purity="1.4581126160919666e-02" nType="-99"/>
            <Node pos="r" depth="3" NCoef="0" IVar="-1" Cut="0.0000000000000000e+00" cType="1" res="-5.0605237483978271e-02" rms="3.3035643864423037e-03" purity="0.0000000000000000e+00" nType="-99"/>
          </Node>
        </Node>
        <Node pos="r" depth="1" NCoef="0" IVar="7" Cut="2.1248030090332031e+02" cType="1" res="5.3251158446073532e-02" rms="2.5835937261581421e-01" purity="7.5578290224075317e-01" nType="0">
          <Node pos="l" depth="2" NCoef="0" IVar="8" Cut="5.7863887786865234e+01" cType="1" res="8.5481315851211548e-02" rms="2.6241376996040344e-01" purity="8.9419692754745483e-01" nType="0">
            <Node pos="l" depth="3" NCoef="0" IVar="-1" Cut="0.0000000000000000e+00" cType="1" res="-4.9958828836679459e-02" rms="4.3037304282188416e-01" purity="2.9930314421653748e-01" nType="-99"/>
            <Node pos="r" depth="3" NCoef="0" IVar="-1" Cut="0.0000000000000000e+00" cType="1" res="3.5741973668336868e-02" rms="2.3437984287738800e-01" purity="9.2844367027282715e-01" nType="-99"/>
          </Node>
          <Node pos="r" depth="2" NCoef="0" IVar="0" Cut="3.5076596069335938e+02" cType="1" res="-1.1656656116247177e-01" rms="1.4599099755287170e-01" purity="2.6492690667510033e-02" nType="0">
            <Node pos="l" depth="3" NCoef="0" IVar="-1" Cut="0.0000000000000000e+00" cType="1" res="-5.3208980709314346e-02" rms="1.4800056815147400e-01" purity="2.1406712010502815e-02" nType="-99"/>
            <Node pos="r" depth="3" NCoef="0" IVar="-1" Cut="0.0000000000000000e+00" cType="1" res="-4.2551085352897644e-02" rms="1.4111794531345367e-01" purity="3.0189355835318565e-02" nType="-99"/>
          </Node>
        </Node>
      </Node>
    </BinaryTree>
    <BinaryTree type="DecisionTree" boostWeight="1.0000000000000000e+00" itree="20">
      <Node pos="s" depth="0" NCoef="0" IVar="7" Cut="1.9056066894531250e+02" cType="1" res="-5.9274147497490048e-04" rms="2.4468481540679932e-01" purity="5.0424605607986450e-01" nType="0">
        <Node pos="l" depth="1" NCoef="0" IVar="7" Cut="1.4055928039550781e+02" cType="1" res="6.0837753117084503e-02" rms="2.7685898542404175e-01" purity="8.6728245019912720e-01" nType="0">
          <Node pos="l" depth="2" NCoef="0" IVar="-1" Cut="0.0000000000000000e+00" cType="1" res="-3.7891793996095657e-02" rms="4.4360908865928650e-01" purity="3.8348525762557983e-01" nType="-99"/>
          <Node pos="r" depth="2" NCoef="0" IVar="8" Cut="9.5970336914062500e+01" cType="1" res="7.4184373021125793e-02" rms="2.5831344723701477e-01" purity="8.9308142662048340e-01" nType="0">
            <Node pos="l" depth="3" NCoef="0" IVar="-1" Cut="0.0000000000000000e+00" cType="1" res="3.1014464795589447e-02" rms="2.3890088498592377e-01" purity="9.2619729042053223e-01" nType="-99"/>
            <Node pos="r" depth="3" NCoef="0" IVar="-1" Cut="0.0000000000000000e+00" cType="1" res="-1.9695006310939789e-02" rms="3.9255672693252563e-01" purity="5.0481736660003662e-01" nType="-99"/>
          </Node>
        </Node>
        <Node pos="r" depth="1" NCoef="0" IVar="10" Cut="4.1017594933509827e-01" cType="1" res="-6.6848047077655792e-02" rms="1.8251746892929077e-01" purity="1.1269642412662506e-01" nType="0">
          <Node pos="l" depth="2" NCoef="0" IVar="10" Cut="1.3872455060482025e-01" cType="1" res="-7.5595267117023468e-02" rms="1.6525226831436157e-01" purity="8.1549517810344696e-02" nType="0">
            <Node pos="l" depth="3" NCoef="0" IVar="-1" Cut="0.0000000000000000e+00" cType="1" res="-4.2040221393108368e-02" rms="1.2677443027496338e-01" purity="3.2650049775838852e-02" nType="-99"/>
            <Node pos="r" depth="3" NCoef="0" IVar="-1" Cut="0.0000000000000000e+00" cType="1" res="-1.6336511820554733e-02" rms="2.6815769076347351e-01" purity="2.7910333871841431e-01" nType="-99"/>
          </Node>
          <Node pos="r" depth="2" NCoef="0" IVar="8" Cut="8.2328552246093750e+01" cType="1" res="8.7207864271476865e-04" rms="2.7316492795944214e-01" purity="3.5383290052413940e-01" nType="0">
            <Node pos="l" depth="3" NCoef="0" IVar="-1" Cut="0.0000000000000000e+00" cType="1" res="-5.0694186240434647e-02" rms="2.0342548191547394e-01" purity="8.1133067607879639e-02" nType="-99"/>
            <Node pos="r" depth="3" NCoef="0" IVar="-1" Cut="0.0000000000000000e+00" cType="1" res="3.5981826484203339e-02" rms="2.7116128802299500e-01" purity="5.9114748239517212e-01" nType="-99"/>
          </Node>
        </Node>
      </Node>
    </BinaryTree>
    <BinaryTree type="DecisionTree" boostWeight="1.0000000000000000e+00" itree="21">
      <Node pos="s" depth="0" NCoef="0" IVar="8" Cut="1.1077260589599609e+02" cType="1" res="-2.8818915598094463e-04" rms="2.4145242571830750e-01" purity="5.0459885597229004e-01" nType="0">
        <Node pos="l" depth="1" NCoef="0" IVar="8" Cut="5.6248298645019531e+01" cType="1" res="4.0169581770896912e-02" rms="2.7909851074218750e-01" purity="7.4851149320602417e-01" nType="0">
          <Node pos="l" depth="2" NCoef="0" IVar="-1" Cut="0.0000000000000000e+00" cType="1" res="-5.2923765033483505e-02" rms="3.5272988677024841e-01" purity="1.7610663175582886e-01" nType="-99"/>
          <Node pos="r" depth="2" NCoef="0" IVar="9" Cut="4.7569304704666138e-01" cType="1" res="5.3768750280141830e-02" rms="2.6784619688987732e-01" purity="7.7844148874282837e-01" nType="0">
            <Node pos="l" depth="3" NCoef="0" IVar="-1" Cut="0.0000000000000000e+00" cType="1" res="-5.5429168045520782e-02" rms="3.1626102328300476e-01" purity="2.5998273491859436e-01" nType="-99"/>
            <Node pos="r" depth="3" NCoef="0" IVar="-1" Cut="0.0000000000000000e+00" cType="1" res="2.2994261234998703e-02" rms="2.5859382748603821e-01" purity="8.0861759185791016e-01" nType="-99"/>
          </Node>
        </Node>
        <Node pos="r" depth="1" NCoef="0" IVar="7" Cut="2.6338583374023438e+02" cType="1" res="-8.2267656922340393e-02" rms="9.2483460903167725e-02" purity="1.0359520092606544e-02" nType="0">
          <Node pos="l" depth="2" NCoef="0" IVar="8" Cut="1.2772175598144531e+02" cType="1" res="-1.0353130102157593e-01" rms="1.9507905840873718e-01" purity="4.6942941844463348e-02" nType="0">
            <Node pos="l" depth="3" NCoef="0" IVar="-1" Cut="0.0000000000000000e+00" cType="1" res="-4.3640851974487305e-02" rms="2.7897143363952637e-01" purity="1.0090298205614090e-01" nType="-99"/>
            <Node pos="r" depth="3" NCoef="0" IVar="-1" Cut="0.0000000000000000e+00" cType="1" res="-4.2385604232549667e-02" rms="1.2399395555257797e-01" purity="1.8063794821500778e-02" nType="-99"/>
          </Node>
          <Node pos="r" depth="2" NCoef="0" IVar="8" Cut="1.9466914367675781e+02" cType="1" res="-7.6246313750743866e-02" rms="5.8718696236610413e-03" purity="0.0000000000000000e+00" nType="0">
            <Node pos="l" depth="3" NCoef="0" IVar="-1" Cut="0.0000000000000000e+00" cType="1" res="-4.9846842885017395e-02" rms="8.2612177357077599e-03" purity="0.0000000000000000e+00" nType="-99"/>
            <Node pos="r" depth="3" NCoef="0" IVar="-1" Cut="0.0000000000000000e+00" cType="1" res="-4.9954380840063095e-02" rms="3.5329894162714481e-03" purity="0.0000000000000000e+00" nType="-99"/>
          </Node>
        </Node>
      </Node>
    </BinaryTree>
    <BinaryTree type="DecisionTree" boostWeight="1.0000000000000000e+00" itree="22">
      <Node pos="s" depth="0" NCoef="0" IVar="8" Cut="1.0697073364257812e+02" cType="1" res="1.3637440861202776e-04" rms="2.3723752796649933e-01" purity="4.9772369861602783e-01" nType="0">
        <Node pos="l" depth="1" NCoef="0" IVar="7" Cut="2.0722113037109375e+02" cType="1" res="4.2114056646823883e-02" rms="2.7420136332511902e-01" purity="7.5531560182571411e-01" nType="0">
          <Node pos="l" depth="2" NCoef="0" IVar="8" Cut="5.9268249511718750e+01" cType="1" res="6.6505305469036102e-02" rms="2.7952212095260620e-01" purity="8.7750965356826782e-01" nType="0">
            <Node pos="l" depth="3" NCoef="0" IVar="-1" Cut="0.0000000000000000e+00" cType="1" res="-3.4991748631000519e-02" rms="4.4375458359718323e-01" purity="3.5474702715873718e-01" nType="-99"/>
            <Node pos="r" depth="3" NCoef="0" IVar="-1" Cut="0.0000000000000000e+00" cType="1" res="2.7399517595767975e-02" rms="2.6188012957572937e-01" purity="9.0482354164123535e-01" nType="-99"/>
          </Node>
          <Node pos="r" depth="2" NCoef="0" IVar="2" Cut="1.4819519996643066e+01" cType="1" res="-9.7244493663311005e-02" rms="1.8850293755531311e-01" purity="5.7164132595062256e-02" nType="0">
            <Node pos="l" depth="3" NCoef="0" IVar="-1" Cut="0.0000000000000000e+00" cType="1" res="-4.6119164675474167e-02" rms="1.9335950911045074e-01" purity="4.7186061739921570e-02" nType="-99"/>
            <Node pos="r" depth="3" NCoef="0" IVar="-1" Cut="0.0000000000000000e+00" cType="1" res="-3.0170226469635963e-02" rms="1.7934931814670563e-01" purity="6.6944196820259094e-02" nType="-99"/>
          </Node>
        </Node>
        <Node pos="r" depth="1" NCoef="0" IVar="7" Cut="2.4036047363281250e+02" cType="1" res="-7.8680813312530518e-02" rms="1.0613872855901718e-01" purity="1.4069896191358566e-02" nType="0">
          <Node pos="l" depth="2" NCoef="0" IVar="8" Cut="1.2570247650146484e+02" cType="1" res="-1.2021080404520035e-01" rms="2.5464305281639099e-01" purity="8.3962105214595795e-02" nType="0">
            <Node pos="l" depth="3" NCoef="0" IVar="-1" Cut="0.0000000000000000e+00" cType="1" res="-4.0384665131568909e-02" rms="3.4706330299377441e-01" purity="1.6563203930854797e-01" nType="-99"/>
            <Node pos="r" depth="3" NCoef="0" IVar="-1" Cut="0.0000000000000000e+00" cType="1" res="-4.3405544012784958e-02" rms="1.3532590866088867e-01" purity="1.9580341875553131e-02" nType="-99"/>
          </Node>
          <Node pos="r" depth="2" NCoef="0" IVar="10" Cut="1.0996093600988388e-01" cType="1" res="-7.0320472121238708e-02" rms="7.9178418964147568e-03" purity="0.0000000000000000e+00" nType="0">
            <Node pos="l" depth="3" NCoef="0" IVar="-1" Cut="0.0000000000000000e+00" cType="1" res="-4.9602162092924118e-02" rms="2.7234605513513088e-03" purity="0.0000000000000000e+00" nType="-99"/>
            <Node pos="r" depth="3" NCoef="0" IVar="-1" Cut="0.0000000000000000e+00" cType="1" res="-5.0689492374658585e-02" rms="1.6880191862583160e-02" purity="0.0000000000000000e+00" nType="-99"/>
          </Node>
        </Node>
      </Node>
    </BinaryTree>
    <BinaryTree type="DecisionTree" boostWeight="1.0000000000000000e+00" itree="23">
      <Node pos="s" depth="0" NCoef="0" IVar="10" Cut="1.4262597262859344e-01" cType="1" res="-8.5192790720611811e-05" rms="2.3265515267848969e-01" purity="4.9467328190803528e-01" nType="0">
        <Node pos="l" depth="1" NCoef="0" IVar="10" Cut="6.9575637578964233e-02" cType="1" res="-5.1722615957260132e-02" rms="2.1283657848834991e-01" purity="1.9545243680477142e-01" nType="0">
          <Node pos="l" depth="2" NCoef="0" IVar="0" Cut="1.4685667419433594e+02" cType="1" res="-7.0493735373020172e-02" rms="1.5005169808864594e-01" purity="6.0109831392765045e-02" nType="0">
            <Node pos="l" depth="3" NCoef="0" IVar="-1" Cut="0.0000000000000000e+00" cType="1" res="-5.0390377640724182e-02" rms="1.9109235703945160e-01" purity="5.9145707637071609e-02" nType="-99"/>
            <Node pos="r" depth="3" NCoef="0" IVar="-1" Cut="0.0000000000000000e+00" cType="1" res="-3.8523495197296143e-02" rms="1.3772648572921753e-01" purity="6.0325488448143005e-02" nType="-99"/>
          </Node>
          <Node pos="r" depth="2" NCoef="0" IVar="7" Cut="2.0036141967773438e+02" cType="1" res="-2.1042618900537491e-02" rms="2.8464156389236450e-01" purity="4.1665977239608765e-01" nType="0">
            <Node pos="l" depth="3" NCoef="0" IVar="-1" Cut="0.0000000000000000e+00" cType="1" res="7.3043149895966053e-03" rms="3.6020177602767944e-01" purity="7.6962858438491821e-01" nType="-99"/>
            <Node pos="r" depth="3" NCoef="0" IVar="-1" Cut="0.0000000000000000e+00" cType="1" res="-3.7589415907859802e-02" rms="1.5588805079460144e-01" purity="4.1049424558877945e-02" nType="-99"/>
          </Node>
        </Node>
        <Node pos="r" depth="1" NCoef="0" IVar="7" Cut="2.0743151855468750e+02" cType="1" res="4.5516058802604675e-02" rms="2.3977312445640564e-01" purity="7.5891667604446411e-01" nType="0">
          <Node pos="l" depth="2" NCoef="0" IVar="1" Cut="1.1168965911865234e+02" cType="1" res="7.1776315569877625e-02" rms="2.4277694523334503e-01" purity="9.0340554714202881e-01" nType="0">
            <Node pos="l" depth="3" NCoef="0" IVar="-1" Cut="0.0000000000000000e+00" cType="1" res="-2.5438366457819939e-02" rms="4.2671620845794678e-01" purity="4.6755006909370422e-01" nType="-99"/>
            <Node pos="r" depth="3" NCoef="0" IVar="-1" Cut="0.0000000000000000e+00" cType="1" res="3.5354964435100555e-02" rms="2.1089681982994080e-01" purity="9.4209820032119751e-01" nType="-99"/>
          </Node>
          <Node pos="r" depth="2" NCoef="0" IVar="1" Cut="1.5582385253906250e+02" cType="1" res="-8.2747250795364380e-02" rms="1.7490476369857788e-01" purity="5.3187504410743713e-02" nType="0">
            <Node pos="l" depth="3" NCoef="0" IVar="-1" Cut="0.0000000000000000e+00" cType="1" res="-5.2876871079206467e-02" rms="1.2875425815582275e-01" purity="1.2192515656352043e-02" nType="-99"/>
            <Node pos="r" depth="3" NCoef="0" IVar="-1" Cut="0.0000000000000000e+00" cType="1" res="-2.5656044483184814e-02" rms="2.0086736977100372e-01" purity="8.5425980389118195e-02" nType="-99"/>
          </Node>
        </Node>
      </Node>
    </BinaryTree>
    <BinaryTree type="DecisionTree" boostWeight="1.0000000000000000e+00" itree="24">
      <Node pos="s" depth="0" NCoef="0" IVar="7" Cut="1.9214390563964844e+02" cType="1" res="2.0387743134051561e-03" rms="2.2709214687347412e-01" purity="5.0368940830230713e-01" nType="0">
        <Node pos="l" depth="1" NCoef="0" IVar="0" Cut="1.6636926269531250e+02" cType="1" res="4.8513881862163544e-02" rms="2.6078101992607117e-01" purity="8.7183964252471924e-01" nType="0">
          <Node pos="l" depth="2" NCoef="0" IVar="5" Cut="8.5876899719238281e+01" cType="1" res="-8.2364521920681000e-02" rms="4.0114337205886841e-01" purity="5.3444015979766846e-01" nType="0">
            <Node pos="l" depth="3" NCoef="0" IVar="-1" Cut="0.0000000000000000e+00" cType="1" res="-4.3818525969982147e-02" rms="3.8854217529296875e-01" purity="3.3150452375411987e-01" nType="-99"/>
            <Node pos="r" depth="3" NCoef="0" IVar="-1" Cut="0.0000000000000000e+00" cType="1" res="-6.4195818267762661e-03" rms="3.9611971378326416e-01" purity="6.3971185684204102e-01" nType="-99"/>
          </Node>
          <Node pos="r" depth="2" NCoef="0" IVar="15" Cut="5.7470254600048065e-02" cType="1" res="7.0452846586704254e-02" rms="2.2153970599174500e-01" purity="9.2839741706848145e-01" nType="0">
            <Node pos="l" depth="3" NCoef="0" IVar="-1" Cut="0.0000000000000000e+00" cType="1" res="3.3129308372735977e-02" rms="2.0425476133823395e-01" purity="9.4076138734817505e-01" nType="-99"/>
            <Node pos="r" depth="3" NCoef="0" IVar="-1" Cut="0.0000000000000000e+00" cType="1" res="-1.2042479589581490e-02" rms="3.5522723197937012e-01" purity="7.7859866619110107e-01" nType="-99"/>
          </Node>
        </Node>
        <Node pos="r" depth="1" NCoef="0" IVar="10" Cut="4.1037988662719727e-01" cType="1" res="-4.9456909298896790e-02" rms="1.6826865077018738e-01" purity="9.5769010484218597e-02" nType="0">
          <Node pos="l" depth="2" NCoef="0" IVar="15" Cut="3.2716844230890274e-02" cType="1" res="-5.5754672735929489e-02" rms="1.5558944642543793e-01" purity="6.9890454411506653e-02" nType="0">
            <Node pos="l" depth="3" NCoef="0" IVar="-1" Cut="0.0000000000000000e+00" cType="1" res="-2.8053756803274155e-02" rms="1.4346228539943695e-01" purity="7.4475467205047607e-02" nType="-99"/>
            <Node pos="r" depth="3" NCoef="0" IVar="-1" Cut="0.0000000000000000e+00" cType="1" res="-3.7051919847726822e-02" rms="1.7113865911960602e-01" purity="6.3076250255107880e-02" nType="-99"/>
          </Node>
          <Node pos="r" depth="2" NCoef="0" IVar="-1" Cut="0.0000000000000000e+00" cType="1" res="1.5929932706058025e-03" rms="2.4514596164226532e-01" purity="3.1635954976081848e-01" nType="-99"/>
        </Node>
      </Node>
    </BinaryTree>
    <BinaryTree type="DecisionTree" boostWeight="1.0000000000000000e+00" itree="25">
      <Node pos="s" depth="0" NCoef="0" IVar="10" Cut="1.4283324778079987e-01" cType="1" res="1.7769087571650743e-03" rms="2.3038166761398315e-01" purity="5.0562256574630737e-01" nType="0">
        <Node pos="l" depth="1" NCoef="0" IVar="10" Cut="9.6198536455631256e-02" cType="1" res="-4.3041348457336426e-02" rms="2.1381430327892303e-01" purity="2.0181614160537720e-01" nType="0">
          <Node pos="l" depth="2" NCoef="0" IVar="2" Cut="1.1882294654846191e+01" cType="1" res="-5.6069493293762207e-02" rms="1.8316170573234558e-01" purity="1.1601389199495316e-01" nType="0">
            <Node pos="l" depth="3" NCoef="0" IVar="-1" Cut="0.0000000000000000e+00" cType="1" res="-3.9481393992900848e-02" rms="1.8709430098533630e-01" purity="9.9256262183189392e-02" nType="-99"/>
            <Node pos="r" depth="3" NCoef="0" IVar="-1" Cut="0.0000000000000000e+00" cType="1" res="-2.4119855836033821e-02" rms="1.7861409485340118e-01" purity="1.2956649065017700e-01" nType="-99"/>
          </Node>
          <Node pos="r" depth="2" NCoef="0" IVar="7" Cut="2.1284194946289062e+02" cType="1" res="5.7416730560362339e-03" rms="2.9709389805793762e-01" purity="5.2309703826904297e-01" nType="0">
            <Node pos="l" depth="3" NCoef="0" IVar="-1" Cut="0.0000000000000000e+00" cType="1" res="1.2994254007935524e-02" rms="3.5551688075065613e-01" purity="7.9035180807113647e-01" nType="-99"/>
            <Node pos="r" depth="3" NCoef="0" IVar="-1" Cut="0.0000000000000000e+00" cType="1" res="-4.5785456895828247e-02" rms="8.3166860044002533e-02" purity="8.6206980049610138e-03" nType="-99"/>
          </Node>
        </Node>
        <Node pos="r" depth="1" NCoef="0" IVar="7" Cut="2.0343153381347656e+02" cType="1" res="3.9718348532915115e-02" rms="2.3699298501014709e-01" purity="7.6281350851058960e-01" nType="0">
          <Node pos="l" depth="2" NCoef="0" IVar="1" Cut="1.0763346862792969e+02" cType="1" res="6.2970288097858429e-02" rms="2.3715814948081970e-01" purity="9.0954822301864624e-01" nType="0">
            <Node pos="l" depth="3" NCoef="0" IVar="-1" Cut="0.0000000000000000e+00" cType="1" res="-2.8708966448903084e-02" rms="4.3647924065589905e-01" purity="4.0793001651763916e-01" nType="-99"/>
            <Node pos="r" depth="3" NCoef="0" IVar="-1" Cut="0.0000000000000000e+00" cType="1" res="3.3100165426731110e-02" rms="2.1013590693473816e-01" purity="9.4348299503326416e-01" nType="-99"/>
          </Node>
          <Node pos="r" depth="2" NCoef="0" IVar="1" Cut="1.8116972351074219e+02" cType="1" res="-6.7700937390327454e-02" rms="2.0437045395374298e-01" purity="8.4928348660469055e-02" nType="0">
            <Node pos="l" depth="3" NCoef="0" IVar="-1" Cut="0.0000000000000000e+00" cType="1" res="-3.8397956639528275e-02" rms="2.0126827061176300e-01" purity="7.1766540408134460e-02" nType="-99"/>
            <Node pos="r" depth="3" NCoef="0" IVar="-1" Cut="0.0000000000000000e+00" cType="1" res="-1.5128342434763908e-02" rms="2.0475892722606659e-01" purity="1.0784593969583511e-01" nType="-99"/>
          </Node>
        </Node>
      </Node>
    </BinaryTree>
    <BinaryTree type="DecisionTree" boostWeight="1.0000000000000000e+00" itree="26">
      <Node pos="s" depth="0" NCoef="0" IVar="10" Cut="1.4194385707378387e-01" cType="1" res="-2.4553836556151509e-04" rms="2.2720307111740112e-01" purity="5.0136768817901611e-01" nType="0">
        <Node pos="l" depth="1" NCoef="0" IVar="10" Cut="1.2207852303981781e-01" cType="1" res="-4.3699186295270920e-02" rms="2.1025037765502930e-01" purity="1.9077867269515991e-01" nType="0">
          <Node pos="l" depth="2" NCoef="0" IVar="9" Cut="4.7567737102508545e-01" cType="1" res="-5.0618529319763184e-02" rms="2.0022226870059967e-01" purity="1.5037663280963898e-01" nType="0">
            <Node pos="l" depth="3" NCoef="0" IVar="-1" Cut="0.0000000000000000e+00" cType="1" res="-5.9312097728252411e-02" rms="1.7040944099426270e-01" purity="2.7773469686508179e-02" nType="-99"/>
            <Node pos="r" depth="3" NCoef="0" IVar="-1" Cut="0.0000000000000000e+00" cType="1" res="-2.3703943938016891e-02" rms="2.0259177684783936e-01" purity="1.6452153027057648e-01" nType="-99"/>
          </Node>
          <Node pos="r" depth="2" NCoef="0" IVar="-1" Cut="0.0000000000000000e+00" cType="1" res="9.4224344938993454e-03" rms="2.8301179409027100e-01" purity="5.9472560882568359e-01" nType="-99"/>
        </Node>
        <Node pos="r" depth="1" NCoef="0" IVar="9" Cut="4.7573384642601013e-01" cType="1" res="3.5900950431823730e-02" rms="2.3433502018451691e-01" purity="7.5972813367843628e-01" nType="0">
          <Node pos="l" depth="2" NCoef="0" IVar="-1" Cut="0.0000000000000000e+00" cType="1" res="-5.5203773081302643e-02" rms="2.8904968500137329e-01" purity="2.4610422551631927e-01" nType="-99"/>
          <Node pos="r" depth="2" NCoef="0" IVar="7" Cut="2.6174496459960938e+02" cType="1" res="4.6866167336702347e-02" rms="2.2599519789218903e-01" purity="7.9093652963638306e-01" nType="0">
            <Node pos="l" depth="3" NCoef="0" IVar="-1" Cut="0.0000000000000000e+00" cType="1" res="2.4258518591523170e-02" rms="2.3419630527496338e-01" purity="8.7658667564392090e-01" nType="-99"/>
            <Node pos="r" depth="3" NCoef="0" IVar="-1" Cut="0.0000000000000000e+00" cType="1" res="-4.9244981259107590e-02" rms="3.6901958286762238e-02" purity="1.2234454043209553e-03" nType="-99"/>
          </Node>
        </Node>
      </Node>
    </BinaryTree>
    <BinaryTree type="DecisionTree" boostWeight="1.0000000000000000e+00" itree="27">
      <Node pos="s" depth="0" NCoef="0" IVar="7" Cut="1.9214390563964844e+02" cType="1" res="-2.4093196261674166e-03" rms="2.2768756747245789e-01" purity="5.0227570533752441e-01" nType="0">
        <Node pos="l" depth="1" NCoef="0" IVar="7" Cut="1.4152766418457031e+02" cType="1" res="3.1358283013105392e-02" rms="2.6677393913269043e-01" purity="8.6596095561981201e-01" nType="0">
          <Node pos="l" depth="2" NCoef="0" IVar="-1" Cut="0.0000000000000000e+00" cType="1" res="-3.7492968142032623e-02" rms="4.2200642824172974e-01" purity="3.9858126640319824e-01" nType="-99"/>
          <Node pos="r" depth="2" NCoef="0" IVar="15" Cut="5.0722122192382812e-02" cType="1" res="4.3401956558227539e-02" rms="2.4956674873828888e-01" purity="8.9334136247634888e-01" nType="0">
            <Node pos="l" depth="3" NCoef="0" IVar="-1" Cut="0.0000000000000000e+00" cType="1" res="2.5193687528371811e-02" rms="2.2524835169315338e-01" purity="9.1470807790756226e-01" nType="-99"/>
            <Node pos="r" depth="3" NCoef="0" IVar="-1" Cut="0.0000000000000000e+00" cType="1" res="-2.0481722429394722e-02" rms="3.6746975779533386e-01" purity="7.3583287000656128e-01" nType="-99"/>
          </Node>
        </Node>
        <Node pos="r" depth="1" NCoef="0" IVar="1" Cut="1.5815991210937500e+02" cType="1" res="-4.0295071899890900e-02" rms="1.6566014289855957e-01" purity="9.4236940145492554e-02" nType="0">
          <Node pos="l" depth="2" NCoef="0" IVar="2" Cut="1.3761984825134277e+01" cType="1" res="-6.1846509575843811e-02" rms="2.1092994511127472e-01" purity="1.0995058715343475e-01" nType="0">
            <Node pos="l" depth="3" NCoef="0" IVar="-1" Cut="0.0000000000000000e+00" cType="1" res="-4.0783159434795380e-02" rms="2.0457535982131958e-01" purity="8.3241313695907593e-02" nType="-99"/>
            <Node pos="r" depth="3" NCoef="0" IVar="-1" Cut="0.0000000000000000e+00" cType="1" res="-1.8810823559761047e-02" rms="2.1355882287025452e-01" purity="1.3281704485416412e-01" nType="-99"/>
          </Node>
          <Node pos="r" depth="2" NCoef="0" IVar="10" Cut="1.3203176856040955e-01" cType="1" res="-3.1354948878288269e-02" rms="1.4176969230175018e-01" purity="8.7718501687049866e-02" nType="0">
            <Node pos="l" depth="3" NCoef="0" IVar="-1" Cut="0.0000000000000000e+00" cType="1" res="-3.9468642324209213e-02" rms="8.3018504083156586e-02" purity="1.5763811767101288e-02" nType="-99"/>
            <Node pos="r" depth="3" NCoef="0" IVar="-1" Cut="0.0000000000000000e+00" cType="1" res="6.1112758703529835e-03" rms="2.4738457798957825e-01" purity="3.2736366987228394e-01" nType="-99"/>
          </Node>
        </Node>
      </Node>
    </BinaryTree>
    <BinaryTree type="DecisionTree" boostWeight="1.0000000000000000e+00" itree="28">
      <Node pos="s" depth="0" NCoef="0" IVar="7" Cut="1.9586552429199219e+02" cType="1" res="-4.3410933576524258e-03" rms="2.2769430279731750e-01" purity="4.9967968463897705e-01" nType="0">
        <Node pos="l" depth="1" NCoef="0" IVar="7" Cut="1.4532934570312500e+02" cType="1" res="3.0587222427129745e-02" rms="2.7151268720626831e-01" purity="8.5970282554626465e-01" nType="0">
          <Node pos="l" depth="2" NCoef="0" IVar="-1" Cut="0.0000000000000000e+00" cType="1" res="-2.9746081680059433e-02" rms="4.2084378004074097e-01" purity="4.8640212416648865e-01" nType="-99"/>
          <Node pos="r" depth="2" NCoef="0" IVar="8" Cut="9.7200027465820312e+01" cType="1" res="4.2598720639944077e-02" rms="2.5265622138977051e-01" purity="8.8799571990966797e-01" nType="0">
            <Node pos="l" depth="3" NCoef="0" IVar="-1" Cut="0.0000000000000000e+00" cType="1" res="2.3854881525039673e-02" rms="2.3276460170745850e-01" purity="9.2743009328842163e-01" nType="-99"/>
            <Node pos="r" depth="3" NCoef="0" IVar="-1" Cut="0.0000000000000000e+00" cType="1" res="-1.8173264339566231e-02" rms="3.8695564866065979e-01" purity="4.8321172595024109e-01" nType="-99"/>
          </Node>
        </Node>
        <Node pos="r" depth="1" NCoef="0" IVar="1" Cut="1.6187738037109375e+02" cType="1" res="-4.7062262892723083e-02" rms="1.4755530655384064e-01" purity="5.9331856667995453e-02" nType="0">
          <Node pos="l" depth="2" NCoef="0" IVar="2" Cut="1.4986715316772461e+01" cType="1" res="-7.0446871221065521e-02" rms="1.9704857468605042e-01" purity="7.2183683514595032e-02" nType="0">
            <Node pos="l" depth="3" NCoef="0" IVar="-1" Cut="0.0000000000000000e+00" cType="1" res="-4.7248702496290207e-02" rms="1.7601124942302704e-01" purity="4.5808624476194382e-02" nType="-99"/>
            <Node pos="r" depth="3" NCoef="0" IVar="-1" Cut="0.0000000000000000e+00" cType="1" res="-2.1191801875829697e-02" rms="2.1521757543087006e-01" purity="1.0199970752000809e-01" nType="-99"/>
          </Node>
          <Node pos="r" depth="2" NCoef="0" IVar="10" Cut="2.6112917065620422e-01" cType="1" res="-3.6640413105487823e-02" rms="1.1755452305078506e-01" purity="5.3604178130626678e-02" nType="0">
            <Node pos="l" depth="3" NCoef="0" IVar="-1" Cut="0.0000000000000000e+00" cType="1" res="-3.6509376019239426e-02" rms="9.5440305769443512e-02" purity="2.5896240025758743e-02" nType="-99"/>
            <Node pos="r" depth="3" NCoef="0" IVar="-1" Cut="0.0000000000000000e+00" cType="1" res="1.1014427989721298e-02" rms="2.3961074650287628e-01" purity="3.3824455738067627e-01" nType="-99"/>
          </Node>
        </Node>
      </Node>
    </BinaryTree>
    <BinaryTree type="DecisionTree" boostWeight="1.0000000000000000e+00" itree="29">
      <Node pos="s" depth="0" NCoef="0" IVar="8" Cut="1.2011969757080078e+02" cType="1" res="-1.1961351847276092e-03" rms="2.2607043385505676e-01" purity="4.9950122833251953e-01" nType="0">
        <Node pos="l" depth="1" NCoef="0" IVar="9" Cut="4.7567003965377808e-01" cType="1" res="1.8697008490562439e-02" rms="2.6722452044487000e-01" purity="7.2201204299926758e-01" nType="0">
          <Node pos="l" depth="2" NCoef="0" IVar="-1" Cut="0.0000000000000000e+00" cType="1" res="-5.0114460289478302e-02" rms="3.0079314112663269e-01" purity="2.4187225103378296e-01" nType="-99"/>
          <Node pos="r" depth="2" NCoef="0" IVar="8" Cut="5.5146671295166016e+01" cType="1" res="2.8506020084023476e-02" rms="2.6189517974853516e-01" purity="7.5274848937988281e-01" nType="0">
            <Node pos="l" depth="3" NCoef="0" IVar="-1" Cut="0.0000000000000000e+00" cType="1" res="-3.9585098624229431e-02" rms="3.4977993369102478e-01" purity="1.9149740040302277e-01" nType="-99"/>
            <Node pos="r" depth="3" NCoef="0" IVar="-1" Cut="0.0000000000000000e+00" cType="1" res="1.5072274021804333e-02" rms="2.5482234358787537e-01" purity="7.7600282430648804e-01" nType="-99"/>
          </Node>
        </Node>
        <Node pos="r" depth="1" NCoef="0" IVar="10" Cut="1.0043233633041382e-01" cType="1" res="-4.5566994696855545e-02" rms="5.4548934102058411e-02" purity="3.1994855962693691e-03" nType="0">
          <Node pos="l" depth="2" NCoef="0" IVar="12" Cut="6.5836048126220703e-01" cType="1" res="-4.3699312955141068e-02" rms="4.1335124522447586e-02" purity="1.8680106149986386e-03" nType="0">
            <Node pos="l" depth="3" NCoef="0" IVar="-1" Cut="0.0000000000000000e+00" cType="1" res="-4.8174295574426651e-02" rms="2.3130508139729500e-02" purity="2.3113845963962376e-04" nType="-99"/>
            <Node pos="r" depth="3" NCoef="0" IVar="-1" Cut="0.0000000000000000e+00" cType="1" res="-3.8629777729511261e-02" rms="8.5538618266582489e-02" purity="9.7822006791830063e-03" nType="-99"/>
          </Node>
          <Node pos="r" depth="2" NCoef="0" IVar="-1" Cut="0.0000000000000000e+00" cType="1" res="-4.3050792068243027e-02" rms="1.1107744276523590e-01" purity="1.3276299461722374e-02" nType="-99"/>
        </Node>
      </Node>
    </BinaryTree>
    <BinaryTree type="DecisionTree" boostWeight="1.0000000000000000e+00" itree="30">
      <Node pos="s" depth="0" NCoef="0" IVar="10" Cut="1.4093655347824097e-01" cType="1" res="-2.9779565520584583e-03" rms="2.2501225769519806e-01" purity="4.9658447504043579e-01" nType="0">
        <Node pos="l" depth="1" NCoef="0" IVar="9" Cut="4.7577533125877380e-01" cType="1" res="-3.5153362900018692e-02" rms="2.0593105256557465e-01" purity="1.8845452368259430e-01" nType="0">
          <Node pos="l" depth="2" NCoef="0" IVar="-1" Cut="0.0000000000000000e+00" cType="1" res="-5.6476272642612457e-02" rms="1.6905570030212402e-01" purity="2.8123941272497177e-02" nType="-99"/>
          <Node pos="r" depth="2" NCoef="0" IVar="10" Cut="6.8884961307048798e-02" cType="1" res="-2.9587872326374054e-02" rms="2.0886130630970001e-01" purity="2.0615896582603455e-01" nType="0">
            <Node pos="l" depth="3" NCoef="0" IVar="-1" Cut="0.0000000000000000e+00" cType="1" res="-3.5118207335472107e-02" rms="1.4153069257736206e-01" purity="5.8566004037857056e-02" nType="-99"/>
            <Node pos="r" depth="3" NCoef="0" IVar="-1" Cut="0.0000000000000000e+00" cType="1" res="-2.3013134486973286e-03" rms="2.8497248888015747e-01" purity="4.4704806804656982e-01" nType="-99"/>
          </Node>
        </Node>
        <Node pos="r" depth="1" NCoef="0" IVar="8" Cut="6.5458984375000000e+01" cType="1" res="2.3652581498026848e-02" rms="2.3636904358863831e-01" purity="7.5161367654800415e-01" nType="0">
          <Node pos="l" depth="2" NCoef="0" IVar="8" Cut="5.2761978149414062e+01" cType="1" res="-9.0683080255985260e-02" rms="3.5664761066436768e-01" purity="3.9047724008560181e-01" nType="0">
            <Node pos="l" depth="3" NCoef="0" IVar="-1" Cut="0.0000000000000000e+00" cType="1" res="-5.1191210746765137e-02" rms="3.1448614597320557e-01" purity="1.2093200534582138e-01" nType="-99"/>
            <Node pos="r" depth="3" NCoef="0" IVar="-1" Cut="0.0000000000000000e+00" cType="1" res="-9.0730637311935425e-03" rms="3.6673861742019653e-01" purity="5.5444443225860596e-01" nType="-99"/>
          </Node>
          <Node pos="r" depth="2" NCoef="0" IVar="5" Cut="1.8123858642578125e+02" cType="1" res="4.0476776659488678e-02" rms="2.0776923000812531e-01" purity="8.0475389957427979e-01" nType="0">
            <Node pos="l" depth="3" NCoef="0" IVar="-1" Cut="0.0000000000000000e+00" cType="1" res="2.6137331500649452e-02" rms="2.1571716666221619e-01" purity="9.0983718633651733e-01" nType="-99"/>
            <Node pos="r" depth="3" NCoef="0" IVar="-1" Cut="0.0000000000000000e+00" cType="1" res="-4.5501094311475754e-02" rms="7.5386799871921539e-02" purity="8.5832271724939346e-03" nType="-99"/>
          </Node>
        </Node>
      </Node>
    </BinaryTree>
    <BinaryTree type="DecisionTree" boostWeight="1.0000000000000000e+00" itree="31">
      <Node pos="s" depth="0" NCoef="0" IVar="8" Cut="1.1784805297851562e+02" cType="1" res="-1.2234704336151481e-03" rms="2.2229284048080444e-01" purity="4.9805846810340881e-01" nType="0">
        <Node pos="l" depth="1" NCoef="0" IVar="7" Cut="2.0722113037109375e+02" cType="1" res="1.5759591013193130e-02" rms="2.6309072971343994e-01" purity="7.2267258167266846e-01" nType="0">
          <Node pos="l" depth="2" NCoef="0" IVar="7" Cut="1.4447546386718750e+02" cType="1" res="3.1602978706359863e-02" rms="2.7495571970939636e-01" purity="8.6264586448669434e-01" nType="0">
            <Node pos="l" depth="3" NCoef="0" IVar="-1" Cut="0.0000000000000000e+00" cType="1" res="-3.0731556937098503e-02" rms="4.2049738764762878e-01" purity="4.6681064367294312e-01" nType="-99"/>
            <Node pos="r" depth="3" NCoef="0" IVar="-1" Cut="0.0000000000000000e+00" cType="1" res="1.8305940553545952e-02" rms="2.5751906633377075e-01" purity="8.9094370603561401e-01" nType="-99"/>
          </Node>
          <Node pos="r" depth="2" NCoef="0" IVar="8" Cut="8.1550079345703125e+01" cType="1" res="-6.0481131076812744e-02" rms="1.7741443216800690e-01" purity="4.9100700765848160e-02" nType="0">
            <Node pos="l" depth="3" NCoef="0" IVar="-1" Cut="0.0000000000000000e+00" cType="1" res="-5.1251903176307678e-02" rms="1.0803681612014771e-01" purity="7.1644200943410397e-03" nType="-99"/>
            <Node pos="r" depth="3" NCoef="0" IVar="-1" Cut="0.0000000000000000e+00" cType="1" res="-2.2111026570200920e-02" rms="2.0912081003189087e-01" purity="7.6448507606983185e-02" nType="-99"/>
          </Node>
        </Node>
        <Node pos="r" depth="1" NCoef="0" IVar="2" Cut="9.6961650848388672e+00" cType="1" res="-3.8522593677043915e-02" rms="6.2432523816823959e-02" purity="4.7486373223364353e-03" nType="0">
          <Node pos="l" depth="2" NCoef="0" IVar="8" Cut="2.0145309448242188e+02" cType="1" res="-4.4918779283761978e-02" rms="7.0221289992332458e-02" purity="4.8265499062836170e-03" nType="0">
            <Node pos="l" depth="3" NCoef="0" IVar="-1" Cut="0.0000000000000000e+00" cType="1" res="-4.4661443680524826e-02" rms="9.7341060638427734e-02" purity="9.4440812245011330e-03" nType="-99"/>
            <Node pos="r" depth="3" NCoef="0" IVar="-1" Cut="0.0000000000000000e+00" cType="1" res="-4.7978773713111877e-02" rms="4.4932356104254723e-03" purity="0.0000000000000000e+00" nType="-99"/>
          </Node>
          <Node pos="r" depth="2" NCoef="0" IVar="7" Cut="2.6066909790039062e+02" cType="1" res="-3.6059208214282990e-02" rms="5.8975175023078918e-02" purity="4.7186315059661865e-03" nType="0">
            <Node pos="l" depth="3" NCoef="0" IVar="-1" Cut="0.0000000000000000e+00" cType="1" res="-2.3060256615281105e-02" rms="1.5346781909465790e-01" purity="3.2295215874910355e-02" nType="-99"/>
            <Node pos="r" depth="3" NCoef="0" IVar="-1" Cut="0.0000000000000000e+00" cType="1" res="-4.7977652400732040e-02" rms="5.0763306207954884e-03" purity="0.0000000000000000e+00" nType="-99"/>
          </Node>
        </Node>
      </Node>
    </BinaryTree>
    <BinaryTree type="DecisionTree" boostWeight="1.0000000000000000e+00" itree="32">
      <Node pos="s" depth="0" NCoef="0" IVar="7" Cut="1.9739463806152344e+02" cType="1" res="-6.0246884822845459e-04" rms="2.2181883454322815e-01" purity="5.0169169902801514e-01" nType="0">
